295 100
TWMET_00805 -0.13209286 0.050184272 0.03251454 0.2479465 0.1770609 -0.66245073 -0.1504222 0.4530713 -0.84062994 -0.8458634 0.2713984 -1.2435137 -1.0028939 -0.40979254 0.050730426 0.913443 -0.40014315 0.35974178 -0.8386919 0.6434494 0.7823524 0.6223492 1.3606403 0.28218666 0.9320945 1.2181509 -0.7289823 -1.8752718 1.0549394 -0.4249232 2.5191536 0.7512715 -0.039788842 0.055200703 -0.98610485 -0.78178424 0.19090924 -0.22719385 -0.48961803 -0.11898109 0.78892916 -0.36099562 -0.17798719 -1.4226019 1.3153517 1.1721989 -1.2140874 0.15537651 0.25012076 -0.1894371 -0.6662018 -0.20736246 0.45485556 -0.9697909 0.50019574 0.35903865 0.3877922 -0.5989272 -0.4290529 0.3333802 -0.01650686 0.99137104 1.5220515 -0.8082027 1.2751242 -0.8162404 0.4160655 -1.0173999 0.8418656 0.22720961 -0.07038073 -0.8618357 1.6542143 -1.43702 -0.58116055 -0.74588203 0.54389274 -1.0758462 -1.1462845 1.0275476 -0.62529284 -0.41125876 0.35090747 -0.016586583 0.0031304378 -0.46979073 1.1788472 0.5040079 -0.7026866 0.7382601 -0.5033527 0.43701208 -0.028681846 0.018700322 0.4540283 -0.106621966 -0.49210507 -1.4782481 1.0643089 0.33054012
TWMET_00058 0.13201794 0.14103794 0.010638417 0.08110686 0.36506963 -0.8029965 -0.009985438 0.4016152 -0.7582819 -0.93990374 0.17747228 -0.97445154 -0.8191654 -0.33061495 0.043290235 0.9602582 -0.05174053 0.42621174 -0.8303786 0.70606947 0.90342337 0.6027391 1.3921014 0.24708101 0.8685066 1.2144021 -0.6228232 -1.8076558 0.8595492 -0.27982998 2.593907 1.0236673 -0.04573681 -0.14623874 -0.90319335 -0.78192246 0.31587562 -0.07831067 -0.4342334 -0.17298037 0.5906202 -0.5774129 -0.20823032 -1.3240014 1.4134045 1.1121663 -1.3644899 0.13364036 0.16189943 -0.1515619 -0.548422 -0.21344073 0.37114036 -0.9789524 0.2876986 0.41323864 0.35741955 -0.56901467 -0.39420635 0.32580608 0.11867407 0.80278593 1.3606062 -0.96540886 1.129794 -0.6824924 0.2749664 -1.0424513 0.711443 0.28168336 -0.22045873 -0.91004086 1.5585409 -1.6069051 -0.73140156 -0.7076213 0.5878299 -0.9389076 -0.9855844 0.7996494 -0.7649393 -0.35461614 0.35651296 -0.056292396 0.19187038 -0.25588652 1.1460847 0.51202124 -0.5673457 0.9084797 -0.46356583 0.35624313 -0.08085766 -0.08995504 0.66883886 0.0018492469 -0.3782445 -1.7386109 1.001117 0.26831102
TWMET_00322 0.163295 0.24059622 0.074124284 0.19118375 0.28350744 -0.61802423 -0.1677589 0.33430094 -0.6190224 -0.6658251 0.15537298 -0.772201 -0.8408276 -0.34246662 0.05410256 0.8574441 -0.24171709 0.4909096 -0.7403168 0.7116856 0.58315855 0.47014308 1.636456 0.062289957 0.6776823 1.2948099 -0.8197698 -1.6959373 0.8696719 -0.45900407 2.6453633 0.81299675 0.034410994 0.029534813 -1.0363833 -0.68927646 0.18902263 -0.011680981 -0.6221532 -0.34114483 0.5490139 -0.23695664 -0.3001201 -1.5020332 1.3608435 1.3275441 -1.3374877 0.104511686 0.31030717 -0.41723636 -0.67415255 -0.3096702 0.27731785 -1.1332068 0.4317819 0.005022081 0.38756493 -0.34158176 -0.31684682 0.43255514 0.1301091 0.92122674 1.4347159 -1.0315534 1.0932782 -0.6788368 0.3186306 -1.2095637 0.5173196 0.36219364 -0.34200183 -1.0213294 1.5232779 -1.4749936 -0.29416704 -0.9228657 0.44414192 -1.0887754 -0.92052 0.767427 -0.8779886 -0.23380338 0.15803732 0.0908798 0.14261949 -0.27979204 0.8735581 0.48106852 -0.59997743 0.81241703 -0.3797754 0.58408487 0.102845445 -0.07115142 0.6474738 -0.2994933 -0.42503947 -1.7886804 1.2169522 0.12517509
TWMET_00126 -1.5989723 0.25270686 -0.025258532 -0.56239724 -0.28342682 -0.09350812 0.53958654 -2.052327 -0.914797 0.262886 -0.41483682 -0.2061321 -0.6300703 0.46438524 -0.24446268 -1.6456841 0.8760647 0.20800737 0.9113211 -0.04266021 -0.027019028 -1.7304333 -0.36477703 -0.2073886 -0.73608476 0.5746353 1.328619 -0.2132383 0.6610879 0.021474894 -0.1530152 0.04151957 0.4247171 1.2674887 0.77604073 0.08626935 1.0129168 -0.02779433 1.0216068 -0.52715474 1.0551968 0.5435096 0.5028397 1.3200284 0.4130268 -1.5683594 -0.87286884 -1.0456125 0.2901069 0.21828894 1.8220849 0.7376606 0.40567788 0.64159113 -0.7352461 0.072356924 0.15108584 -1.6942029 0.28350243 -0.12864846 -1.4930018 2.4681773 0.1077876 -0.18063611 -0.31226286 0.225827 -0.87337005 0.26818693 0.12741351 -0.0062728347 0.9564771 0.38323483 0.17165165 -0.24247868 -0.9947489 -0.15678807 1.3481812 0.63728696 1.5630021 0.8392205 0.5712164 0.37477797 -0.09030498 -0.6912479 0.13328317 -0.071648195 1.1552081 0.74149 -0.38663113 0.13350542 -0.11338144 -1.2182359 -0.13590895 0.3541869 -0.56048995 1.5049137 0.8616961 0.014398885 0.45798665 0.30685395
TWMET_00178 0.41266763 -0.38616407 0.5332319 -1.2701848 0.8531109 -1.366425 1.5909126 0.7484306 -0.05989773 -0.7896545 -0.07700544 -0.42333964 0.30768532 -0.3321245 -1.9246335 0.510626 0.5319569 0.40289217 -0.97595525 0.33586293 0.30730546 0.4341889 -0.44670874 0.20581946 -1.0480033 0.08673533 0.089733824 0.19040081 -1.0814195 0.01070365 0.19720586 -0.035722002 -1.0755804 -0.15969421 0.4060638 0.1736971 -1.545677 -1.0639874 0.40067166 -1.1017623 0.96421283 -0.3315743 -0.36166212 0.36161816 -0.28077567 0.054840412 0.64057934 1.4860379 0.66926557 -1.7719258 0.7909018 0.11448094 0.47046852 0.044250607 0.5954537 -0.23142627 0.3252731 -0.9130327 -0.8328883 -0.51716644 0.34795836 -0.11089707 -1.3758721 1.328158 0.48839632 1.2179253 -0.21622337 0.1300387 0.6935448 0.67671907 0.06130913 0.88569313 0.91127443 -1.2381322 0.32099354 0.32220268 -0.9841689 -0.30912623 -0.036577445 -0.5097269 -0.45872924 -0.25504103 -0.13012134 0.57398134 0.34613246 0.77666324 1.0156983 -1.0764728 -0.16063133 -0.6627217 0.8317606 -1.3163577 0.5372289 -0.7152762 -0.5982609 -0.23167601 1.3673414 -0.8662238 0.4631727 -0.5001042
TWMET_00057 0.9819323 0.8676097 -0.58595896 0.35714558 -0.20539145 -1.1635581 -0.13643241 -1.2429495 -1.6561949 1.5115373 -0.08943047 -0.8284336 0.20929305 0.74013335 0.084763005 -1.720285 -0.044597007 0.26463592 -0.5954576 0.37502754 -0.2658007 -0.4818926 1.0610584 0.43847337 -1.7415243 -0.48740843 0.719479 0.76812005 -0.4590465 0.1415514 0.26892975 1.2858552 -0.45068264 0.9050947 0.52754515 0.40645933 -0.5578541 -1.587314 -0.3599203 -0.6719651 0.08665705 -0.019441513 0.6219105 0.3034907 -0.20601697 -0.072045416 -0.3879224 -0.8708829 -0.19289108 0.3319132 -0.20021553 1.0039014 -1.3578001 -1.003858 0.043494996 0.011599218 0.20914468 -0.25657776 0.5442265 0.2508552 0.217771 1.9705765 0.3153503 -0.36299294 -0.34669298 -0.03919188 -0.39442462 0.5959423 -0.456775 -1.0347394 1.0766273 -0.38251007 0.2718611 -1.3073857 -0.24445549 -1.586569 -1.1179107 0.8914622 1.393237 0.5442089 -0.95627993 0.096632004 -0.6696907 -0.8237923 0.4338613 -0.3962531 -0.7110925 -0.38732174 -1.4739236 0.59845656 0.50717306 1.4098787 -0.18183775 0.6473905 0.7547197 0.37938765 0.9175161 -0.27335107 -0.66867834 -0.18261322
TWMET_00076 0.56416523 -0.53525984 0.5430864 -1.081875 0.9204893 -1.2620194 1.3900839 0.90082115 -0.049324855 -0.77190334 -0.0140901655 -0.46971872 0.4920956 -0.15540233 -2.189642 0.4682023 0.4410546 0.5094406 -1.0825677 0.17571262 0.429494 0.32484534 -0.5455869 0.08845548 -1.052333 0.14805694 0.120035015 0.3798254 -0.9477242 -0.0294265 0.033827905 0.09744742 -1.1819798 -0.00048259934 0.3593601 0.31608263 -1.3052326 -1.1093842 0.24940068 -0.9237304 1.0374897 -0.3104042 -0.52210784 0.31936207 -0.20556849 0.16548002 0.68465143 1.424207 0.7363559 -1.5618718 0.77705014 -0.17995 0.51684016 -0.04614363 0.96209085 -0.21342264 0.24568419 -0.81624925 -0.8539507 -0.5431728 0.39076605 -0.3650868 -1.2608782 1.4662114 0.34966922 1.2019213 -0.055353843 0.058529545 0.59520906 0.6868613 0.2170137 0.6432595 0.6458513 -1.0481957 0.46176037 0.15306611 -1.0524265 -0.27256423 0.02440152 -0.39997908 -0.39092973 -0.067340925 -0.1704604 0.58716625 0.36622548 0.7894741 0.9108121 -1.0506079 -0.20565706 -0.88463247 0.7960397 -1.2858317 0.41843265 -0.66476876 -0.6324652 -0.3140731 1.3465902 -0.86282223 0.41159007 -0.45797408
TWMET_00183 0.73628885 0.93201613 -0.6580878 0.11043349 -0.09950801 -1.1766772 -0.14110258 -0.8844082 -1.6761212 1.7004277 -0.22469367 -1.2641069 0.05353878 0.6816124 0.016083356 -1.6032156 0.124022625 0.28402427 -0.67658573 0.31431347 -0.57836175 -0.3277959 1.0126804 0.4350967 -1.7441559 -0.7265414 0.66330785 0.74013555 -0.5814765 0.2789069 0.103903845 1.027079 -0.29132718 0.84935266 0.2932963 0.3793894 -0.8622056 -1.6929559 -0.27610138 -0.5016673 0.29495555 0.055974055 0.47542697 0.47118407 -0.20799486 -0.016411431 -0.32229555 -0.8855398 -0.030418767 0.22663729 -0.26304045 0.7811046 -1.2104582 -0.9432265 0.23871048 -0.01674254 0.48747128 -0.36784625 0.43769434 0.08892741 0.4383342 1.9532663 0.31543028 -0.055785406 -0.2595624 0.1415847 -0.18754534 0.61429715 -0.27418298 -1.0994383 1.0320027 -0.4436271 0.41604015 -1.2884665 -0.38441217 -1.5344809 -0.93758494 0.77192175 1.0105059 0.74605924 -0.74371153 -0.055878617 -0.6054047 -0.63894373 0.50313145 -0.4297098 -0.49450296 -0.25836712 -1.5588142 0.46133792 0.6047938 1.3548529 -0.003411739 0.47861367 0.85307264 0.27674425 0.96196926 -0.2331876 -0.65656614 -0.32283083
TWMET_00011 0.15663388 -0.46541837 1.0103058 -0.9124635 -1.4008613 -0.44487822 1.3842149 -1.6667869 -0.73701465 0.28521264 -0.66528064 0.34035987 0.071745016 -0.766102 0.53418577 0.06660278 -0.022050787 -0.019322263 0.58158714 -0.8918826 1.0627607 -0.0004145881 -1.8513973 1.1930457 -0.4741583 0.6391638 0.48817804 0.26757812 0.07296279 0.7148422 -1.5748117 0.65471387 -0.14604484 -0.9916362 0.31559718 1.308885 0.9047159 0.29084188 1.2325459 -0.81121784 -0.059145562 0.3082807 0.5425479 0.5645333 -0.17690173 -0.0042352965 0.09021797 -0.07212357 -0.25472772 -0.22248778 1.5880811 0.9870795 -0.037673034 -0.38736534 -1.4364111 -0.9445673 0.8471486 -1.6658748 0.9846417 1.1040205 -0.105454125 0.75178057 -0.5239725 -0.46640664 0.06183856 0.23278011 -1.2176696 0.20332119 0.9774835 0.5716182 0.8508218 0.3609874 0.9437471 -0.523924 -0.13671413 0.06371621 -0.030340955 0.56571937 0.79746044 -0.4388501 0.21235976 -0.41931263 -0.6942814 -1.2076753 0.9544041 0.30989188 0.36333677 0.32823005 0.23604532 0.73583406 -0.6947875 -1.2353868 1.0524412 1.1771291 -0.21659875 0.67308027 0.7025602 1.9593508 -0.05688118 0.27602038
TWMET_00004 -1.4641907 0.5201574 0.7459933 -0.026093839 -0.21297131 -0.9865713 1.0302737 -1.8589659 -0.7492184 -0.4493287 -0.26743189 -0.55587894 0.35734254 0.36953568 0.2570116 -0.88380647 0.5588983 0.6654111 -0.11252225 -0.46622986 0.115269095 -0.08344634 -1.667539 0.6032115 -0.7518063 0.4504396 0.4369282 0.041689545 1.5913653 0.3808969 -0.52445316 -0.12599938 -0.34444422 1.1416007 0.5663389 0.74999136 1.2415583 -0.8574329 -0.3678505 0.41674504 0.8082603 0.9208671 0.4680501 0.8251226 0.24101292 -0.83954626 -0.97418594 -0.2834696 -0.48175105 -0.096402906 0.9012221 0.029602649 0.05186994 0.6472336 -0.9601766 -0.34873098 0.013991434 -1.1024853 0.89103377 0.5327222 -1.7932357 0.42078558 0.53161544 -0.8250888 -0.983484 -0.4402019 -0.8710731 -0.31653768 0.8991724 -0.92077005 0.8664307 0.828628 0.67976546 -0.8990686 -1.0864338 -0.5195663 1.3290116 1.0738633 0.9865244 -0.17056783 1.0706326 1.0718122 -1.5038457 -1.0285325 0.23038465 -0.45587 1.1366743 0.32983956 -0.747191 0.16141918 0.50976044 -1.6250495 -0.051718708 1.0110106 0.52767795 1.1460528 0.6530169 0.29408324 0.47215393 0.45005766
TWMET_00497 -1.9544244 0.3131163 -0.0817547 -0.8685661 -0.2117408 0.07208853 0.54944 -1.9134828 -1.1238811 0.4201068 -0.42912394 -0.16125374 -0.7106926 0.581088 -0.549097 -1.7697293 0.75034326 0.21689382 0.7206982 -0.16736503 -0.5269857 -1.3787851 -0.5543255 -0.4936065 -0.82135665 0.47291476 1.4419324 -0.2887565 0.78320354 0.07430951 -0.18083848 -0.46651766 0.3688615 1.7278652 0.5484509 -0.2464021 0.95388687 -0.026000338 0.7514712 -0.4701011 1.2272458 0.80476916 0.2820192 1.3045022 0.26358938 -1.8530544 -1.2560569 -0.82433385 0.3028478 0.23521483 1.6116081 0.44804832 0.41917425 0.75021535 -0.44664973 0.11954991 -0.13776721 -1.4798023 0.073674016 0.108960435 -1.3007381 1.8785621 0.3403488 0.07552125 -0.5058059 0.0642136 -0.63815534 0.17599432 0.0854728 0.3042913 0.91715765 0.20904063 0.17620203 -0.1597696 -0.96192 -0.49765208 1.4576132 0.24068975 1.7162234 0.8287041 0.9891702 0.48505262 -0.13329448 -0.7223852 0.1732718 -0.061993323 1.2253108 0.8270294 -0.7103899 -0.09756691 -0.32571736 -1.8034474 -0.15832153 0.13351662 -0.24261925 1.355616 0.4311976 -0.19385654 0.3837962 0.12902863
TWMET_00225 -0.23445033 -0.47114405 -1.0844953 -0.39410356 0.75742877 -0.83422935 0.0069574947 0.6270957 -0.58523506 0.6561753 0.5633319 -0.19383712 -0.64373577 0.025899928 -2.3140795 -1.0039514 -0.046065174 -0.23901337 -1.0312371 -0.39052084 -0.0037523771 0.74733603 -0.22504471 -0.5105041 -0.8635507 1.4135705 0.63697463 1.2261758 0.3522666 0.7833854 0.3127436 -0.30314657 -0.12266176 -0.6302833 0.24599393 -0.67012507 -0.44744015 0.35760525 -0.71855706 -0.20767221 1.506278 -0.5706755 0.21177746 0.33198094 -0.4470905 -0.6695773 0.13667673 -0.10495929 0.22426443 0.2741164 0.5476689 -0.79326886 -0.87979656 0.23414996 -0.023165459 0.89247465 -0.5446961 -0.07368807 0.20360222 0.09732614 0.91496897 -0.7834669 -0.37091872 0.42229527 -0.3193052 -0.2682015 -0.15998617 -0.68224734 0.3639573 -0.06422627 0.9604735 0.032151833 -0.051133294 0.24734405 -0.9891863 -0.98710793 -0.1446952 -0.0939425 0.47344747 -0.5517084 -0.57760364 0.1417362 -1.2330298 -0.22693251 0.86419535 0.30035424 0.23762101 1.1976852 -0.23281229 0.18854615 -0.46544915 -1.3362284 0.16812004 -1.2418307 1.3748083 -0.11066009 0.67784345 0.46186352 -1.3187686 0.054175016
TWMET_00069 -0.21414408 -0.53546494 -1.0416076 -0.52973044 0.7772801 -0.89056796 -0.10341384 0.73314834 -0.61235535 0.6627492 0.51631 -0.33126184 -0.7734133 0.09847422 -2.4263258 -1.2117424 0.20037398 -0.021427872 -1.0138215 -0.36739329 -0.054776378 0.66468924 0.015454146 -0.5770779 -0.85986024 1.5795435 0.66433126 1.206699 0.25806746 0.90237266 0.34787545 -0.34636742 -0.064231314 -0.80807835 0.19277704 -0.54894185 -0.48781595 0.3629049 -0.61197495 -0.20759848 1.6546036 -0.580114 0.26697308 0.38735434 -0.3084873 -0.55096215 0.07995411 -0.23004773 0.27714714 0.19823855 0.6960572 -0.7222128 -0.8497906 0.35434204 0.04270217 0.8804752 -0.5320471 -0.122873195 0.20845658 0.07716914 0.92930204 -0.8602263 -0.32088313 0.4591964 -0.30252865 -0.35805207 -0.20246172 -0.7493789 0.41935867 -0.2059199 0.98595315 0.053787578 -0.002856818 0.3398201 -1.0699182 -1.0482762 0.032175098 -0.040046994 0.3887528 -0.5490629 -0.68508345 0.10892106 -1.2522365 -0.14494663 1.0139579 0.36554977 0.21599764 1.442651 -0.28090852 0.25048694 -0.39620242 -1.3568262 0.13025308 -1.3608149 1.36609 -0.14898579 0.7714637 0.55503535 -1.3731657 0.048138514
TWMET_00019 1.0024538 0.17237984 -0.871146 -0.12876181 0.25728244 -0.6469225 0.56021285 0.8630971 0.8606788 -0.19473855 0.2700603 -0.19197531 0.6635993 0.4640461 -0.16173702 -0.43781757 0.68604904 1.241599 0.6761847 -0.16723369 0.6612186 0.6569608 0.74701744 0.87711906 -0.5151432 -0.051151063 -1.7503659 1.3282268 -0.4563294 1.771543 0.5619083 0.6074667 -0.26967293 -0.80634665 0.5364241 0.2665315 0.13194449 -1.302183 0.5086389 0.5096531 0.64025515 -0.97977734 -1.0044829 -0.9588417 0.24876943 1.3498029 -0.8901426 -0.5294708 -0.91884935 -0.65316945 0.6119687 0.25220957 0.513597 -0.56075335 -1.9613544 0.76963127 0.4521949 -0.2543863 0.23500378 -1.4026704 0.17917216 -0.6851496 -0.16562384 0.46954992 0.5262343 0.5217715 -1.1358846 -0.36882854 0.8426122 -0.50569105 1.7686408 -0.10885711 -0.35215256 -0.51938236 -0.558849 -0.33846536 0.22474092 0.5145686 0.2115444 -0.061969116 -0.71394324 0.048845958 1.1760616 0.8871625 0.50986004 0.5489412 -0.6743851 1.2813061 0.8591891 0.28931966 -0.78528905 -0.46553302 -1.0428221 -0.5006129 0.856773 0.8078208 -0.4065043 0.29982173 -0.08628058 -0.10299287
TWMET_00847 1.106139 0.15726893 0.16635865 -0.54200006 0.3898341 0.018797873 0.3768277 1.049587 -0.4895866 0.16895601 0.38709632 -0.16621351 0.15548252 0.48762146 0.54536843 1.0536249 0.5170206 -0.5665547 0.5988458 1.24582 -1.131464 -0.50255007 -0.72624654 -0.94073474 -0.54023135 -0.9159105 0.5299309 -0.2347859 -0.05310007 1.429902 -0.3556216 -0.3868505 1.8911864 -0.008812104 1.396999 -0.5858478 0.051848926 0.16611691 -0.6114039 -0.46890718 0.22974846 0.2743048 -1.2829558 -0.1417031 -1.0675987 -1.1083189 -0.5505021 0.32099068 0.7663005 -0.20232342 0.345404 1.273372 -1.0944077 0.41051555 -0.35109597 0.26365644 0.44691363 0.26747 -0.32345384 -1.121306 0.82643294 1.0651083 0.091754295 0.66230637 0.38149676 0.78274477 -0.9695997 0.85073614 -0.008673883 0.5750615 -0.7198035 -0.076068476 -0.35525173 -0.83584267 -0.94072473 0.2734403 -0.3803537 0.6218379 -0.26810643 -0.83705175 0.26510733 -0.7429005 0.38637832 -1.5541202 1.6039387 -0.22402379 0.60546875 -0.36376014 0.358617 -1.1295993 -1.076962 -1.021914 2.0710926 0.13350935 -0.55177474 -0.54335725 -0.8832713 -0.42419627 -1.0235883 -0.7671885
TWMET_00240 0.95756304 -0.45769078 0.33837664 0.17733026 0.8040852 -1.2561917 -0.06432762 0.58229905 0.5230841 -0.090903655 1.0673643 0.86490166 -0.47826254 0.43847382 0.33977202 0.34021935 1.2680448 -0.7530554 0.67329824 0.15300621 -0.5700888 -1.7293404 0.28786147 -1.0676517 0.28959355 1.0980396 -1.5126548 1.2031894 -0.0641009 0.2735969 -0.9162823 -0.91531116 1.0322844 -0.8883828 0.20668633 -0.27770224 0.18567601 0.5857232 -0.35361886 0.7246606 0.16668764 -0.27976185 -0.031125216 0.16720909 -1.0396401 -0.15262538 -0.42935243 -0.53260565 0.5321719 -0.17463957 0.2725416 0.69333017 -0.9099286 -0.2758208 0.18535109 -0.24890436 -1.4144644 -1.3410145 -0.82942474 -0.3823242 -0.36611643 0.8791421 -0.4111115 0.9451335 -0.13635956 -0.5687951 -0.9549481 -0.9923631 -0.27391884 0.24413392 0.4338972 -0.3893063 -0.38110754 1.3399278 -0.56291187 -0.8562466 -0.126914 0.13548018 0.534824 0.5489051 -1.7142098 -0.17241982 -0.19540651 -0.4320608 1.4801605 0.9320276 -1.0509459 0.25255772 0.14696394 -0.6041552 0.48183024 -0.28054354 1.0360781 0.8708683 -0.179283 -1.2057076 -0.26295754 0.16344182 -0.9824201 -0.29427755
TWMET_00451 1.466567 -1.2686249 -0.15502632 -0.47837147 0.035801243 -0.6657908 -0.11120069 0.4074478 0.84023017 -0.502213 -0.2071679 -0.040202834 -0.29907945 0.59446377 1.1565875 -0.7135498 1.1904877 -0.551556 0.9249952 0.6162652 -0.80136645 0.08532866 1.2279125 -0.8655038 -1.1433752 0.2706709 -0.80595917 -0.5845426 -0.16722554 -0.03383435 -1.1160358 -0.15460345 -0.6426325 -0.23854783 -0.9419539 1.6385196 -1.1147538 -0.56946194 0.7041679 0.49899557 -0.82779783 0.14189892 -0.17325789 0.48019913 -1.6184512 0.5448042 0.2722655 0.08577773 0.9071316 0.44225544 -0.5427592 0.8861408 -0.7092437 0.45254606 -0.115340695 -0.067139395 -0.46603385 0.22461791 1.1025574 0.05710594 -0.9827065 0.2843129 1.0505266 0.8323756 0.76130563 -0.10913071 0.34690234 -0.53543913 -0.51418734 0.0940274 0.5594311 0.30393475 1.5902483 0.3957655 -1.0330719 -0.39900258 0.3716727 0.4857988 -0.42489722 -0.09545153 0.19085053 -0.34947288 0.70270836 0.45463505 1.3771602 0.38822547 -0.2758276 -0.11099891 -0.6550665 -1.3218541 0.77053195 -0.40315673 0.40723813 1.0233033 0.6757677 -0.3807676 -1.5881165 -0.25385207 0.70891327 -0.7750288
TWMET_00243 1.4091953 -1.15714 -0.11279787 -0.44124046 0.081795886 -0.5925612 -0.04130433 0.36287 0.7280416 -0.3343889 -0.27192792 -0.112158 -0.26146534 0.55305266 0.93558794 -0.67402065 1.1716672 -0.4606618 0.80057114 0.5800687 -0.7589523 0.061621025 1.0899271 -0.8446195 -1.13584 0.23450132 -0.69423085 -0.49169242 -0.110520214 -0.016201658 -0.98543054 -0.062962115 -0.6261915 -0.15484442 -0.83184826 1.5959603 -0.99336565 -0.57267886 0.67042184 0.43925104 -0.7707613 0.15161787 -0.13554321 0.44263795 -1.4940002 0.41039422 0.15400155 0.07653279 0.8670503 0.51145744 -0.4078005 0.8845251 -0.735887 0.3610043 0.030090144 -0.054255627 -0.4786917 0.13169952 1.1254698 0.07282061 -0.9072653 0.46168026 0.929998 0.7979877 0.6175193 0.007310152 0.3997038 -0.5404691 -0.45971316 -0.023974665 0.56363714 0.33732185 1.4155089 0.24419914 -0.9618562 -0.41162086 0.287246 0.5233552 -0.335204 -0.09576129 0.23196714 -0.2215134 0.55810905 0.30046928 1.3181866 0.37968224 -0.24482286 -0.21703197 -0.6695387 -1.284472 0.7614865 -0.38496384 0.37852058 0.97382396 0.6546555 -0.4017858 -1.440879 -0.27021787 0.68088627 -0.645288
TWMET_00025 1.0320977 -0.3566547 0.30959952 0.15875596 0.7449411 -1.145891 -0.07744207 0.5817073 0.58177847 -0.00022108878 1.0166734 0.80089897 -0.37067127 0.3743094 0.4992439 0.4275418 1.2623457 -0.77675825 0.76224583 0.2310387 -0.5596522 -1.701273 0.2957414 -1.0582364 0.3606882 0.9605379 -1.5645369 1.1158979 -0.13764466 0.24990547 -1.0324543 -0.9510807 1.0826226 -0.8584474 0.20843758 -0.19538824 0.14440264 0.5366621 -0.29070675 0.75641847 -0.019419558 -0.17315613 0.0037768437 0.16313772 -1.0766381 -0.07332227 -0.28398165 -0.4781157 0.3901558 -0.14272249 0.2803781 0.79684454 -0.7566624 -0.25280493 0.19568375 -0.23109125 -1.3302194 -1.2286009 -0.8078875 -0.4108442 -0.48016852 0.87757 -0.42420712 0.99490094 -0.057813343 -0.4871782 -1.0214435 -0.8037158 -0.27723563 0.22737536 0.3998031 -0.3714858 -0.47071174 1.4785911 -0.5280284 -0.69453084 -0.05754029 0.21969931 0.5835424 0.53789175 -1.5864884 -0.23111874 -0.052111536 -0.3270274 1.3426334 0.9389222 -1.1839277 0.17834748 0.25936425 -0.6046823 0.43918476 -0.17985228 0.96380055 0.9156754 -0.15722701 -1.223592 -0.27498892 0.15920967 -1.0465627 -0.35388148
TWMET_00254 0.8721497 -0.63797593 0.308795 -1.0394332 0.9947919 -0.9718752 1.3582451 1.0321714 -0.019183679 -0.32733724 0.12674205 -0.43153903 0.33365744 -0.09318265 -2.5062718 0.43134207 0.46204472 0.6246385 -1.2845595 0.08581723 0.4181616 0.5293893 -0.3376359 -0.21797878 -1.4948404 0.7675276 0.07598104 0.5874502 -0.8382226 -0.0003942435 0.31634554 0.035531413 -1.0220755 -0.04152273 0.46402603 0.62292206 -1.2351471 -0.84280723 0.21143277 -1.0022424 1.3086088 -0.2749703 -0.2257845 0.23645169 -0.19592905 -0.13839822 0.8951145 1.2238312 1.0131556 -1.4384696 0.92257756 -0.3631061 0.31657407 -0.2548511 1.2789636 -0.19893058 -0.09480499 -0.7451213 -0.5884228 -0.71941036 0.38394153 -0.44477782 -1.0769906 1.6069235 0.12621428 0.9671986 -0.024915462 0.0016161972 0.29098776 0.8126231 0.40118712 0.43800327 0.38461816 -0.97234213 0.7467523 -0.3071351 -1.0779834 -0.28120074 0.1594751 -0.47465137 -0.66718084 0.060789917 -0.4951758 0.6974088 0.61119413 0.882618 0.9010507 -0.73438543 -0.29216173 -0.9935713 0.57436866 -1.2668326 0.17528316 -0.9329762 -0.41381556 -0.21301934 1.4091316 -0.7626813 0.47744372 -0.31779745
TWMET_00003 0.40112478 -0.5865737 1.2786412 -0.53936094 -0.7465147 -0.42220008 1.218542 -1.55764 -0.5881785 -0.81573576 -0.001224021 0.22818327 0.15115738 -0.9869922 0.51394415 0.019260319 0.33789322 -0.12869729 0.43273982 -0.9762842 0.83185315 -0.0550338 -1.8300488 1.3333218 -0.12833805 0.8768414 0.74605083 0.1854093 0.21089403 0.60594195 -1.3273225 0.70134467 -0.84907883 -1.801188 0.5052361 0.9947593 0.9645837 -0.22576615 1.0324428 -0.4807178 -0.094257385 0.62481356 0.23234232 0.5973327 -0.015967809 0.6474407 0.24342918 0.015184043 -0.35863796 -0.29535693 1.3831791 0.8551902 0.06899368 -0.038887344 -1.4419571 -0.81205064 0.6627837 -1.3344406 0.4977679 0.8036307 -0.014544659 -0.096566595 -0.47154158 -0.18029916 -0.2570214 0.27243334 -1.443315 0.17402194 1.3251709 0.5908968 0.99908507 0.2050223 0.90115744 -0.28997853 -0.39175472 -0.05052658 -0.31526715 0.54546726 0.4705676 -0.6518495 0.1487199 -0.8051373 -0.4647353 -1.5145065 1.0501581 0.7335243 0.33032867 0.36976302 0.5123728 0.5629252 -0.20882636 -0.9249557 0.9172958 1.2890946 -0.34721184 0.500754 0.7607432 1.6590627 0.024736032 0.77573925
TWMET_00214 0.43560353 1.0450915 -0.3178723 -0.7737494 -0.74912107 -0.34035912 0.97904044 -1.6466911 -0.5627452 0.83957994 -1.1398567 -0.5623405 -0.038541652 0.52751064 0.6216718 -1.8109323 0.7532794 -0.118821666 -0.056170397 1.0644006 0.19016778 -0.72231096 0.21312782 0.30798948 -0.42495412 -0.021250647 1.5001022 0.63847494 -0.07844176 0.31708083 0.8354358 0.16549788 0.07929186 -0.1341478 0.79131854 1.0695319 0.52484906 0.13154267 1.6154141 -0.5836284 -0.07463753 0.9862461 1.2633792 0.124227695 0.13250484 -1.5969656 -1.3629518 -0.5825388 -0.20305361 0.6219588 1.4885504 0.86231065 -0.53368306 0.23018892 -0.4126362 0.8012761 -0.8553423 -0.53882146 0.94783795 0.9787876 -0.39756802 2.597241 0.28116634 -0.586514 -0.45215473 -0.031473268 -0.74507236 0.52787 -1.1830239 -1.03141 1.2044196 0.2298912 0.27344835 -0.3501752 -0.5903421 0.0028095476 0.7450224 0.3693516 1.2797717 -0.519194 -0.29953983 -0.2304979 -0.5220259 -1.3916076 0.4697356 -0.72327167 -0.45043483 -0.20484494 -1.1785728 0.5818638 0.13487083 -0.2257042 -0.24158998 0.46158102 -0.77022094 0.777129 0.092132606 0.20930842 0.59645003 0.5210516
TWMET_00002 -0.23712465 -0.2405277 1.0763519 -0.17282356 -0.9451257 -0.5575443 1.3029426 -1.6112142 -0.61333936 -0.3432867 -0.11824868 -0.22803122 0.15778747 -0.83088666 0.18359746 -0.5770661 0.08453479 0.105376415 -0.021533439 -1.1420311 1.0841641 0.14426222 -2.0597625 0.9961487 -0.487744 0.5659935 1.1938165 0.020002684 0.53880966 0.508774 -1.3519151 0.4691476 -0.73734707 -0.80381936 0.82689536 0.5569164 0.96433353 -0.057976052 0.38058388 -0.15192164 0.27066296 0.53625846 0.61715984 0.6136313 -0.25262657 -0.6260325 -0.0023649195 0.062116478 -0.590286 0.40912354 1.1643585 0.5532278 -0.0961942 0.29887456 -1.4168879 -0.32010686 0.25638524 -1.2347825 1.0453933 1.0156876 -0.3957323 0.26747233 -0.26695204 -0.40435654 -0.4243165 0.23481339 -1.019814 0.2858303 0.87516 -0.13292944 0.96931696 0.535473 0.39397582 -0.5207196 -0.8358966 -0.28336427 0.041101515 0.97171336 0.64235264 -0.58058083 0.5192707 -0.16381839 -1.1630551 -1.2678646 0.7621955 0.047488105 0.8909898 0.14671949 -0.11240472 0.35198975 -0.08909987 -1.6073111 0.50804836 1.038666 0.20526053 0.7438625 0.59945786 0.9615697 -0.34980118 0.43534705
TWMET_00034 0.26701364 -0.8817338 -0.3150378 0.52704996 -0.6753056 0.33167437 0.14084628 -0.465892 -1.2448289 0.8569086 0.37822285 -0.12208096 -0.6042361 -0.6910742 -1.0350785 0.11998485 -1.7377994 0.6815821 -0.21313486 0.035071455 0.32194087 -0.26319152 -0.16533281 0.039330516 0.17222413 1.351659 0.2239076 -0.6241819 1.6048003 -0.25858077 0.054542463 0.79332983 1.1025127 1.5028764 0.51363754 -0.05721379 0.41875428 -0.19399402 -0.8816332 -0.9125109 0.88839114 0.073605135 0.19622025 -1.641334 -0.016719615 1.1498092 0.37241817 0.59502447 -0.060641732 -0.21510354 0.13069375 1.1808876 0.3108599 -1.1356479 1.328169 -0.3894939 0.17483415 -1.3738184 0.046464548 0.46533665 -1.0694371 0.74238193 0.6488274 0.3096487 1.5848172 -0.4134256 1.0082817 0.6951256 0.83194876 0.5683989 0.40509248 0.3610854 0.5613586 -1.0586926 0.9058065 -1.1314344 -0.58790576 -1.668425 0.33474168 -0.06079904 -0.47590658 -0.47114018 -0.26659137 -0.27119008 -0.20180258 -0.33256304 0.3304242 0.58267444 -0.536777 -0.6915281 -1.7424514 0.1789938 0.93793714 0.32779315 -1.0896246 -0.9311641 -0.5754773 0.7796465 -0.1511475 0.43504938
TWMET_00041 0.15735868 -0.72064966 -1.4695523 0.9811997 -0.86733514 -1.1678896 0.7292242 -0.6433314 -1.2813476 0.43807653 -0.43231398 -0.41624796 0.83025116 -0.07316422 -0.6386157 -0.23939687 -1.284208 -0.6109591 -0.047113184 1.0581024 1.1677941 -0.17299302 -1.0762051 -0.26603284 0.43695024 0.37831688 0.3358204 0.17341837 0.6829667 -0.6446844 -0.3600253 1.0173165 0.6905106 0.7049521 0.6710959 -0.55917937 -0.9484841 -0.86469513 0.1257083 -0.6251303 -0.28747 -0.9336261 -0.33609927 -0.8640063 0.5816423 0.29851386 0.09885396 0.07440828 0.040427275 0.521305 -0.063745216 1.9339123 0.8697752 -1.2682594 0.18542382 0.24093787 -0.18923417 -0.61768186 -0.39496914 0.07054076 -1.5292851 1.3404276 -0.0629551 -0.7955911 0.23073061 -1.1481663 0.11899616 0.6360133 -0.46577495 0.4768801 1.4455838 -1.0441965 0.1989066 -0.52210474 -0.12508596 -0.435413 0.34430712 -0.9836666 1.5455191 -0.53918636 -1.4756387 0.075861715 -0.51044136 0.9003165 0.13705364 0.4507428 -0.43308654 -0.17419745 -0.2242775 1.4736698 -1.0245873 -0.8733039 0.49125654 0.5187828 0.18626572 -0.2818706 -0.23036554 -0.69040614 -0.8317052 -0.40533546
TWMET_00008 0.986182 0.339946 -0.8088269 -0.024555124 0.21628043 -0.6673136 0.70022833 0.83492875 0.8633563 -0.054244805 0.20767167 -0.114093475 0.8213927 0.45751014 -0.3298056 -0.47340292 0.741409 1.2360932 0.6704932 -0.07802671 0.6746955 0.6763847 0.59196 0.87724847 -0.5619773 -0.097737744 -1.6026655 1.3909084 -0.4377934 1.6948793 0.476461 0.69407266 -0.34682202 -0.7920347 0.39604288 0.34666726 0.09508758 -1.3119037 0.59838444 0.51749325 0.67851824 -1.0102047 -0.88427365 -0.882864 0.24185452 1.1919218 -0.93218994 -0.48164478 -0.9130799 -0.62784237 0.72431874 0.29367596 0.389903 -0.61638516 -1.9778637 0.77077174 0.5322507 -0.184923 0.31957033 -1.3959388 0.20993896 -0.46365795 -0.2688111 0.43758762 0.25237748 0.6047802 -1.081226 -0.3949388 0.58595765 -0.6292748 1.746532 0.057171866 -0.49829626 -0.6506393 -0.49185494 -0.36642563 0.017289704 0.6275266 0.2544028 -0.19612083 -0.7099624 0.11689998 0.96539 0.772627 0.5006747 0.57166433 -0.62254876 1.0633091 0.7884517 0.25176314 -0.47149682 -0.45474347 -1.1486853 -0.56871325 0.8456087 0.8476185 -0.30405492 0.39418286 0.0085916445 -0.07716164
TWMET_00564 0.964134 -1.0987117 -0.45958793 0.5095232 -0.47502348 -1.0445774 0.2156717 -0.62640345 -1.1025479 -0.7111618 0.85980856 0.9023368 -0.51232284 0.11878946 -0.7502225 -0.12041491 -1.1397505 -0.32005912 0.899028 0.8447571 0.874177 -1.0864002 0.4506858 -0.4087707 -0.16960445 1.3140787 -0.05154844 0.0039526783 1.2157863 -0.1789579 0.63883233 0.14644384 0.08425351 1.6931669 -0.5396952 -0.5693369 -0.04726637 0.07890147 -1.2242548 -1.5271492 0.3071788 -0.47300723 -0.48408747 -1.2292501 -0.3818617 1.318816 -0.5451315 -0.19195463 -0.49757954 -0.0379605 -0.567645 1.8356392 0.12847047 -0.7444956 -0.06642242 0.00039620895 -0.1677891 0.6115219 -0.30166233 0.9254842 -0.49433962 0.098442376 -0.32002294 -0.91211706 -0.21757181 -0.4334606 -0.27283493 -0.7505209 -0.4446449 1.4324007 -0.13874745 -0.056094002 0.36808196 -0.2634834 0.81855994 -1.343427 -0.7410999 -0.58811486 1.8365909 -0.47798857 -0.6196128 0.8693403 0.26102322 -0.2426444 0.00050878664 1.1362679 -0.44345075 -0.35532653 -0.13496716 0.24288301 -1.3116729 -1.2003825 0.27465454 0.5128923 0.58220744 -0.66435343 -0.86676806 -0.72621804 -0.55656725 -0.2114831
TWMET_00090 0.44052193 -0.80293095 -1.4697225 0.9192757 -0.81562644 -1.3173641 0.49952745 -0.538995 -1.4758402 0.34598044 -0.072295 -0.21412784 0.66522574 0.08033777 -0.698596 -0.47017854 -1.4354165 -0.6384206 0.15195547 1.0907011 1.1036806 -0.27176404 -0.54907835 -0.25763214 0.25460306 0.3695686 0.1263537 0.28636917 0.4725339 -0.46878844 -0.06323512 0.9012802 0.53674465 0.8010909 0.511383 -0.78691053 -1.1330887 -0.89224565 -0.08932685 -0.73088545 -0.20983617 -1.1350693 -0.35613108 -1.0559331 0.403722 0.61167496 -0.14652118 0.07437179 0.14674908 0.36193246 -0.27435634 1.9918638 0.46196324 -1.3331875 -0.07698202 0.3226804 -0.19205782 -0.22396237 -0.47468635 0.038888536 -1.1612847 1.1734837 -0.18176414 -1.0484134 0.30196932 -1.2786431 -0.11732898 0.43293425 -0.5222561 0.59800285 1.2048596 -0.9576121 0.20355617 -0.47068736 0.045903962 -0.6888267 -0.18082872 -0.9689534 1.5625728 -0.57886225 -1.540145 -0.05394241 -0.18073325 0.83361113 0.14320308 0.5848269 -0.6014977 -0.17638575 -0.13811532 1.4723825 -1.2044939 -0.7311701 0.44350603 0.41859823 0.09171133 -0.3931416 -0.4350342 -0.6672222 -0.95837426 -0.44484624
TWMET_01235 1.090438 -0.8472599 -0.6626054 0.46609035 -0.35721105 -1.0448973 0.09115383 -0.73677343 -1.1782243 -0.6950119 0.6958556 0.9321398 -0.23938236 0.45922452 -0.5191403 -0.33408797 -0.86833584 -0.3334706 0.98410606 0.9846619 0.7005993 -0.9472611 0.7246156 -0.40840372 -0.31227252 1.037615 -0.31418252 0.06491122 0.85607326 -0.0885173 0.89767665 0.15793602 -0.14790322 1.8063821 -0.33439466 -0.6572918 -0.17826255 -0.2935637 -1.2325296 -1.4463121 0.07366427 -0.58539855 -0.5185342 -1.0286735 -0.2530731 1.2212886 -0.6973453 -0.37970307 -0.45496157 -0.10036236 -0.662759 1.8188357 0.037903126 -0.7585748 -0.2725168 -0.045512415 -0.3353919 0.89359164 -0.3468953 0.73203444 -0.37448752 0.30938783 -0.28315607 -0.98382246 -0.41576126 -0.6807934 -0.5917747 -0.8411143 -0.43326014 1.2850915 -0.18598938 -0.20912687 0.18060441 -0.3204441 0.76296026 -1.3519086 -0.78459054 -0.25504982 1.9760187 -0.45639652 -0.7179587 0.8668751 0.43936747 -0.040122844 -0.0021674607 1.0532931 -0.8442261 -0.39472875 -0.026853925 0.399189 -1.2976103 -1.0017787 0.111191295 0.38873392 0.7937171 -0.61449236 -0.89067596 -0.86677426 -0.61691 -0.42056745
TWMET_00079 0.100118674 -0.1511986 0.54331017 -1.253677 0.6214507 -1.4600561 1.7106465 0.53696436 0.12690857 -0.89421654 0.18521115 -0.08016504 0.13799475 -0.43619475 -1.6206301 0.11051942 0.33978257 0.024537537 -0.69635534 0.24029526 0.50149196 0.23826322 -0.18353906 0.46762583 -0.6694106 -0.26848435 0.21670939 0.4032134 -1.2124468 -0.30624083 -0.056928534 -0.13213466 -0.9192244 -0.075448394 0.52171725 0.26043642 -1.4068967 -1.0887492 0.42458472 -1.1325363 0.7834321 -0.38497278 -0.30850965 0.511574 -0.19638842 0.13468857 0.92436427 1.325362 0.18391939 -1.782779 0.52993107 0.3107752 0.6513525 0.26916748 0.3861174 -0.023871426 0.32674792 -1.0606802 -0.75838065 -0.36196008 0.09554398 -0.008530722 -1.3868107 1.3150868 0.3360487 1.1904914 -0.4196052 0.21734154 0.7119524 0.48920715 0.08187344 0.74068797 1.0040126 -0.99645394 0.13546008 0.4633559 -0.71074146 -0.41641334 0.092370726 -0.22952892 -0.5741082 -0.1671423 0.0039142575 0.6415483 0.030208519 0.857239 0.85063475 -1.2501048 -0.4482905 -0.43257856 1.2127976 -1.2940774 0.30246794 -0.5069546 -0.57907724 -0.3079936 1.2528609 -1.0690695 0.05830768 -0.7208157
TWMET_00909 0.9948914 0.05558479 0.054616448 -0.80470365 0.34654027 0.2055807 0.4247132 1.3148929 -0.50024194 0.1383615 0.55918205 -0.052280314 -0.027137304 0.64380604 0.6797872 1.1311908 0.4716677 -0.67424375 0.5571124 1.2948667 -1.2556661 -0.5880873 -0.70575136 -0.85147077 -0.49575517 -0.93506014 0.39098173 -0.061840102 0.09332035 1.4422483 -0.41722065 -0.6316914 1.9474815 -0.081371404 1.3604928 -0.64932156 0.21217692 0.32809243 -0.71068746 -0.45859304 0.24533668 0.39338428 -1.3817714 -0.40866208 -0.92952245 -1.2548041 -0.34682214 0.2878776 0.8175036 -0.16120921 0.42579597 1.333362 -1.1470171 0.49146125 -0.14998369 0.40896288 0.49122137 0.3667844 -0.4266715 -1.111579 0.8755384 1.0506493 0.25704336 0.831542 0.47007617 0.80658 -0.93717575 0.85258704 -0.00509714 0.6168333 -0.89790624 -0.24537535 -0.2591609 -0.796366 -0.96491 0.28632128 -0.371686 0.4540274 -0.28020188 -0.72801906 0.32357585 -0.72687584 0.36543274 -1.6488898 1.563278 -0.07795682 0.72704154 -0.4144457 0.110453114 -1.1186519 -1.0324502 -0.8843388 2.0472453 0.086900756 -0.61438996 -0.51852274 -1.1367525 -0.5740473 -1.0439831 -0.9358607
TWMET_00245 0.30341893 -0.9728772 -0.16125263 -1.2042361 1.1387359 -0.08056337 -0.6205853 0.55136573 -0.8595251 0.181383 -0.7747844 0.48308757 -0.19067721 1.4945378 0.052686233 -0.115773566 1.1602612 -0.030284071 -0.00087650254 -0.48994374 0.48459062 0.3809106 0.5986568 -0.08407891 -1.3923712 1.5558146 -0.9123084 0.56606084 -0.3718383 -0.41013044 0.15696903 0.7430213 -0.9716725 0.74565727 0.3947474 -0.32516363 -1.3147337 -0.045797046 0.44656074 -0.62184834 0.6496413 -0.61519617 0.3145513 0.79387134 -0.60353714 0.66937035 -0.6210736 -1.3568124 0.26703006 -0.52898806 0.32682398 0.27839786 -0.40811783 0.034416135 -0.69459814 -0.48813972 0.27337876 0.04158164 -0.15044181 0.68393344 -0.24839167 -0.4511438 0.037170008 1.694396 0.34845996 -0.28301853 -0.9618405 -0.50930035 -1.0188843 1.2692859 -1.3052778 -0.89787483 0.20830783 -0.26895896 -0.447576 -0.38112572 0.42633703 -0.5657143 0.31552568 0.5384262 -1.8116368 -0.38291872 0.6611483 0.14019266 1.4570825 -1.2133788 -0.6540203 0.866595 0.044397634 -0.052690722 -0.82528204 -0.31812733 -0.11355416 -0.36819983 -0.9365191 -0.9239684 -1.4856466 0.785564 0.35643822 -1.7577512
TWMET_00144 -1.4161798 0.56680477 0.3969313 -0.13443376 0.062388767 -1.1027104 1.221443 -1.9799473 -0.7919361 -0.44786525 -0.111882925 -0.1659177 0.8503369 0.45318082 1.059742 -0.17615002 0.69057226 -0.059095185 -0.09329257 -0.14517695 -0.41295114 0.73446685 -1.7162683 0.86265653 -0.8085383 0.2391978 -0.06277533 0.32139465 1.5719137 0.2469134 -0.43660134 -0.49466738 -0.17099483 1.2350276 0.6120096 0.2918954 0.8108998 -0.95937014 -0.69617623 0.62899166 0.54800373 0.93518734 0.39832473 0.8357824 0.059650473 -0.9825961 -1.0521505 -0.18530278 -0.79697824 -0.22245944 0.2261743 -0.31546 -0.048096307 0.4665278 -1.1392673 -0.19640066 -0.8853536 -1.0786395 0.9729407 0.31186888 -1.9366802 -0.04226631 0.38926077 -0.795912 -1.4384913 -0.6347782 -0.807086 -0.41632515 1.2944809 -0.38338575 0.6351281 1.1370763 0.98088646 -1.2747815 -1.2599806 -0.73736906 1.2510372 0.67273515 0.8045954 -0.17775637 0.74281645 1.1355025 -1.7845757 -0.93026406 0.31020483 -0.85876226 0.7656195 -0.12759283 -0.6370013 0.36022013 0.8575399 -1.2282159 0.5941136 0.74791276 1.0272845 0.8607997 0.05528301 0.2350668 0.5176337 0.1587098
TWMET_00026 0.78180826 0.33036616 -0.9508632 -0.03998078 0.4389849 -0.6589157 0.5855863 0.89325434 0.99827236 -0.14034918 0.21240485 0.06867491 0.84947544 0.60914797 -0.3141221 -0.5557023 0.93570346 1.2747402 0.6643244 -0.045475703 0.47333133 0.6481079 0.58774406 0.84165174 -0.49292925 -0.093488686 -1.72459 1.4935718 -0.3850428 1.7215064 0.48810568 0.6034445 -0.15312442 -0.8346694 0.37173095 0.36259323 0.20403403 -1.2651284 0.47301263 0.6805855 0.6830081 -1.1170413 -0.91995335 -0.71565 0.3463438 1.1648439 -0.8866863 -0.56432223 -0.96323615 -0.7584756 0.77742344 0.09014671 0.36252636 -0.355195 -1.9344211 0.81644535 0.5145249 -0.24036331 0.32181445 -1.4030213 0.17459689 -0.79098904 -0.2217953 0.3080156 0.23960721 0.5184597 -1.052605 -0.47767818 0.5811057 -0.7466163 1.6231215 0.11837279 -0.59740514 -0.5726906 -0.57525885 -0.2942238 0.25900114 0.5708974 0.16907306 -0.17450559 -0.73502934 0.2866793 0.9411574 0.91828376 0.38533798 0.5077707 -0.6943506 1.1502867 0.89444846 0.31380242 -0.29434067 -0.35433286 -1.2769136 -0.60034245 0.8422857 0.7444401 -0.37215397 0.43118525 0.046363078 -0.15607433
TWMET_00009 0.78046745 0.21080984 -0.06274272 0.41635227 0.031003848 -0.77705145 -0.057609525 0.033607997 -0.18477938 0.53843576 -0.26074773 -0.58269256 -0.08378356 0.6487758 -1.0028198 0.22388987 0.34890282 1.3365864 -0.020964127 1.5226985 -0.0018325143 -0.56828445 0.105376504 -1.1551634 -0.35967878 0.4322584 -0.23099723 -0.20969996 0.28863928 1.3086793 -0.11948187 0.57432 1.4552467 -0.6004803 -0.076985076 0.91988957 -0.15342976 -0.34849253 -0.17190015 0.11887724 0.4084588 0.0132096615 0.02329807 -0.0398943 0.15360606 1.6900023 -0.40867352 0.36079377 -0.05922376 -1.3363576 0.8117538 0.81136364 -0.26183388 -0.49384856 0.117054984 -0.40547442 1.500377 0.6142656 -0.30960882 -0.87151873 -0.8362836 -0.5943475 0.34690827 -0.999659 0.44566825 0.28235364 -0.21679609 -0.24844554 0.08414123 -1.0800735 0.6076298 0.32004935 0.17480257 0.1530206 0.49949202 -0.030414402 0.030688679 0.33466926 0.089159116 -1.2439425 0.60191137 0.17337495 0.3947115 0.37525302 0.03507087 0.6737533 -1.042158 0.5471547 0.44551918 -0.554301 -0.40246522 -0.45392767 0.29160178 0.37801975 -0.6176255 -0.41836798 0.90654564 0.60842276 0.31638432 0.43860686
TWMET_00386 -1.5366613 0.62232405 -0.87857765 -0.5706215 0.5331369 -0.53958255 1.4022022 -1.3754251 -0.83400226 0.4005374 -0.24783486 0.40339756 0.74059045 1.1599387 0.3107729 -0.07467166 0.6758358 -0.07378719 -0.5493727 0.15510248 -0.9951152 1.2300011 -1.6448796 0.22503132 -1.4583112 0.34934607 0.14348795 1.1951783 1.5831397 0.27379858 -0.16656153 -0.7581283 0.44787595 1.23075 -0.1662409 0.49450558 0.5755998 -0.8535398 -0.6630843 0.5982182 0.49144095 0.80831736 0.09027175 1.0517962 -0.054724433 -0.85631347 -1.4690615 -0.116868354 -0.46067137 -0.4383821 0.24384612 -1.2228398 -0.3798003 -0.10706256 0.0027604636 0.5845323 -1.128233 -1.06078 0.20728724 0.41224197 -1.380685 -0.9977641 0.46815434 -0.1509372 -1.7864788 -0.21272528 -0.2945535 -1.067994 0.99749297 0.5029275 0.87509423 0.29099312 0.47960636 -1.2900959 -1.150665 -0.7079424 0.6265782 -0.796887 1.296324 -0.470441 0.8758243 1.1071111 -1.9163073 -1.1551248 0.21725431 -0.9839321 -0.44642836 -0.34163064 -0.9705707 -0.0053546284 0.8068802 -0.8431635 0.7539343 0.009036153 1.2159194 0.32621542 -0.17537914 0.050665073 0.20261574 -0.14489125
TWMET_00125 0.6316154 1.1341945 -0.25273564 -0.42823458 -0.83520824 -0.6735358 1.0391703 -1.4711667 -0.3138105 0.3144548 -1.2332213 -0.29410428 0.3485288 0.5539706 0.73494625 -1.4454073 0.6697457 -0.5850157 -0.05570469 1.2113776 0.5362594 -0.42144313 -0.17208771 0.66351664 -0.018754859 -0.06634205 1.4437753 0.8881048 0.53823936 0.295562 0.74727666 0.18833914 0.16765623 -0.78067917 0.7238546 1.2018836 0.33073995 0.28545123 1.5400226 -0.35645163 -0.108256936 0.9768188 0.9695484 -0.0396103 0.15718967 -1.3566557 -1.3439538 -0.25767577 -0.39946947 0.71692854 1.0221533 0.75318706 -0.6098193 0.3951449 -0.51847756 0.888764 -1.0157391 -0.29947528 1.230387 1.3986908 -0.34115076 2.1529846 0.317693 -0.99080104 -0.7056982 -0.32584783 -0.7724161 0.13545024 -1.0435529 -1.3482729 1.0377605 0.26022488 0.45001623 -0.4412775 -0.8033745 0.17919491 0.7330857 0.31757548 0.8977104 -1.0734044 -0.5558156 -0.28630623 -1.0586811 -1.8429906 0.65277857 -1.018346 -0.42404908 -0.46815398 -1.0788566 0.8332955 0.5360459 -0.36144614 0.25997972 0.5105818 -0.83769387 0.48781535 -0.16184635 0.5296527 0.7465788 0.7661448
TWMET_00804 -0.13536245 0.032389946 0.34152025 -0.14248884 0.44480476 -0.8571093 -0.0048922217 0.6726245 -0.599223 -0.9421468 0.14513515 -1.1494627 -0.9315013 -0.30695423 0.25181487 1.2616925 0.25566232 0.5202965 -0.86227834 0.091160186 0.8093688 0.5855434 1.2172887 0.25830448 1.0622948 0.91076654 -0.80986434 -1.9865751 0.74378663 -0.039252684 2.0158594 0.66083753 -0.3193776 -0.52350956 -1.0041447 -0.76616985 0.2868697 -0.026459822 -0.7286008 0.094435684 0.4937041 -0.40557444 -0.37950978 -0.8216936 0.9988956 1.0490407 -1.4419713 -0.06046729 0.21755728 0.012845118 -0.5845713 -0.30889067 0.46027008 -0.5397127 0.1524342 0.18452242 0.4938169 -0.32064268 -0.5193332 0.13182646 0.12712276 0.6680714 1.1990994 -0.52829427 1.0023733 -0.065760285 0.33396333 -1.0331097 0.6489391 0.45422116 -0.37020576 -0.91113794 1.2395107 -1.5704707 -0.9877806 -0.44920662 0.68240064 -0.7154572 -1.3563687 0.8553253 -0.4798314 -0.03875535 0.2592005 0.009671335 0.26767838 -0.45396203 1.048102 0.3656004 -0.4895877 0.52482677 -0.30774313 -0.07508266 0.19954586 0.22700576 0.7705446 0.07885382 -0.5274558 -1.8557312 0.8057647 0.14600928
TWMET_00088 1.1477859 0.36973426 0.36658487 0.80409765 1.0093813 -0.79748034 0.22382972 0.32143068 0.3986413 -0.12847815 0.09768809 -0.21709026 0.7733442 0.31970274 -0.083631635 0.9247815 0.92979854 -0.06282341 0.9079129 0.67751235 -0.36855716 -0.08210872 -0.4642627 -1.1684667 -0.7048186 -0.49105868 0.258589 -0.3709844 -0.25236246 1.195488 0.079842694 0.1192243 1.4540436 0.6695663 1.2035263 -0.2368473 -0.33028635 -0.28217384 -0.56984425 0.070503086 0.20869283 -0.14189978 -0.93367964 0.87140346 -1.4764194 -0.2648228 -1.4457606 0.1415967 0.5631714 -0.42993942 -0.21254764 0.68139094 -0.3657143 -0.025816673 -1.382568 -0.43157026 -0.2951772 -0.0567864 0.1254244 -1.0357594 0.23477753 0.69977784 -0.34034687 0.051328577 -0.37803507 0.092474155 -0.7722113 0.13840121 -0.31985316 -0.136033 0.14320031 0.27549756 -1.0438298 -0.5311163 -0.9792061 0.2621393 -0.23773815 1.002037 -0.3348422 -0.6012492 0.23445362 -0.21436314 0.31567416 -0.9658512 1.4315404 -0.78345335 -0.2917342 -0.32409555 1.4257213 -1.2604861 -0.8680048 -1.1955256 1.3546576 0.65457535 -0.118405625 -0.163359 -0.028841525 0.22339945 -0.4630946 0.21663572
TWMET_00230 -0.5524834 -0.03742778 0.97450835 0.33319616 -0.15918171 -0.34321654 0.25360674 -0.5877151 -0.6045093 -0.18540286 -0.07953551 -0.4097907 0.116212256 -0.21974841 -0.79352397 -1.7304975 0.13831338 0.27517435 0.18598536 -0.15134071 0.475736 -0.86350083 0.7124958 0.9097641 0.02744635 0.3723518 1.5553194 0.11595052 -0.15146038 0.071027115 0.086878985 0.8465562 -0.9956035 -0.4271784 1.243721 1.2899761 0.5456357 -0.95009094 0.55711955 -0.09132067 0.5155822 0.47259814 -0.48740727 0.54212195 0.48286408 -0.2860407 -1.6468089 -0.9996004 0.1669937 0.059819162 0.13149112 0.93482214 -0.16391826 1.1675185 0.23624788 0.61509365 -0.80961585 0.022933736 0.9332417 1.100026 -0.39715418 1.399989 1.1820209 -0.6707245 -0.42658523 0.4162601 -0.8275916 -0.27353242 -0.46958226 0.00044825536 1.2070304 -1.0707393 0.3219036 -0.40906698 -0.41008288 -0.38654745 0.2941279 0.09169097 -0.10285746 0.3420654 -0.37824228 -0.8090695 -0.90800965 -1.1438214 0.37905636 -0.71301204 -0.1666961 -0.9201667 -1.0973892 1.1103075 1.1332926 -1.0389714 0.57391036 0.54090035 -1.3635198 -0.2849347 -0.08742173 0.50151616 0.354535 0.1785901
TWMET_00354 0.6154485 0.3522732 0.31374425 -0.4762186 0.19824846 -1.621578 -0.6911465 0.22133026 0.02845464 -0.3787405 -0.30983377 -0.54628706 0.40950233 0.29343373 -0.10718229 0.30888227 -0.18050897 -0.8378981 0.81198746 0.49376857 -0.9028559 -0.04216573 1.910186 -0.56941724 0.30583924 -0.34261778 -0.94027215 0.16982827 0.7836903 0.56866497 -0.09064178 -0.791574 0.89355624 -0.13206592 -0.93066305 -0.67993236 -1.4296532 0.3393531 0.9177682 -0.7424643 0.8697217 0.48141348 -0.79791445 -0.22792077 -0.592627 0.24944317 -1.4024278 0.28699383 -0.8285966 1.3637323 -0.57830805 1.6244792 -0.37333024 0.037741784 0.2547381 0.07729432 0.051806312 -0.34692892 0.06759592 0.2576326 0.96257734 0.14314133 -0.7532096 0.8636395 -0.5880728 0.6751987 0.2132317 -0.6884957 0.7007234 -1.0482653 0.6702038 0.4246537 1.396122 -0.02347372 -0.75834 -0.0102059115 0.5072374 -0.090759315 0.5918633 0.70439935 -0.8759422 0.5874565 0.023955395 -1.0873846 1.5370902 0.70742625 0.6250831 -0.21542917 -0.19850226 0.37262607 0.59267443 -0.6794537 0.09830832 -0.43379182 0.758324 0.151487 -0.41568434 0.18299726 -0.63302326 0.79045814
TWMET_00206 0.8333513 0.02003927 -0.2872653 0.12092706 0.20808068 -1.1954721 -0.19351956 0.108126506 -0.23926163 0.9199781 -0.34962037 -0.4743469 -0.22672878 0.9076353 -1.4589969 -0.08462835 0.78505296 1.2376637 0.17995791 1.860116 -0.14686736 -0.80651087 0.4696346 -1.1744356 -0.39897484 0.7181872 -0.3807586 0.32943887 -0.037060738 1.6414071 -0.26265794 0.6087989 1.7425838 -1.0523757 -0.17589991 1.1779425 -0.35862014 -0.18841884 0.111187756 0.15416934 0.8046706 -0.3495372 0.07241692 0.4513465 0.18097791 1.7124588 -0.5818838 0.010234275 -0.13361287 -1.4327958 1.1684422 1.0678017 -0.43711576 -0.3471118 0.26769662 -0.2819987 1.3427817 0.48554355 -0.21897368 -0.9248994 -0.5923259 -0.46885973 0.1434316 -0.92585915 0.2830991 0.35241207 -0.27075726 -0.51692504 -0.19068173 -1.2478198 0.7928736 0.3341842 0.4005537 0.35738057 0.21452807 -0.058479033 0.050596803 0.41656217 0.024123829 -1.1953315 0.19531342 0.13217159 0.3907873 0.4081786 0.25804713 0.9189898 -1.526324 0.75303 0.41988498 -0.3729179 -0.11358794 -0.51926845 0.58546966 0.3238191 -0.6464217 -0.79013103 1.0791018 1.071371 0.23224542 0.3231513
TWMET_00020 0.3647217 0.7917878 -0.670053 0.20447487 -0.1268683 -0.9736083 -0.31538755 -0.5230898 0.77747655 -1.0670922 -0.36734512 0.7961912 -0.46362126 0.05556495 -0.060479257 -0.8774624 -0.9643178 -0.57066876 0.58404714 0.573801 0.108461104 -0.48072344 0.7282982 0.51274824 0.77604455 0.18827155 -0.07045919 0.009955639 -0.12961927 -0.42552325 0.18401335 1.4914938 0.69301933 0.47993478 0.10371084 0.23830247 -0.19775523 -1.2394984 0.97836083 -0.279517 0.19248816 -0.69333786 -0.7019822 0.4088285 0.89436734 1.0484453 -0.062354274 0.7495846 -0.63677394 -1.0022131 -0.7144587 -0.85872144 0.2658756 -0.9732443 0.43043208 -0.58750474 0.66829056 -1.2898768 0.1708957 1.2722089 -0.301704 -0.98727596 0.7969303 -0.5462938 1.296948 -1.0348985 0.110925496 -0.4117568 0.88149536 -0.5049177 -0.26268098 -0.4196366 2.2105315 -0.122727446 -0.8521001 0.36500776 1.340618 0.0042563165 0.3416356 0.1703471 -0.09277235 -0.43320304 1.3319693 0.09856857 0.17261657 0.113364585 0.16718085 1.1572598 -0.7943223 0.27863872 0.74329394 1.8126228 0.70297384 -0.20334223 -0.24149829 -0.20132166 0.46292973 -0.6467294 0.26546955 -0.41391096
TWMET_00217 1.2167382 0.23397873 0.5101033 0.42343235 0.9291401 -0.69794255 0.54626614 0.23055804 0.27232534 -0.11853378 0.05637169 -0.17554982 0.86157674 0.15049264 -0.14585504 0.82210135 0.7940903 -0.21375585 0.8870178 0.3622749 -0.41226837 0.23364672 -0.55290556 -0.8115692 -0.7289143 -0.7160845 0.8023021 -0.8315926 -0.3350461 1.0650977 -0.03986104 0.24090052 1.2513618 0.94286627 1.2622112 -0.24077384 -0.6019465 -0.63128763 -0.47146067 -0.31187782 0.33925432 -0.14454392 -1.0277368 0.9657286 -1.6878079 -0.56368864 -1.4218872 0.61583775 0.7710869 -0.35800338 -0.21238545 0.69820476 -0.20182173 -0.007969648 -1.2623498 -0.32650274 -0.50846905 -0.18094641 0.032487 -0.8284523 0.5915023 0.7677645 -0.5388252 0.6985655 -0.1414326 0.35141826 -0.57657194 0.4999693 -0.47594982 0.33487642 -0.21338415 0.27385426 -0.85982615 -0.9461174 -1.0551311 0.21455063 -0.56826264 0.65349454 -0.32841343 -0.71915394 0.104927644 -0.55916226 0.47294006 -0.97710353 1.5855931 -0.8078364 -0.027176445 -0.6136988 1.1468481 -1.5039163 -1.0366149 -1.282478 1.5737871 0.35668233 -0.4546502 -0.2276055 -0.10631786 -0.020379007 -0.50019205 -0.08777399
TWMET_00585 1.2949247 -0.5203197 0.82097876 -0.8586186 0.5260464 -0.124308504 0.0031872827 -0.21338041 -0.71568936 0.5060206 0.87125325 0.8424944 0.24697295 0.6841538 -0.7172723 -0.60321134 0.056957714 -0.07209553 0.48446262 0.25536594 -1.0945421 1.2848929 1.8557534 -0.36064768 -0.1885081 0.95586675 -0.826791 -0.15894102 0.14035079 -0.32287434 0.6203072 -0.36459926 0.98594326 1.085616 -0.53002983 -0.072583616 0.18940471 0.2252824 -0.49012873 -0.21666583 0.6495834 0.45109862 0.002563341 -1.2933707 0.4072818 0.5816382 -0.7701071 1.3208692 0.9465301 -0.21986489 0.2176342 -0.5328168 -0.60546446 -0.39248648 0.5113793 0.4162933 -0.82945025 -0.5751911 0.32807985 -0.22014734 0.75627047 0.36779863 0.7448756 0.40230224 0.69070303 -1.4131038 -0.41194275 -0.41717646 0.52064854 0.31541824 -0.07394368 0.124906495 1.3161819 -0.44848043 -0.26419201 -0.2664038 -0.65731084 -1.1688102 -0.6116937 -0.23074475 -1.4013683 -0.9098822 -0.18563196 -0.75139385 1.087518 0.024139287 -0.26682964 0.5601917 0.27188143 -0.109216385 -1.0058664 0.6348968 0.54334605 -0.54470414 -0.14694184 -0.6822365 -0.3378634 0.22197734 0.045028932 -0.007198028
TWMET_00012 0.605916 0.7986275 -1.4563736 0.2981884 0.33024722 -0.6585163 -0.47723323 0.41402736 0.6677167 -0.9833399 0.20546418 0.45176688 -0.9663302 -0.28413275 -0.13256456 -0.2024461 -1.2283269 -0.6153542 0.32198718 0.5452604 0.050640263 -0.2614199 0.9916947 -0.3376244 0.8140763 0.40350333 -0.12430191 -0.7290256 -0.2936243 -0.20972566 1.0630968 1.4175925 0.47047147 0.7677656 0.8815265 -1.0209566 -0.15269333 -1.2279172 0.010790146 -0.5072969 0.6433169 -0.7839632 -0.9423511 -0.2651198 0.43834293 0.98556954 -0.34800604 0.52080303 -0.27278715 -1.1352494 -1.1340032 -0.87374514 0.20344542 -1.3721651 0.65365285 -0.14263839 0.2595577 -0.8592191 -0.5995388 0.31076053 0.062997065 -0.66446066 1.458698 -0.2792808 1.7836626 -0.90659213 -0.06669345 0.016274093 1.1067191 0.43661594 -0.14429495 -1.0311381 1.5451182 -0.27069095 -0.6382166 0.073323905 0.93956196 -0.19052131 0.13585728 0.5163213 0.009522143 -1.3850855 2.3404853 0.21628745 -0.027746672 -0.1501751 0.47730538 1.5974543 -0.5738545 -0.20029296 -0.75891554 1.5667166 1.0827683 -0.7134504 -0.17478524 -0.2239962 0.018981954 -1.4359167 -0.34291375 -0.64509153
TWMET_00081 0.4631528 1.1191293 0.5085968 -0.111250356 0.1370699 -0.3743984 -0.2555249 -0.2619825 -1.0670706 1.5942868 -0.19368914 -0.87576324 0.67640656 0.46432078 -0.76559836 -0.37418395 -0.6101518 -0.086255796 0.27429843 -0.24085297 -0.4199623 -0.839055 0.9676357 0.5659346 -0.175816 -0.56878144 -0.04258064 0.93936294 0.4509295 0.06890972 0.1520299 0.5901314 0.9076861 0.4740665 0.118184224 1.135024 -0.28628337 -1.2203567 -0.47334433 0.0966059 1.5966092 -0.91969895 -0.19911818 0.9884717 0.22127911 -0.057341825 0.10407663 -0.6017842 0.28374457 0.22810973 -0.13851942 -0.25320113 -1.149136 -0.70755064 1.1863533 -0.41016787 1.0271062 -0.3459642 -0.63506633 -0.5205937 0.5572183 1.9123565 -0.28825378 0.4681474 -0.6113175 -0.53039134 -0.797492 -0.48977062 0.74307036 -0.44043142 -0.76789844 -0.31988904 -0.41394588 -1.0309881 0.41109326 -0.85750586 -0.51950693 0.9270478 0.77460116 -0.15589438 -1.0590796 -0.07561944 -0.50153226 -1.0867956 0.23908989 0.03523205 0.17109412 0.10211311 -0.59048647 -0.2070099 0.25643495 0.1215264 0.5232422 -0.9570898 -0.3426428 -0.6043803 0.63524234 0.099105224 -0.6324469 0.23196656
TWMET_00353 0.52924097 0.2929175 0.22496966 -0.47171494 0.2615183 -1.5406733 -0.67125386 0.32687744 0.05512459 -0.33622178 -0.21033739 -0.46103173 0.27445555 0.2995116 -0.20066944 0.30375758 -0.24533284 -0.922736 0.7719187 0.4907351 -0.8049645 -0.031557463 2.0131426 -0.5316569 0.38098288 -0.31706598 -0.9666159 0.20176645 0.6870339 0.49055305 0.008518607 -0.8230164 0.87960637 -0.11634995 -0.8737758 -0.7819131 -1.4714731 0.37657437 0.9104361 -0.7438174 0.8685406 0.36615244 -0.75214756 -0.32343534 -0.5406002 0.16706026 -1.2957673 0.25949943 -0.82536435 1.3412828 -0.59163123 1.6076365 -0.35457534 0.037512768 0.3294139 0.26489288 -0.09271926 -0.34770808 0.03851287 0.18704775 0.94348335 0.21677198 -0.84498274 0.9681792 -0.535929 0.74292254 0.2305485 -0.6896753 0.63193774 -1.007453 0.6111849 0.37666434 1.2752904 0.04783513 -0.7168182 0.057986964 0.4865934 -0.24470995 0.5547533 0.7956163 -0.9332564 0.5869148 0.0759827 -0.9421297 1.3713456 0.72626823 0.60409313 -0.30980727 -0.2444209 0.42697802 0.5996257 -0.60549086 -0.024005152 -0.555374 0.7001066 0.10875146 -0.4472798 0.10835161 -0.6826466 0.7200479
TWMET_00017 -0.16286282 1.0909964 0.005199705 -0.09958123 -0.9369016 -0.50921327 1.137705 -1.9669033 -0.6043945 0.19891445 -0.9633195 -0.3007221 0.6205652 0.45753258 0.63275546 -1.4443277 0.53848606 -0.15783536 -0.26941592 0.47026563 0.72127753 -0.34586757 -0.83525044 0.89679986 -0.46648553 -0.10779451 1.5395801 0.6182156 0.9375923 -0.0016139926 -0.06540291 0.38599044 0.055561192 -0.36048532 0.6480076 1.0514616 0.66042864 -0.038910266 0.9226291 -0.18755771 0.17835347 0.79671216 0.97402817 0.52827567 0.21979704 -1.1942133 -0.7700296 -0.27379814 -0.6086741 0.7464373 0.9482969 0.6946005 -0.46169037 0.37034956 -0.65462655 0.3702628 -0.56671524 -0.77560574 1.1655 1.3579297 -0.7072512 1.7567009 0.1449045 -0.89577895 -1.0409328 -0.42702886 -0.56741685 0.1283435 -0.3935891 -1.4550303 0.8837906 0.521885 0.23162419 -0.89448893 -0.9916476 -0.175428 0.50544363 0.52645993 1.3512441 -0.8579321 -0.14914808 0.3441842 -1.5293186 -1.5565417 0.32258067 -0.86326736 0.0041900733 -0.42553073 -1.1228993 0.4519927 0.84644854 -0.6814298 -0.10345286 0.71143734 -0.25875992 0.66360587 0.17811833 0.44608203 0.3308218 0.58286154
TWMET_00844 0.27361146 -0.38760796 -0.49812582 -0.49576044 1.245088 -0.8803642 0.718176 0.7263857 -0.49138921 0.55421716 -0.020765305 -1.536949 -0.38689238 -0.16036259 -0.6754682 1.1338197 -0.12277294 -1.0302575 -0.036273737 1.203154 0.15951446 -0.74788636 -0.31005952 -0.23997432 -0.59122014 0.08700329 -0.6778188 0.6927401 -1.0677056 1.0278562 0.4972231 -0.41048157 -0.42792854 0.6721448 0.622854 -1.1623863 0.0023287933 0.8685725 -0.31847242 0.6163903 0.5582889 -0.28149778 -0.9200613 0.73696774 -0.88302374 -0.4553699 -0.68220586 -0.4472224 0.20496365 -0.110381246 0.06250156 -0.32365784 -0.16590054 -0.049240854 -0.40166432 0.097334184 -0.21568957 0.016457897 0.41980824 0.22549148 1.1506728 0.9215569 0.05015405 -0.6420353 0.21490622 0.5649906 -0.46647385 -0.7379064 0.5241867 0.5342707 0.3950675 -0.090850934 0.15264578 0.0063503585 -1.5810255 -0.13289885 0.32723114 0.32062033 -0.5008751 1.1942233 0.590224 0.2845327 -0.023093838 -0.0539329 0.1943239 -1.094906 0.06576428 0.0009992972 1.0945592 0.050906774 -0.76708674 -1.7007854 1.328832 0.5402311 1.5718411 -0.6327293 -0.7633319 0.26860914 -0.3154663 -0.28001687
TWMET_00156 0.3626547 -0.19406359 -0.19279966 -0.056518074 1.4176275 -0.98496664 0.80019563 0.8558368 -0.30394265 0.308434 -0.02014123 -1.3663753 -0.19131406 -0.31391934 -0.40997833 1.2495108 0.027443778 -0.8882451 0.100693434 0.9645116 0.21338817 -0.7481794 -0.22641252 -0.20365636 -0.62416285 -0.07978465 -0.70974565 0.69529027 -0.9640384 0.8244592 0.43237963 -0.20083892 -0.09236026 0.9183612 0.62494075 -0.8858428 -0.12559761 0.7178842 -0.4211413 0.5638824 0.4447158 -0.35498524 -1.1181633 0.70853347 -1.115113 -0.28579578 -0.88956296 -0.23516497 0.2980913 -0.20086002 -0.057575252 -0.27489272 -0.27256438 -0.06088352 -0.66534793 -0.018408481 -0.25446957 -0.21788366 0.5765901 0.17853133 0.8428034 0.9737574 -0.071123436 -0.564485 0.027017951 0.40137 -0.32726017 -0.5274159 0.3284028 0.28768846 0.36129987 -0.02809505 -0.070185125 -0.22537327 -1.5213127 0.04340087 0.12661052 0.41757417 -0.47020638 1.0432833 0.46288443 0.3570895 -0.21525118 -0.1706128 0.49208277 -1.0047759 0.048663076 -0.0010941274 1.007223 -0.38516393 -0.6449858 -1.5805515 1.3335453 0.8143313 1.3872579 -0.54319984 -0.60283315 0.28973055 -0.013895864 -0.25831607
TWMET_00141 0.6799105 0.5012936 0.06752506 -0.38209 -0.57671976 -0.5630356 0.07132877 -0.51323694 0.13807434 -0.22025768 0.09073786 0.26015982 -0.41865742 0.062796384 -0.7557425 -0.05586077 0.3343207 -1.3697945 0.5178126 0.6119188 -0.7016984 -0.035583228 0.12681858 0.41524827 0.03948651 -0.78035194 -0.36680982 0.19109702 -0.14838581 0.6526295 0.38917455 -1.0339923 0.6796384 0.18622729 -0.2658263 0.0065435222 -1.662225 -0.4743067 -1.1240493 0.417051 1.5684618 0.878368 -1.0542772 -0.16871324 -0.54935575 0.7224627 -0.24037229 0.044879943 0.07706351 -0.17887624 0.16754916 0.33531758 1.0735623 0.02268127 0.4989516 1.0119854 -1.0175306 0.3238644 -1.3635595 -1.1302224 -0.2770577 0.7170222 1.2881691 1.7019159 -1.1420695 -1.1697997 -0.77717376 0.16463906 0.7587056 0.448933 0.59600085 -0.82513565 1.6254435 0.7450344 -0.44638696 0.71149 -0.80658007 -0.289058 0.5053158 1.2240242 -0.59378594 -0.21120031 -0.17634492 0.29796138 0.51093364 0.2314154 -0.97077245 1.1624615 -1.234628 -1.0904056 -0.66692907 -1.9234502 0.55004096 0.72181875 0.36559114 -0.36950547 -0.65406924 0.3009247 0.07106752 -0.08916488
TWMET_00083 0.1693207 -0.70620215 -0.5901836 0.30520898 -0.368417 0.20090483 -0.073988415 -0.021433797 -0.9240728 0.6862546 0.32874024 -0.039149005 -0.6752711 -0.6646829 -0.8633752 0.046650097 -1.3707986 0.6313181 -0.052506372 0.0133504355 0.034026075 0.32873762 0.18870541 0.09163507 0.19164544 1.3494787 -0.19338526 -0.6680645 1.463374 -0.3158358 0.48900115 0.78452814 1.3188931 1.5551302 0.825778 -0.09534879 0.2374601 -0.5080293 -0.79273146 -0.71876335 0.98307836 0.06728343 0.14470816 -1.6682186 0.14881396 1.0771532 0.35995474 0.46905687 -0.19361411 -0.18743362 0.16562742 0.8850169 0.124106005 -0.9429955 1.2976326 -0.100722596 0.1981387 -1.4062693 0.36919254 0.047240835 -1.1329354 0.6535758 0.8575748 0.55216604 1.4987319 -0.51851434 0.81551963 0.6216051 1.1988711 0.15957181 0.5152616 0.2505152 0.8726381 -1.0788047 0.6134831 -0.68057275 -0.19695652 -1.6397578 -0.24104762 0.38621494 -0.40159178 -0.70521677 0.08604628 0.016757395 -0.22350837 -0.41465622 0.56559324 0.9521806 -0.5545109 -0.6785393 -1.4148097 0.47319585 0.69803125 0.08468906 -1.1342119 -0.716168 -0.5913302 0.8287882 0.06065479 0.6167388
TWMET_00485 0.40107203 1.003128 0.31528905 -0.043723926 0.10903584 -0.42153087 -0.20291504 -0.103901915 -0.983405 1.3219537 -0.19409917 -1.0490452 0.492983 0.27574518 -0.6913571 -0.31080112 -0.7173818 -0.20726362 0.27181762 -0.085790165 -0.20717907 -1.094604 0.8135771 0.79854643 -0.020592628 -0.48938605 0.08022938 0.81880933 0.5041151 0.014313723 0.473699 0.55533713 0.65649015 0.30612174 0.037305307 1.0270847 -0.37666312 -1.1689978 -0.36933094 0.16295631 1.6662904 -0.8981711 -0.37834054 0.75839853 0.27012926 0.10606945 -0.08025596 -0.62363005 0.46909192 0.27051196 -0.18761645 -0.1715114 -0.93310565 -0.74437475 1.0759361 -0.23131591 0.8759694 -0.27289882 -0.68297094 -0.21750426 0.6239823 2.051524 -0.1573499 0.2905084 -0.4876374 -0.72073895 -0.809736 -0.5858246 0.6457271 -0.3021935 -0.80866283 -0.52883005 -0.29944482 -0.9044466 0.2507633 -0.858244 -0.52060175 0.59867364 0.7291284 -0.0343741 -1.0808979 -0.28609002 -0.4082373 -1.0039859 0.2609156 -0.08309418 0.29179645 0.28682303 -0.6377811 -0.13142565 0.16973844 -0.12691094 0.6263838 -0.89170444 -0.5046378 -0.68416613 0.29871354 0.024461005 -0.38316268 0.21430086
TWMET_00087 -1.4435492 0.47786525 0.051172834 -0.35410666 0.35215372 -0.9922716 0.866146 -2.0599623 -0.38117325 -0.21664804 -0.116502866 0.07965207 0.88450426 1.0740104 0.8070697 -0.44908768 1.3503776 -0.18893306 0.2411684 0.258984 -0.053540345 0.16851716 -1.4441352 1.0841342 -0.23038565 0.31484026 0.18223691 -0.015182795 1.9017228 0.7514681 0.19457056 -0.26350147 0.37687355 1.9489741 1.0818272 -0.15471815 0.696835 -0.81929857 -0.53362894 0.23214352 0.9467713 0.38370445 0.41181067 0.41956687 0.14304174 -1.5613047 -0.93875873 -0.2940987 -0.499428 -0.018012421 0.92478955 0.40497583 0.45556945 0.93030393 -1.3388332 0.41435638 -1.3613846 -0.8953152 0.7174917 -0.13780922 -1.9276049 0.860751 -0.064224884 -0.5113301 -0.85056025 -0.5962991 -1.0255045 0.022462128 0.034967218 -0.7982646 0.022015763 1.2417686 0.24638686 -0.8060459 -1.5244116 -0.7331611 1.1566366 0.791263 1.283941 -0.18642361 0.33807382 1.1061277 -1.0852166 -0.34030104 0.06178732 -0.571741 0.9808299 0.07891534 -0.2855596 0.4295136 0.021355407 -1.4336442 0.24304456 0.33329436 0.09796105 0.9349673 0.4226761 0.3219871 0.40808365 -0.22201063
TWMET_00577 0.63838285 0.48563507 0.18267947 -0.28509286 -0.5670655 -0.45767188 0.038176063 -0.5191003 0.14108163 -0.18550886 0.12829603 0.28605983 -0.36870167 0.11881473 -0.5713771 0.029416032 0.33614448 -1.3450962 0.57425684 0.5525507 -0.7269868 0.03692063 0.10988348 0.26901317 -0.0039357133 -0.7599835 -0.35165006 0.1258647 -0.069659166 0.57739943 0.3721974 -1.0145949 0.6427085 0.28319326 -0.20076175 -0.043397848 -1.5304796 -0.4320718 -1.0752058 0.3686289 1.43308 0.89275163 -0.9936249 -0.09215132 -0.57885253 0.5893243 -0.2246353 0.07173401 0.1178755 -0.11698613 0.030359063 0.35503677 1.0232767 0.04485448 0.35914412 0.880959 -0.9747993 0.3366108 -1.358154 -1.2131917 -0.28807575 0.7381419 1.2187804 1.592396 -1.1511172 -1.1979262 -0.7449512 0.16376321 0.6960324 0.45618147 0.5489728 -0.773073 1.4637287 0.7141177 -0.38613528 0.7311031 -0.7747707 -0.13361023 0.42654863 1.1068473 -0.51079196 -0.2291186 -0.18251623 0.15833458 0.5119073 0.22165321 -0.8485823 1.0206281 -1.087254 -1.1017795 -0.7423538 -1.7825412 0.53622365 0.76839125 0.34355298 -0.30367774 -0.5892624 0.29624924 0.13045415 0.0033714012
TWMET_00550 0.03499367 -0.102375075 0.8003523 -0.908955 -1.3889517 -0.34091517 1.0908881 -2.4232175 -1.2759343 0.72788346 -1.0637248 0.27838108 0.71279866 -0.36272594 1.1297531 -0.22287832 0.35378164 -0.11050278 0.46875364 -0.5722055 0.76798654 -0.4848876 -1.457286 1.5153648 -0.36280075 0.7054694 0.2549431 0.5187645 0.13990623 0.33823428 -1.4789343 0.5477815 0.29963335 -0.6951589 0.28227532 1.3119253 1.0589285 0.43530756 0.8113071 -0.4502634 0.13654493 0.115924865 0.9941154 0.9204106 0.11005132 -0.35040295 0.42371207 -0.56037617 -0.6186954 -0.08483674 1.9834969 1.0401709 -0.42374417 -0.26748416 -1.0466101 -1.0471884 0.652459 -1.6342266 0.8704683 1.0461974 -0.2303112 1.5927114 -0.23637591 -0.6763381 -0.33657953 -0.55161655 -1.451269 0.3229572 0.8081357 0.18897213 0.42220497 0.6998334 0.656802 -0.7770086 -0.44713974 -0.31045312 -0.0027311416 0.9039594 1.3356719 -0.4080929 -0.65775347 -0.028744426 -1.2423155 -1.0338776 0.559094 -0.1990513 0.07279258 0.6225193 0.24287422 0.77907646 -0.29401004 -0.81189686 1.0552063 1.0478941 0.09300048 0.23571464 0.61877584 2.0776088 -0.39106303 0.08808239
TWMET_00231 -1.0390207 0.5301268 -0.9828167 -0.7309293 0.6762242 -0.48013562 1.36115 -0.75101244 -0.63981456 0.49212512 -0.25886258 0.5605783 0.6370987 1.3110977 0.07734516 0.33836004 0.5860394 -0.25661862 -0.64004207 0.49841815 -1.1139596 1.3458309 -1.4245621 0.15014258 -1.2482754 0.22621787 0.092109926 1.2222191 1.3678615 0.469648 -0.054478716 -0.70159805 0.6102559 0.8543844 -0.6333732 0.79765445 0.3864857 -0.822187 -0.60447484 0.690324 0.34176472 0.68388367 -0.24952969 0.9405074 -0.12400132 -0.54596937 -1.5939329 0.12333362 -0.30890185 -0.41461155 0.06654108 -1.4010949 -0.43644592 -0.28579322 0.4719865 0.8357525 -1.0202763 -0.7508001 -0.11412021 0.43319783 -0.94588697 -1.4296105 0.5421969 0.26403663 -1.7269157 0.018336145 0.098702416 -1.3443917 0.74712044 0.8465256 0.74768794 -0.031052575 0.55362165 -1.1430764 -0.8163024 -0.46045768 0.21191925 -1.2756432 1.0226089 -0.6177073 0.8491017 0.95036477 -1.6807691 -1.2781322 0.300794 -0.8563185 -1.0286871 -0.56213284 -1.1644781 -0.25568312 0.7807664 -0.6034896 0.8885581 -0.0904212 0.93112373 -0.054000787 -0.4078566 0.12343705 0.4063258 -0.12394269
TWMET_00533 -0.7731295 -0.55441725 1.224173 0.4561096 -0.21084033 -0.49886104 0.08540988 -0.50619423 -0.8872753 -0.48911485 0.07520324 -0.3473119 0.034910165 -0.5375703 -1.0790558 -1.6308076 -0.12684292 0.4495544 0.294335 -0.52304333 0.42751598 -0.44019058 0.42001307 1.0222312 -0.042766653 0.34408474 1.3865457 -0.36936685 -0.16474539 0.3199319 -0.28517386 0.8732476 -1.1207272 -0.09323953 1.2153056 1.1718861 0.40253925 -1.2524487 0.06259591 -0.19576518 0.5016919 0.37995884 -0.7679979 0.45147708 0.36465445 0.18791975 -1.5777725 -0.91386175 0.027255077 -0.09990147 0.044555847 1.1810062 0.16802639 1.3177783 -0.06821345 0.50449574 -0.4891757 0.11156302 0.9774242 0.83287513 -0.5579422 0.692328 1.2193453 -0.5680551 -0.29827648 0.53423154 -0.7579985 -0.07422729 -0.052414276 0.36692315 1.2717568 -0.8938819 0.6000138 -0.43354368 -0.23506609 -0.28219998 0.2119054 0.19267873 -0.39176342 0.45025495 0.01491429 -0.73009723 -0.7067604 -0.8570309 0.4106633 -0.39415488 0.0041664066 -0.7318791 -0.8683878 1.0426645 0.7416872 -1.4959158 0.5951512 0.66384256 -1.1187629 -0.2044855 -0.06859905 0.6651899 0.18295611 0.078408696
TWMET_00197 0.0332118 0.18869577 -0.99509674 -0.008055352 1.0852008 -1.2688825 0.2391455 0.67836654 -0.71395534 0.26029667 -0.5049307 0.51096946 0.335413 -0.9197917 -1.3812659 -1.4610662 0.5531976 -0.21192673 0.24496673 0.4351215 -1.7866148 -0.36055917 -0.53699106 0.16846898 1.36529 -0.26935744 -1.0445513 0.13247944 -0.71902436 0.7052727 -0.6746192 -0.13178997 0.899687 -0.508599 -0.90043616 -0.009436734 -0.09295744 -0.73554033 -1.4936327 0.7565515 0.09452385 -0.7721362 -0.7017881 0.21437076 0.057510734 0.21949075 -1.2075514 0.09126456 -0.5121228 -0.14364307 1.3306084 0.38098544 -0.77683103 0.87018925 0.553579 0.6823504 0.6859818 -0.7050896 0.13021247 0.8205102 1.0284686 0.040566217 1.2275406 -0.4939892 0.13168846 -0.3286283 -0.18155369 0.36306316 -0.18845096 0.12147866 -0.09177657 0.612149 0.09260887 -0.024269264 -0.4420939 0.06104034 0.15038459 -0.56496567 -0.007173832 0.15659142 -1.9901536 -0.09137055 -0.04051704 0.3352466 0.48350197 0.4207783 -0.79499817 0.9419807 0.09400302 0.6354274 0.6089191 -0.40980285 -0.08654299 -0.08124069 0.6681677 -1.5054574 -1.3184859 0.47809762 -0.8924613 -0.6672014
TWMET_00077 0.17633912 -0.5531839 -0.46229783 -1.643144 0.2078234 -1.8737987 0.5564074 0.2932025 0.7015254 0.13838845 0.44410777 -0.16315955 -0.0074687 0.8094985 -0.16718341 0.28387234 0.08822759 -1.2908584 0.4002081 0.39134365 -0.17055504 -0.19982718 -0.15013096 0.4487555 0.5016001 0.3582523 -0.312003 0.5676623 0.45878294 0.44189915 -0.41755068 -0.6333727 -1.3852923 -0.3841263 -1.281661 -0.010167495 -1.0137519 -0.5683007 0.72344714 -0.33437932 0.82390505 0.22393551 -0.5211614 0.14789566 -1.3494807 0.24022067 -0.2426161 0.45103604 1.2741643 -0.45990026 0.526807 -0.8690375 -0.01237844 -0.04399518 -0.53992015 0.45013836 0.68092144 0.5454011 -0.79188776 -0.19225572 0.712168 0.19849332 0.03633901 -0.39844477 0.90712875 1.0226767 -0.5581442 -0.11567094 -1.2990489 1.2488425 0.4690636 -0.16335662 1.0162789 0.33309725 -0.9792776 -0.24749441 -0.14773303 -0.9153867 -0.48930576 0.17559789 -0.42072868 -0.44001496 0.20271616 0.15878946 0.044378366 -0.37295994 0.54325634 -0.35562715 0.40252015 1.0113461 0.37461787 -0.65714234 1.2598492 0.32010338 -0.5690413 0.5465449 0.21461429 0.26522815 0.70285445 -0.035333376
TWMET_00392 0.5129767 0.626583 -0.041445456 -1.629334 -0.17204049 0.17291798 0.7714934 -1.4538124 -0.6734531 1.2893707 -0.597289 -0.21878943 -0.34377712 0.615706 0.7324044 -1.4694705 0.90626895 -0.20814067 0.5429286 0.9268044 -0.6822672 -0.95346004 0.9899971 -0.012525954 -0.6727578 0.087277174 0.92974204 0.62474 -1.0713247 0.4770377 0.96400845 -0.12076729 -0.14490567 0.94506717 0.98175234 1.0499789 0.64418817 0.22805668 1.7254812 -0.5937506 0.13036804 0.75003374 1.1072093 0.53067195 0.061890516 -2.0268004 -1.1699196 -0.6839095 0.22635931 0.4363543 1.7800616 0.7534746 -0.51476026 0.2003038 -0.15528506 0.78282076 -0.9826492 -0.5566627 0.703769 0.16875122 -0.15535925 2.684884 -0.038174532 0.27208444 -0.15100874 0.14688122 -0.62621206 0.7380264 -0.9869046 -0.2915283 0.8569291 0.34322178 0.4662617 -0.14622445 -0.46773723 -0.04171352 0.86777234 0.47517392 1.2887601 0.41977412 0.018268468 -0.18335572 0.3851362 -0.98746926 0.6662728 -0.26500842 -0.16890119 -0.035905633 -0.91197264 0.17471643 -0.34874356 0.1565555 -0.2696841 0.3146808 -0.7655287 0.87245506 -0.19115685 0.2079727 0.8699843 0.26949006
TWMET_00188 -0.13592525 -0.67354876 0.6147887 -0.65440387 0.25548336 -1.1947607 1.805188 0.54549503 -0.17650469 0.5499837 0.8963243 -0.23803368 -0.9527721 0.4135054 -0.980028 -0.21984118 -0.6207011 -0.38081342 0.037129372 0.99322206 0.50295514 0.071149714 0.468496 1.1089113 0.6522082 -1.0946168 -0.23383276 -0.12127716 -0.7998065 0.1435005 -0.31350902 -0.7639999 0.798445 0.8882168 0.09616167 0.18628004 -1.4047365 -0.88583475 -0.0505004 0.076814234 -0.033602897 -0.89738005 0.094051324 -0.66087854 -0.2933773 -0.27714065 0.6622265 1.2556769 -0.24729934 -0.91257465 0.12691464 1.0747218 0.59949297 0.2656461 0.12736244 1.4002345 0.07318941 -0.80035543 -0.12499209 -0.5812198 -0.7695816 0.6486325 -1.5450541 1.6469935 1.0239574 0.60557544 0.19072743 -0.20900069 0.20968704 -0.2224651 -0.20387597 1.1915653 0.62847966 -0.25660932 -0.23630512 1.1158184 -0.72385484 -0.9324137 -0.56122255 0.6817824 -0.5062696 0.40226394 0.12179132 0.71298105 -0.07119319 0.30083624 -0.45622334 -1.4660039 -0.78330576 0.16626006 0.51317376 -0.4530242 -0.5419162 -0.29288697 -0.45996478 -0.49421003 0.3388344 0.056579847 -0.43035784 -0.9619076
TWMET_00211 0.18350749 -0.18282533 -0.32283622 -0.029478455 1.4243412 -0.9366768 0.7786488 0.9428214 -0.31194583 0.16696462 0.040402677 -1.2867955 -0.2547 -0.36201105 -0.20765595 1.0810871 -0.023390897 -1.0276896 -0.04299153 0.7786515 0.26671907 -0.86588013 -0.22763209 -0.028487977 -0.66021246 -0.024445342 -0.670179 0.86280334 -0.7750425 0.63171244 0.41712555 -0.18776897 -0.018574325 0.9479931 0.54019403 -0.8594319 -0.0044884034 0.9313337 -0.47684914 0.52461404 0.4451313 -0.3954642 -1.1538149 0.59957117 -1.0603074 -0.38388926 -0.7829287 -0.2607425 0.32217583 -0.04170106 -0.027505409 -0.3246079 -0.37545928 0.08229154 -0.6901148 0.21010977 -0.3235946 -0.3895853 0.70242035 0.41432047 0.79565215 0.95309114 0.07324996 -0.5757131 -0.023868198 0.26258177 -0.29820704 -0.44531524 0.2763759 0.18191592 0.35858622 -0.0788811 -0.0841109 -0.26448813 -1.741606 -0.06629592 0.14983495 0.30136186 -0.27432576 1.1182594 0.30000535 0.534718 -0.5010316 -0.2110253 0.5166649 -1.013639 0.27717528 0.16277434 0.6550278 -0.47399303 -0.53187376 -1.5662165 1.2309214 0.83969855 1.4695059 -0.47816485 -0.76113826 0.21718684 -0.08059503 -0.44673517
TWMET_00191 0.5374782 -0.38784522 -0.25870895 -1.4400264 -0.06393387 -0.70329195 0.9186005 -1.006203 -0.811117 0.7992508 -0.2967686 -0.69019127 -0.6177306 0.28799358 -1.4888128 -0.54177403 0.16746642 -0.3908674 0.62730324 1.0589275 -0.3428656 -0.0987941 -0.15302764 0.12902738 -0.0066430653 0.1743308 -0.733795 0.4096456 -1.2298899 1.1892629 0.43919733 -0.55276704 -0.941588 0.19625644 0.8777801 -0.6967305 -0.1746305 -0.46756443 0.30216515 0.18454804 0.71620655 0.019729596 0.08094377 0.6943396 0.32623166 -0.3103128 -0.56320566 -1.0576704 -0.5665398 -0.25059003 0.26744744 0.20077564 0.68107826 -0.6186536 0.10653249 -0.5896414 -0.6001716 -0.2720279 -0.1097106 -0.2703768 0.68213534 0.97284865 -0.17895494 0.23730335 0.020593755 0.38760436 -1.0085965 -1.256988 1.3979341 1.095881 0.45022967 0.02293619 1.2009673 -0.0037649663 -0.43669945 -0.34989733 0.58268696 0.18773574 -0.06216107 1.0952039 -0.15612102 -0.16568187 0.9247673 -0.06738372 0.07386096 -0.15535046 -1.0588801 0.044509355 0.7827215 1.4729458 -0.72987014 -1.3122358 0.85451496 -0.33302078 0.9328428 -0.720187 -0.47771153 0.42384982 -0.6376158 0.113124296
TWMET_00192 0.066261835 -0.781379 -0.10775433 -1.1706715 0.9160749 0.17345904 -0.941777 0.54936504 -0.83593464 -0.06769756 -1.0440569 0.393562 -0.046310026 1.331291 0.36559123 0.052445583 1.3067563 0.28897372 -0.07570288 -0.49386615 0.41055354 0.46813023 0.64824396 0.16535822 -1.0292438 1.4962592 -0.721268 0.18049048 -0.5635741 -0.14642371 0.26942766 0.6461718 -0.6552968 0.6008039 0.16714673 -0.2980737 -1.0115576 0.055985507 0.35366645 -0.5839654 0.42961138 -0.529671 0.29754102 0.7270221 -0.27106553 0.6619271 -0.5606441 -1.4584229 0.19513126 -0.45471606 0.11275256 0.35630757 -0.084126934 0.12248443 -0.3892324 -0.7379241 0.1452275 0.15687184 -0.54540133 0.8263302 0.068747744 -0.2991831 -0.024753518 1.618654 0.15042391 -0.45466563 -0.79963964 -0.53512216 -0.8060747 1.0953076 -1.2623563 -0.93118113 -0.0445462 -0.42686775 -0.13887338 -0.3223865 0.30528748 -0.498409 0.29238167 0.21535195 -1.6474864 -0.5053446 0.46055642 0.33521476 1.0185212 -1.0615723 -0.59362787 0.7335241 -0.079192564 -0.063836865 -0.8339189 -0.013824755 -0.026938593 -0.44979116 -0.8364322 -0.84328437 -0.97009504 0.6885811 0.1515344 -1.4656156
TWMET_00221 0.26730573 -0.14120613 -0.3797135 -1.0890896 0.42092752 -1.1690634 0.35597652 0.32517982 -1.0289085 1.7511632 0.70151174 0.20404904 0.41291803 1.0923115 -0.6420306 -0.045568142 0.69924444 -0.8534579 1.4688563 1.0750928 -0.34294343 0.65711194 1.4135995 0.5566869 0.27822912 0.4653545 -1.3924165 0.83340544 -0.4600074 1.3267876 -0.92958426 -0.85503685 0.6007414 -0.7048388 0.028336668 0.50350934 0.34521627 -0.42847428 -0.21368766 0.48041978 1.2367322 0.16667132 -0.53954995 1.2297045 -0.34304556 0.14763163 -0.13910028 0.14778598 -0.82575214 0.50862837 0.3624319 1.1887149 0.6741131 0.76104385 -0.72689724 0.28445905 -1.1538571 0.6414929 0.5417457 0.032424685 0.9415966 0.70716584 -0.77814114 0.7875609 -0.122741304 -1.2062029 0.21623243 0.39473775 -1.3581592 0.043937396 0.57584417 0.25607872 0.7920759 0.80936724 -0.16606031 -0.602726 0.32420698 0.25232342 -0.23652418 0.105446205 -0.14040282 -0.51553804 0.7146647 -0.3432919 1.2060479 0.7028721 -1.7569803 0.94355017 -0.07971764 -0.27591202 -0.6885373 -0.8894707 0.82937396 0.20785408 0.32497483 -0.7278258 -1.2086586 1.2168931 0.30049458 -0.34835774
TWMET_00164 -0.4693006 -1.3582447 0.063023046 0.09257971 -0.065736115 -1.4379919 -0.5888158 0.45263654 0.08833285 -0.2456101 0.88872427 1.7265749 -0.9710305 1.015375 -0.44861013 -0.41529718 -0.21840574 -0.278567 0.5002466 0.026724562 -0.29585618 -0.7559744 1.1182817 -0.073606126 -0.26467556 0.8275879 -1.111224 1.1540508 0.17276898 0.36555573 0.046278007 -0.2347035 1.3237636 -0.8279756 -0.51194143 -0.10731509 -0.08214758 1.1081315 -0.3503373 0.14295681 1.018238 -1.2440435 -0.591558 0.11791107 -0.19006653 0.19757596 -0.91542876 -1.1695188 0.8864872 -0.65275365 -0.48181418 0.7901951 -1.349483 0.12843697 -0.605498 -0.54265845 -0.7345119 -0.44887525 -0.2439396 -0.37330332 0.497742 -0.010086184 -0.6739029 -0.5627996 -0.55201465 -0.86805695 0.35146815 -1.5587267 -0.47199672 0.35238788 0.60689455 -0.08602191 0.94443774 0.3794321 0.46898735 -0.8626451 -0.25010604 -0.45090288 -0.46641466 0.18864253 -1.4597553 0.66680336 -0.45652938 -0.478235 1.2964487 0.55840695 -0.31960177 0.30620214 -0.27895188 0.041389413 0.63831407 -0.43226683 0.37175077 0.24800906 -0.6979562 -0.14866392 -0.42701823 0.88030326 0.11103267 0.39314094
TWMET_00056 -0.15339282 -0.62640345 -0.9683576 -1.4869165 -0.5543981 -0.4238084 0.23954579 0.6212493 0.8463844 1.2404928 0.28199407 -0.6249431 -1.364034 0.23107204 -0.21826856 0.38587028 0.94153905 0.32355917 1.3618084 -0.15661255 -0.9242558 -0.15351044 0.8473457 0.79768157 -1.1148583 0.9786995 -0.69027025 -0.050376374 0.44798848 0.23173586 -0.19611725 0.16821793 -1.2380757 0.014381688 -1.2540452 -0.5520998 -0.7217694 -0.89508146 0.026376834 -0.64550304 1.3183746 -0.18187438 -0.38933346 1.0909752 -0.13551325 0.36272725 -1.7838748 0.03833926 0.22517346 0.32896864 -0.001464437 -1.0004668 -0.052638628 -0.3195545 -1.2028934 -0.20579533 0.037033264 1.0207641 0.6034432 0.5205261 0.37290895 -1.1305162 1.0019197 -0.53860843 -0.5931725 0.7447176 0.5565147 -0.59415764 0.11821273 0.78965545 0.42713264 -0.5628383 1.4226644 0.053718235 -1.0927876 0.44761717 -0.1612198 0.25880757 -0.29841968 -0.3535635 -1.4611303 0.35607016 0.61010826 0.43622124 0.44299456 0.3395263 -0.17330979 1.3553876 0.60368055 0.8776734 -0.604914 0.2998635 0.5715224 0.31821337 0.78762144 0.8587914 0.16862267 0.5173291 0.5210373 0.8155938
TWMET_00001 0.88927674 0.33797178 1.8132788 -0.31604388 -0.85164493 -0.9127224 1.4843556 -1.0134073 3.17111e-05 -0.2474558 -0.20601712 -0.28388402 -0.1786473 -0.30404952 -0.91358244 0.4550568 -0.40787485 0.36387748 -0.04247953 -0.80738485 0.6363424 -0.33436206 -1.9938636 1.0667292 0.58284414 -0.6392624 0.22291747 -0.5392073 1.1841142 0.43808314 -1.8694934 1.2597929 -0.29384366 -0.7254715 -0.23832667 1.0408189 1.1525204 -0.6635792 0.26557335 -0.20046303 -0.36876318 0.85430783 -0.49551848 0.34174678 -0.0126520125 0.4352603 0.2110793 1.5136961 -1.0330387 0.62999314 0.6059856 -0.03457888 0.1208074 -0.51111495 -0.26571837 -1.3952597 1.8880779 -1.4499452 0.9169408 0.93302935 -0.31967446 -0.48694617 -0.77862275 0.4569943 0.3894927 0.8314749 0.7863409 -0.061998006 1.4015417 -0.6756689 -0.07440975 0.8399526 1.346256 -0.9411169 0.043231446 0.379876 -0.2173921 0.6938607 0.7578906 -0.7853003 0.7142702 1.1915814 -0.3961998 -1.7068428 0.7651508 0.89844245 0.15973915 -0.28741068 -0.78285295 -0.652915 0.036619157 -0.3988504 0.44934365 1.168668 -0.07082331 0.24000451 0.7857934 0.36073676 0.3662963 0.97404253
TWMET_00275 0.16629846 -0.6227431 0.29868713 -0.83684266 0.45428568 -0.24604023 1.1423213 0.27440384 -0.2493402 0.3351078 1.2868295 -0.41144195 -1.0100687 1.5596853 -0.81891733 -0.25982973 -0.25145936 -0.49899852 -0.70946217 0.6616304 0.6158696 -0.43888694 0.13992487 0.46542114 -0.36294684 -0.84842443 -0.12160136 -0.7833351 -0.52477366 0.80607593 -1.0528287 -0.40219432 1.1007375 0.5617498 0.47573307 0.75467676 -0.06578745 -0.23642957 -0.05402515 0.15863794 -0.40313545 -0.34022784 0.2604457 0.5706483 -0.098071426 -0.06486263 0.83512455 1.0685748 0.6844517 -0.5097999 0.012478593 1.7354016 0.69083387 0.4755149 0.35600355 0.7824804 -0.7141353 -0.81307304 0.09991621 0.0033548987 -0.2846071 0.012033318 -0.77982426 1.5669329 0.7220063 0.2987667 0.14827424 -0.31766802 0.52292854 -0.36634123 0.025089374 0.76120394 -0.022321144 0.3125605 -0.44730788 0.034989763 -0.82293963 -0.67064327 0.53326803 0.8426438 0.24433449 1.306126 0.38597292 0.48426548 0.4623374 0.074209504 -0.7346174 -1.3707478 -1.0489025 -0.98432827 -0.13232069 -1.145381 -0.9285037 0.3590773 -1.2212429 -0.5301372 -0.5394297 0.8708952 -1.9428877 -1.3196831
TWMET_00028 0.92214066 -0.6379809 -0.31804866 -0.6145646 -0.18044834 -0.84938127 0.4966482 -0.12618937 0.9528248 -0.43738508 0.47668758 -0.76390195 -0.00527087 0.4862551 0.6101215 -0.59153295 0.57150674 1.4264578 0.8797449 -0.63181 0.94226694 -0.04449556 1.2175729 0.9090752 -0.853438 0.4834078 -1.751953 0.74554384 0.041689366 1.2394584 0.57157797 0.24056707 -0.25740415 0.22367929 0.6916119 0.88658947 0.018762011 -0.9780907 0.119664446 0.0822594 0.45036626 0.13994777 -0.8974666 -1.0207127 0.1373048 1.7968178 0.039054528 -0.24404569 -0.6490859 -0.35439944 0.36926934 0.16496241 1.1607269 -0.29213452 -1.6862383 0.203272 0.36128533 -0.11321333 0.11260476 -1.168257 -0.5246765 -0.8371001 0.06453437 -0.037650913 1.1802675 0.14270972 -1.0113293 -0.15400802 1.1144198 -0.43757305 1.8217264 -0.2890834 0.24339259 0.44863182 0.04305944 -0.6026451 0.46672764 0.6015413 0.9699546 0.51574814 -0.5769502 0.7885894 1.0018579 1.4988743 0.4423744 0.7151945 -0.46240073 1.5414515 0.3759047 -0.17152882 -1.6189748 -0.81907064 -1.0878233 0.2708707 0.42482615 0.7937618 -0.28073132 0.18595487 0.39499 0.046127625
TWMET_00078 0.73123103 -0.43183923 0.25055584 -1.0774204 0.9154311 -0.7297713 1.2154725 0.8673188 0.0004510687 -0.25049165 0.21658756 -0.35310644 0.04828084 0.0750879 -2.229205 0.29738227 0.6123487 0.400103 -1.1148254 0.014240634 0.3895706 0.6375961 -0.27224466 -0.26082265 -1.5617828 0.76485497 0.2055013 0.51513326 -1.0278479 0.18203276 0.61192876 -0.02319001 -1.0408463 -0.05179786 0.65725046 0.4183389 -1.0523609 -0.518141 0.3436655 -0.9604262 1.2017078 -0.31111756 0.07492206 0.44453406 -0.09730043 -0.6347535 0.817028 0.99809444 0.9420601 -1.2055503 0.88416255 -0.46635276 0.3233286 -0.11281321 0.81286323 0.0055111987 -0.41276756 -0.59981245 -0.38399512 -0.7401008 0.48787037 -0.2887428 -1.2245802 1.5681365 0.02371735 0.7341629 -0.14046314 -0.07551748 0.2300075 0.6294271 0.36643285 0.52624303 0.2733791 -0.8454655 0.4775669 -0.20682268 -0.8464755 0.041196294 0.18561353 -0.35549304 -0.40443924 0.14044501 -0.39589942 0.5779726 0.65499574 0.7721127 0.9292406 -0.59282094 -0.29942563 -0.92892975 0.32677785 -1.0779694 -0.052571725 -1.0665483 -0.28876653 0.0048821117 1.2855337 -0.6696753 0.43481597 -0.28558764
TWMET_00060 -0.10517336 -0.78818405 -1.0991927 -1.635863 -0.57409954 -0.51345676 0.21193668 0.62743175 0.7277062 1.3741131 0.21358998 -0.67965925 -1.6127639 0.28170255 -0.35860056 0.28655353 1.1192727 0.42255268 1.5015051 -0.04029018 -1.0785564 -0.32818615 1.1114712 0.8607423 -1.3252987 1.2595736 -0.7510316 -0.06897488 0.4131935 0.2532824 -0.15028678 0.267601 -1.213778 0.14232922 -1.3083595 -0.5543266 -0.7623778 -0.9287718 -0.031668305 -0.7165776 1.5855765 -0.28992376 -0.41141692 1.2720159 0.039653327 0.43195316 -2.050854 -0.10696661 0.16651261 0.33009374 -0.004531927 -0.8651629 -0.048397318 -0.35133165 -1.1623796 -0.28703675 -0.10280389 0.916038 0.7295846 0.77858436 0.40386936 -1.1342832 1.2083699 -0.48200652 -0.6746944 0.5846016 0.6407221 -0.7910395 0.25725573 0.8214345 0.43134344 -0.6547183 1.7618461 0.0065192953 -1.2558428 0.37542266 -0.05091673 0.27760988 -0.22457252 -0.2895599 -1.826247 0.40886566 0.6266229 0.42358646 0.6750909 0.35987702 -0.25951567 1.6210443 0.4857856 0.8968678 -0.67370945 0.25422713 0.6743274 0.3267728 0.9411926 0.6968753 0.048022214 0.5708203 0.50190794 0.7870202
TWMET_00163 0.1568297 -0.4891732 -0.75099695 -1.5649393 0.2828688 -0.4909965 -0.8423593 0.4659593 -0.09922851 -0.13335887 -1.3794558 -0.038367305 0.2560118 0.84891987 1.0393938 0.053467825 1.7559944 0.37840542 0.1238312 0.28625017 -0.6350663 0.13894889 0.8048612 0.26857084 0.36616024 1.0806204 -0.15082058 -0.7063276 -1.2225332 1.8267623 -0.3496571 -0.24106702 0.38996363 0.1208069 -0.76473 0.19086759 0.18384828 -0.4014097 0.009745954 -0.42613095 0.2749361 -0.7399733 -0.18443483 1.1394978 -0.17220321 -0.19802928 -0.82320195 -1.5152842 0.32746127 -0.44357345 -0.24037002 1.0397477 -0.10753335 0.8681384 0.54336905 -0.9402788 -0.73510456 0.036485266 -0.9653874 1.2258208 1.9113452 0.43229443 0.09775324 1.2428609 0.099509306 -0.26685038 -0.4798958 -0.60372597 -0.58027595 0.43972203 -0.7521586 -0.4316829 -0.02106246 -0.24312504 -0.3388896 -0.5695817 0.108568676 -0.11260552 0.3829034 -0.34220678 -0.869576 -0.9507941 0.28783855 0.6895656 0.025466777 0.082758166 -0.88492507 -0.062019337 0.02871524 0.25819537 -0.17899355 -0.06729528 0.93401086 -0.49024263 0.11053065 -0.9174641 0.38119188 0.6261128 -0.95727456 -1.1693109
TWMET_01201 1.5817804 -1.7728698 -0.53780615 -1.1079738 0.048166625 -2.4226453 -0.7363112 1.0820274 -0.15806393 -0.039008938 -0.16559711 -0.21836303 0.7109202 1.3363833 -0.48225236 0.31389946 1.0846112 -0.462397 0.5962718 0.7927075 0.21488865 -0.7300601 0.28829688 -0.0022692615 0.26866204 -0.02788281 1.0591251 1.0195588 -0.5661013 0.7037198 -0.46154624 0.46017575 -0.24738911 0.08895606 -0.25526318 0.236664 -0.44471797 0.4985168 -0.02504103 -0.19828624 0.3994459 -0.48757052 -0.95757455 0.13616686 -0.27464417 -0.120127454 -0.11939694 -0.040799722 -0.52003706 -0.168119 0.63101435 0.07831774 0.42941946 0.23076859 -0.3655824 1.1239218 -0.20367369 0.816778 -0.3468592 0.033841293 1.1467241 -0.4321849 -0.70929617 0.33909643 0.29473925 1.0112499 -0.046740156 -0.31682992 -0.31654993 -0.14447053 1.1084592 0.3683543 0.07863095 -0.28724778 -0.7660039 -0.50529325 0.2263648 -0.35927445 -0.6417275 0.16930501 -1.8107029 0.89928794 -0.65732265 0.2185552 0.5574522 -0.75629103 -0.055158325 -0.9657603 0.33543053 0.35892582 0.3196007 -0.62692493 1.070323 -0.3831929 -0.468587 -1.5626526 -0.42150363 0.21186215 -0.3321049 -0.573606
TWMET_00071 0.04547727 0.31066638 -0.99372303 0.018658035 0.96281767 -1.234525 0.20324951 0.6431734 -0.60147303 0.21767691 -0.48984206 0.54197574 0.32011262 -0.92213786 -1.3389658 -1.4671917 0.47877517 -0.17064478 0.24287419 0.32709748 -1.6912836 -0.274607 -0.5521869 0.25875264 1.3584812 -0.37990057 -1.061863 0.20392777 -0.74394155 0.7470315 -0.64578384 -0.11238209 0.9082483 -0.63891363 -0.8338228 -0.03710045 -0.09468819 -0.74959517 -1.4004233 0.71584296 0.040561758 -0.78037274 -0.73694396 0.14562893 0.05945473 0.22944446 -1.1976075 0.048471335 -0.6458433 -0.14106439 1.2576813 0.2836579 -0.72289646 0.8132026 0.4190524 0.64282995 0.71943206 -0.7180704 0.16594054 0.7693771 1.0246462 -0.003309203 1.1323664 -0.47425875 0.09537526 -0.23626664 -0.20478112 0.32118225 -0.13101704 0.08698393 -0.040909212 0.5711984 0.084775366 -0.112403065 -0.40640345 0.12384514 0.21021979 -0.5202323 0.024564222 0.13265385 -1.9357337 -0.026007837 0.012281333 0.34234616 0.36021948 0.45022148 -0.8255988 0.94405234 0.085339 0.6949358 0.5807038 -0.34076416 -0.18789753 -0.1391568 0.72745883 -1.3772088 -1.2347518 0.39203024 -0.8752214 -0.62846327
TWMET_00167 0.2421491 -0.55444086 -0.32289973 -1.3073587 -0.24316251 -1.7964787 0.63746536 -0.018232016 0.48630655 0.111932226 0.6752867 0.054911435 0.07932822 0.56844956 -0.08194097 -0.022682881 -0.45634496 -1.3497865 0.26560053 -0.030707465 0.29025173 -0.016650721 -0.5262684 0.5403655 0.6880822 0.65208644 0.14880402 0.37720546 1.0443877 0.44118977 -0.8535532 -0.3783411 -1.2954983 -0.6108774 -1.394953 0.054875903 -0.77068156 -0.51720935 0.6289705 -0.43240538 0.944119 0.22081266 -0.25078186 -0.2506523 -1.5884769 0.3129641 -0.027395457 0.66579145 1.2987603 -0.017912429 0.57352704 -0.6272531 -0.324777 -0.17578048 -0.55841917 0.53483796 0.9484186 0.37740666 -0.7048326 0.16061145 0.7316503 0.22251236 0.17396858 -0.57511777 1.0678988 0.7577805 -0.59941703 0.1890841 -1.6131389 1.2729578 0.47115287 -0.25568178 0.89028203 0.29747215 -0.88712096 -0.6236011 -0.5698235 -1.03017 -0.15165903 -0.1627626 -0.3196578 -0.8576094 -0.043903828 -0.26821324 0.21564136 -0.19033459 0.83284414 -0.25019738 0.1366239 1.0273151 0.13507381 -0.7234932 1.2300165 0.50716347 -0.7602236 0.72654176 0.22545107 0.5079966 0.34972188 0.011516113
TWMET_00104 0.35493505 -0.89880633 -0.0878505 1.2055534 -0.7481126 0.22202976 0.42120722 -0.8965906 -1.073282 0.5841479 0.7167304 0.24182943 -0.11349182 -0.7428845 -0.57495564 0.41280597 -1.6469276 0.89152384 -0.46001026 -0.17186841 1.1331526 -0.21947996 -0.9071635 -0.028896537 -0.086209945 1.543421 0.637768 -0.6421406 2.1383636 0.17701147 -0.56631225 1.1822096 0.7114667 1.3682637 0.3753506 -0.05359699 1.2322506 0.64209414 -1.560526 -0.5600697 0.6750933 -0.076967545 0.3087404 -1.6230669 -0.29638878 0.6445255 0.10459336 0.4233649 -0.5984256 0.13398641 -0.089874774 1.2594589 0.3102906 -1.0589657 0.31447816 -0.048352953 -0.42511874 -1.1962036 0.35105252 1.1360202 -1.0943409 0.07657286 0.789897 -0.35192785 1.4657434 -0.18106987 1.2417535 0.860056 0.124027885 0.6394872 0.42828968 0.5029646 0.20179331 -0.9261242 0.6912877 -1.9213434 -0.27504686 -1.2067746 1.0668381 -0.5379728 -0.17259441 0.29850397 -1.1355845 -0.4311514 -0.061066348 -0.49813896 0.20477583 0.12347244 -0.3256695 -0.414972 -1.821051 -0.65746903 0.75568706 0.8068893 -0.099769995 -0.8134921 -0.82712364 0.5618484 -0.32498047 -0.10731115
TWMET_00037 0.07147454 -0.6450334 -0.4087098 0.46485806 -0.3100436 0.1662331 0.05961309 0.2021181 -1.2325741 0.60344803 0.40902153 -0.80670154 -0.63747036 -0.6579384 -0.66538745 0.58812433 -1.5527967 0.56151396 -0.5178137 0.3847543 0.3498157 -0.17628996 0.43253708 0.25370932 0.12828217 1.3579525 0.07033757 -0.8704364 1.6089581 -0.84102917 1.2106949 0.72530615 0.37569076 1.0557555 -0.18474537 -0.20428847 0.21011066 -0.45747063 -0.7755203 -0.84439313 0.97712684 0.030015783 0.031478003 -1.7629571 0.34831798 1.2319107 0.34722728 0.32230517 0.36089674 -0.123503715 -0.3280211 0.61799026 0.0032984524 -1.2902932 1.5779188 -0.3296234 0.67397755 -0.76023644 -0.1024931 0.2657834 -0.45912573 1.3130856 0.727816 -0.15995614 1.018241 -0.39181957 1.0002009 0.0039243465 0.7661058 0.4846634 -0.04495148 -0.07417246 0.5980765 -1.6600335 0.82075745 -1.3396058 -0.72886896 -1.7536228 -0.3812338 0.42659765 -0.7763874 -0.48415592 -0.31386787 -0.12377757 -0.44380265 -0.458949 1.0401015 0.18823734 -0.68951076 -0.26464838 -0.7889951 0.56951815 0.4262082 -0.008140107 -0.72067475 -0.7167875 -0.59333026 0.007904481 0.58991796 0.7432538
TWMET_00547 1.6522641 -1.9439512 -0.42519876 -0.9902867 0.03414138 -2.3483305 -0.8695327 1.1874821 -0.24456818 -0.11219338 -0.1607514 -0.16250764 0.8128907 1.3217797 -0.52725095 0.40629816 1.0875552 -0.27036417 0.4873313 0.6937047 0.3453764 -0.69301385 0.12956694 -0.07595258 0.2577832 -0.07776028 1.2273501 1.0511222 -0.55486816 0.49704367 -0.50852454 0.63978106 -0.27382404 0.10443325 -0.21718264 0.2514361 -0.3566236 0.61426044 -0.07507836 -0.22882488 0.28015167 -0.50253415 -0.94777846 0.019199265 -0.11558316 -0.1257081 -0.009055343 0.017867124 -0.65793926 -0.16790113 0.6633144 0.0042197495 0.5076571 0.2091145 -0.31591386 1.1462966 -0.14534715 0.8680713 -0.3195472 0.0068046637 1.0821222 -0.6796213 -0.8423564 0.37837565 0.25456628 1.1659501 0.11789389 -0.21998075 -0.24806504 -0.21106462 1.1360888 0.45600405 -0.13224798 -0.41528073 -0.5489174 -0.47077787 0.19357044 -0.31938812 -0.75835603 0.08062475 -1.8696998 1.0803292 -0.7969952 0.20781094 0.51829934 -0.7982742 0.02260589 -1.1386067 0.38798365 0.2507715 0.3345137 -0.45751888 0.93728226 -0.47677281 -0.59487134 -1.6600634 -0.39197367 0.12520824 -0.2690359 -0.58611465
TWMET_00584 0.75995433 -0.4246426 0.8335537 -0.6166991 0.3411648 0.1886756 -0.021674374 -0.117445685 -0.790042 0.53751916 0.62763333 0.4001665 0.10683307 0.24790381 -0.7214506 -0.33802947 -0.057480987 0.27120638 0.10790948 -0.07148504 -0.8209148 1.2870787 1.3573413 -0.13320442 -0.06750294 0.95636946 -0.6426208 -0.4455599 0.34345984 -0.3737788 0.6312761 -0.26811033 0.88115627 0.85024107 -0.38200942 -0.024320066 0.20430017 0.22311729 -0.44168234 -0.16542071 0.7343685 0.4963829 0.21750687 -1.196587 0.45605233 0.5677506 -0.50800735 1.1413832 0.85128504 -0.22589564 0.3579043 -0.45717692 -0.33644265 -0.3186928 0.70924985 0.2684163 -0.5505244 -0.74580467 0.23058987 -0.25692087 0.49189237 0.5164719 0.69721234 0.6097091 0.77658445 -1.0094436 -0.12285443 -0.15676686 0.65339696 0.22557376 -0.013625754 0.20866294 1.0790348 -0.6964451 -0.098080575 -0.16756642 -0.5653835 -1.194421 -0.85450387 -0.08776073 -1.0234087 -0.921595 -0.32761174 -0.61806715 0.67398506 -0.2389809 0.047992114 0.6036127 0.15918002 -0.31105453 -0.91939545 0.62303823 0.48042366 -0.46553087 -0.40411744 -0.5204233 -0.19470073 0.3535013 0.23547436 0.2204956
TWMET_01152 0.5449301 -0.40635234 -0.35570332 -1.5270864 -0.078470424 -0.69788903 0.91893244 -1.0753838 -0.87998444 0.80070895 -0.33667815 -0.68824375 -0.6972865 0.3723078 -1.6216129 -0.5914554 0.22661139 -0.30427083 0.69591963 1.2015707 -0.48095706 0.037793502 -0.05000928 0.074391745 0.05330358 0.2110814 -0.82714987 0.2839368 -1.2675997 1.2007755 0.6256143 -0.63429374 -1.1041869 0.31647977 0.8589788 -0.7741493 -0.28417003 -0.69746315 0.28143948 0.18374868 0.79247504 -0.008830141 0.1262989 0.69204366 0.5374547 -0.20079137 -0.66799295 -1.1417944 -0.6543378 -0.32753807 0.14101593 0.22690047 0.85258436 -0.74237 0.25806385 -0.6510879 -0.6919585 -0.19344412 -0.20315944 -0.33855864 0.6306531 0.966329 -0.09574997 0.3376388 -0.0109944595 0.34754848 -1.0364594 -1.4490685 1.6058048 1.2068524 0.3843668 0.00340972 1.365645 -0.059941236 -0.34635198 -0.36538443 0.6185379 0.14589773 -0.115542635 1.1838514 -0.2035717 -0.2512468 1.1309747 -0.009081798 0.071013965 -0.13307266 -1.1566077 0.04458694 0.810536 1.6123276 -0.7358586 -1.2287818 0.85699975 -0.49687615 0.97395974 -0.8338023 -0.533846 0.31712922 -0.69099104 0.13524732
TWMET_00850 0.67875797 -0.9168568 -0.40698066 -0.10333626 0.67128605 -0.56369346 -0.359023 0.32675552 -1.1186484 -0.797486 0.3843353 -1.5738499 -0.3407636 -1.0317614 -0.21027668 -0.35561156 -0.46782875 -0.6296171 -0.0024187455 0.44279775 -0.3621345 -0.34062114 0.3594721 0.89046556 -0.50265425 0.46597096 0.62771505 -0.19568901 0.19752018 0.5203916 0.4069828 -0.32050166 0.58481723 -1.7950188 -0.83774 0.78505486 -0.21199001 -0.78024423 0.1888697 -0.3371405 0.43919858 0.027448015 -0.38741404 0.2302594 -0.8309416 1.300107 -0.08161889 -0.118620366 0.11650974 0.39184493 0.20773897 0.52492636 0.045889627 0.39231956 -0.27741897 0.8825728 0.32503495 -0.80196446 -0.31251 0.067800224 0.83177274 -0.19672023 0.06428619 1.2376256 -0.18860127 0.08075671 -0.6002175 0.10702016 0.8919119 0.6840982 0.50123745 0.33507323 1.1312608 -0.5497336 -0.77535826 0.39338258 0.15785843 -0.7069641 -0.53763616 -0.89364964 -1.1874814 -1.126306 0.26970637 -0.9582848 0.09446175 0.30984166 -0.4815061 1.2357444 0.124796905 -0.23913744 -0.794114 -0.5753473 0.1832868 0.11721323 0.10715404 -0.20232439 -0.5486216 0.43778628 -0.2986 0.7176774
TWMET_00997 0.21224168 -0.77922654 0.3616202 -0.7603401 0.38389674 -0.6307765 1.1756048 0.527529 -0.3450119 0.4429804 1.2288598 -0.38511196 -1.111648 1.4368939 -1.1376522 -0.48856378 -0.37152863 -0.524145 -0.37640926 0.8974205 0.47075713 -0.093072474 0.42427632 0.6912643 -0.03204005 -0.83957094 -0.27001837 -0.54776233 -0.6878989 0.62923044 -0.72367203 -0.64978206 1.2200589 0.8317437 0.26786938 0.69695944 -0.69385874 -0.5862029 -0.13293067 0.27893424 -0.13955264 -0.6370156 0.38777962 0.0076126507 -0.015783332 -0.27942124 0.7276714 1.0812837 0.24553096 -0.37604755 0.007643544 1.5288324 0.7728398 0.55922675 0.5600459 1.445357 -0.66571355 -0.7999047 0.13212776 -0.27829364 -0.49541497 0.20882416 -1.0003461 2.0071065 0.7123469 0.118045695 0.12430761 -0.35991755 0.5013521 -0.39864713 -0.035490256 1.0864147 0.23692499 0.1844499 -0.31513447 0.5354987 -0.93790704 -0.82210565 -0.075679354 1.0397011 -0.27366158 0.8382476 0.22738995 0.4212809 0.45281664 0.09887922 -0.7278606 -1.3137345 -1.1486611 -0.549535 0.08498378 -0.7083172 -1.0213655 -0.18425393 -1.1397133 -0.63275415 -0.2677045 0.8263952 -1.5773257 -1.2180816
TWMET_00051 0.28170988 -1.2968868 0.33162504 -1.2145545 0.64297193 -0.33787772 0.74518067 0.36910543 -0.19733891 0.09500326 0.3261592 -0.425155 0.28456 -0.007533957 0.16205426 0.14682423 0.31037033 0.021627871 -0.11287819 1.6829867 -0.9712343 -1.566047 0.522753 -0.34823403 -0.44891372 0.018362937 0.8922255 0.12396249 -1.1405418 0.048519872 -1.4172385 0.08923627 0.49947554 0.5642794 0.13618666 0.44513577 0.45721915 -0.21716055 -0.1551339 0.7853071 0.5195316 0.11345343 -0.94589967 -0.4940305 0.15945539 -0.31890786 0.5849227 0.16404599 0.698827 -0.5603365 0.46871743 -0.1109213 -1.4624512 0.0373606 0.8805762 0.2056711 0.7729659 0.1646047 0.14311294 -0.21692139 -0.28945732 -1.1946447 1.7255653 -0.6900549 -0.54900646 -1.1501981 -0.28607303 0.34748143 1.4737557 0.62956303 -0.20283428 -0.78876644 1.1409966 1.0928804 0.23021968 -1.1166589 0.050564464 -1.0276538 0.70122445 0.8382407 -0.88544124 -0.5958722 0.25237912 1.02354 1.1760957 1.07472 0.7249352 0.23838797 -0.3683767 0.41379255 1.1226226 -2.3037598 -0.7657282 -0.118418574 -0.46977422 -0.7599376 -0.96732193 1.2595756 -0.26005736 -0.25752965
TWMET_00856 0.679021 -0.91275173 -0.48659545 -0.054308344 0.71724373 -0.5446779 -0.43457845 0.34122235 -1.1339318 -0.79486173 0.33663586 -1.6757934 -0.33457568 -1.0603592 -0.18025838 -0.39557418 -0.5087291 -0.6534644 -0.043426674 0.50217015 -0.37503794 -0.43057817 0.40657943 0.9045594 -0.50592417 0.4295661 0.64234364 -0.16195393 0.12981476 0.5330719 0.46888518 -0.30652705 0.575289 -1.8106648 -0.83092344 0.7582966 -0.18654066 -0.76719993 0.20559683 -0.2767216 0.3953653 0.008676023 -0.39799714 0.25760517 -0.8112081 1.304078 -0.08174985 -0.20298648 0.10435038 0.41097146 0.19865799 0.4827128 -0.013663033 0.40305904 -0.2837319 0.8986533 0.37878996 -0.7494173 -0.29539546 0.079851404 0.9079447 -0.18973425 0.12518278 1.1574237 -0.21684837 0.074562974 -0.6366082 0.11727571 0.93336123 0.6207782 0.5236674 0.28948626 1.0739435 -0.5316537 -0.80163956 0.39830148 0.20460817 -0.66868067 -0.5456704 -0.86318845 -1.1974744 -1.1384704 0.286734 -0.9402093 0.026749477 0.26603886 -0.48934487 1.3012037 0.14798108 -0.18111862 -0.80008584 -0.5266062 0.113313906 0.08085252 0.17977057 -0.19872327 -0.56647503 0.44468406 -0.35021263 0.7628121
TWMET_00149 0.07560317 -0.24421899 -0.13594697 -1.1829345 0.46442187 0.36837766 -1.3175042 0.5888866 -0.6580769 -0.46127027 -1.2407625 -0.40983558 -1.7595612e-05 0.83785486 0.9300528 0.8459446 1.5746273 0.49932054 0.45677644 0.55686563 -0.21530822 -0.21273018 0.9298755 0.8959744 -0.051276386 1.1226221 -0.34074658 -0.9226497 -0.73167795 0.76868105 0.6421596 0.36018762 0.33280632 0.7171683 -0.6064263 -0.1655623 -0.49528182 -0.0026897918 -0.1839341 -0.0072979387 0.19351946 -0.08878162 -0.23297665 0.19275081 0.34484765 1.0222138 -0.71740276 -1.3367804 0.19646725 -0.13935915 -0.5206026 1.1966269 0.8109584 -0.26050267 0.5952622 -0.88569033 -0.43830645 0.6145814 -1.6130657 1.1254301 0.89766973 0.87575734 0.24112427 1.2530688 0.1373869 -0.9567377 -0.4501453 -0.8219691 0.050962858 0.7483746 -0.97148204 -1.095938 -0.18744506 -0.56906426 0.03915236 -0.3632408 -0.3581685 -0.44709125 0.2726926 -0.37284765 -1.1693721 -1.1669433 0.11769664 0.39891914 0.5481476 -0.59379727 -0.3919339 0.33807755 -0.81648624 -0.17130701 -0.9437324 0.49506047 1.2310575 -0.21300255 -0.78816104 -1.1790068 -0.31789246 0.6330081 -0.4784056 -0.54650915
TWMET_00035 -0.28533834 0.24309877 -0.03196745 -0.87759507 0.18955913 -0.83297825 1.859294 0.9919018 0.53891593 -0.19001688 0.3151181 0.63772523 -0.8766743 0.49208963 -0.09444628 -0.31626275 0.20386823 -0.46349066 0.23702884 0.4068368 0.85100836 0.21739388 0.1749076 0.7819843 0.54287523 -0.5859246 0.37399068 1.1540172 -1.0561967 -1.1658697 -0.57953817 0.32275093 0.933775 1.2658908 0.26967415 0.69330645 -0.6622831 -0.71712554 0.68336374 -0.7987648 0.5084607 -0.40437508 -0.4897061 0.18022545 0.9388514 0.7651779 0.7075515 0.3170391 -0.18432285 -1.9818212 -0.17435284 0.4146146 0.9306632 -0.20870566 0.9572912 0.38409108 0.38815325 -1.2414342 0.30703 0.12658219 0.023211768 0.86052835 -0.45277914 1.1555157 -0.3690503 0.8651669 0.21176085 -0.22419725 0.1531695 -0.48080415 -0.24242777 -0.23410358 1.185814 -1.0134238 -0.81232893 0.97735953 0.51730454 -0.59609777 -0.35332987 0.69083697 -0.4192232 0.68754935 0.76705784 0.40212834 -0.1993987 0.19504882 0.20171392 -1.5987368 -1.5501142 -0.60981745 1.7097027 0.73424673 -0.046532623 0.18581292 -0.27856803 -0.51191723 0.30270836 -0.64912415 -0.45890307 -1.5850213
