161 100
TWMET_00805 1.1567667 -0.56291544 -0.5346887 0.9852726 -0.9366495 0.8897693 0.6412824 -0.1680832 -0.3420882 -0.46417367 -1.3102515 -0.704401 0.49531195 0.042211637 -0.29075548 -0.5124655 -0.7290872 0.3106136 0.31303766 -0.14794695 0.24967234 -0.4340882 -0.49102584 -0.74117154 0.49556488 -0.99188614 -0.12109622 -0.98962927 0.47694123 0.097234264 -0.20547222 0.23786347 0.67331904 0.64840436 0.654467 0.123840794 -0.28094387 -0.32278553 0.41764566 -0.23463851 -0.6822145 1.5642529 -0.054143284 -0.11695807 0.93005204 -0.24913311 1.0803704 0.63687074 0.9707986 -0.305711 1.2523212 0.51130086 0.34089014 1.2412486 0.08693704 -0.8071424 1.3520393 -0.07529805 -1.3599446 -0.11598261 -0.82605296 0.32286006 0.21389903 0.7628297 0.58188915 0.58977234 -0.20287192 -0.23471873 -0.91243863 0.2571165 0.46651977 0.6382022 -0.19525082 -0.62711996 0.44640785 0.3634404 0.22066292 0.15845759 -1.3213526 1.1597055 -0.1531204 0.37121132 -0.06608706 1.0404295 -0.88660085 -0.644273 0.04227 -0.53272486 -1.2854489 0.36028466 0.38874143 0.21566074 -0.062939905 0.94029564 1.2829144 0.6607753 -0.40730426 0.17734787 0.098709285 0.5901358
TWMET_00058 1.1545256 -0.5796233 -0.57738495 1.0580901 -1.0277501 0.88932896 0.64552826 -0.11146765 -0.3554512 -0.40412414 -1.519442 -0.8366505 0.4528938 0.0037573343 -0.34815532 -0.60725904 -0.9133739 0.22022927 0.32078102 -0.13901038 0.22892247 -0.28792688 -0.65593934 -0.7850454 0.49923837 -0.9675369 -0.090032496 -1.0932938 0.6088339 0.16805375 -0.12595803 0.18926367 0.61987746 0.66313916 0.678705 0.12219113 -0.3745404 -0.42243442 0.54356754 -0.37966108 -0.6454193 1.4806371 -0.11689567 -0.069110714 0.83556026 -0.21142246 1.2020688 0.6543601 1.0343295 -0.3219789 1.2638464 0.6562241 0.3235865 1.2183138 0.004846688 -0.9485619 1.3397225 -0.1650744 -1.4557865 -0.14124835 -0.8339178 0.28464526 0.19226998 0.68065876 0.60867107 0.6313266 -0.22150438 -0.24155788 -0.97667134 0.29223648 0.45797613 0.60826653 -0.28125086 -0.49685666 0.4969991 0.43736315 0.23501301 0.110404626 -1.3609126 1.3182849 -0.22130749 0.2763641 -0.12487488 0.94466347 -0.98496586 -0.61673474 0.060285825 -0.62088 -1.4042349 0.42178372 0.3728473 0.21003114 -0.10147007 1.0918673 1.3058017 0.73159486 -0.37027258 0.09810348 0.10248427 0.6041144
TWMET_00322 1.1287113 -0.5512319 -0.70378643 0.8794258 -0.81663084 0.7801134 0.50566864 -0.0065570627 -0.16776851 -0.36286327 -1.0853539 -0.5057645 0.40709352 0.2231287 -0.27162153 -0.56822777 -0.76842934 0.35068777 0.13377571 -0.050242808 0.15868805 -0.3318974 -0.61882246 -0.72647935 0.5248519 -1.0213444 -0.11233878 -0.9954801 0.7448372 0.09451272 -0.069877654 0.16388112 0.6672446 0.6131669 0.6165431 0.2981448 -0.28555414 -0.4528073 0.48217517 -0.2148132 -0.6541543 1.2926626 -0.14304627 0.1193988 0.79230785 -0.1330209 1.1491855 0.5899996 0.9756917 -0.28300092 1.0676136 0.6421264 0.21672618 1.0358044 0.024534361 -0.7883867 1.2619201 -0.12265556 -1.3580929 -0.21109125 -0.8731445 0.31734252 0.284595 0.70902526 0.4965467 0.6457924 -0.17912285 -0.1915403 -0.8840462 0.3414494 0.55089074 0.5484549 -0.13021047 -0.50484824 0.47460946 0.39960456 0.16690639 0.15099096 -1.4407066 1.1284527 -0.2766012 0.18126476 -0.06747982 0.8896776 -1.059528 -0.6476237 0.13899228 -0.69514763 -1.3632476 0.34336847 0.4803466 0.3665499 -0.21873054 1.1777701 1.3604956 0.7457676 -0.38530737 0.14819433 0.19106446 0.6746108
TWMET_00011 -0.19932567 1.0074724 -0.42735943 -1.1635132 0.5398484 0.26443025 -0.821106 -0.0076725855 -0.05489956 0.4931896 0.04169592 0.7989535 0.13563609 0.42912343 1.1834255 0.28610688 0.6983042 1.0090772 -0.38996622 -0.8819258 -0.16773233 1.1730937 0.31025806 0.3509547 -0.57669914 -0.81688255 0.4161881 -0.26371455 1.783873 0.48385936 1.3664769 -1.5988482 0.18673465 -0.76854813 -1.0081128 0.41415927 -0.33903453 -0.58570576 0.29705253 0.39171684 -0.10031284 0.762034 -1.2320359 0.6229274 0.59633094 -0.9507689 0.20634559 0.34055895 0.18798158 1.065504 -0.7356945 0.67933214 0.37396523 -1.5948106 -0.57287323 0.087673165 -0.84869164 0.9887139 0.034331866 -0.4951399 0.4175456 -0.8416363 -0.48168153 -0.45012492 -1.3738836 -0.31160268 0.25441492 -0.31794286 -0.2746517 0.35231584 -1.2602737 0.9724844 1.0680526 -0.50032085 1.1963514 0.20843445 -0.645382 0.66622937 0.22527152 -1.4376208 -0.020351607 -0.034127794 -0.22722895 0.16965285 -0.12636751 -0.6302974 0.015268699 -0.32460615 0.23135445 -0.16318361 -0.2329964 0.80669975 0.06322407 -0.15860134 -0.3831327 -0.3362081 -0.6303823 0.20102237 -0.86204356 -0.7572296
TWMET_00225 -1.222893 -0.23243032 0.10640653 1.5207855 -1.3512709 0.40080154 -0.24049665 -0.54922163 0.92298365 -0.33072045 -0.9008979 -0.33209786 0.67769676 -0.7091633 0.7860846 0.6189516 0.43142065 -1.204889 0.37123153 0.28798908 0.58210075 -0.32910934 0.5557241 -0.5325645 -0.2260451 -0.022867622 -0.47387734 0.6798077 -0.5782734 0.2014868 0.6127132 0.005510076 -0.7608026 1.2847189 1.116685 1.1724093 -1.0677685 0.7363408 -0.32680684 -0.5245932 -0.41959542 -1.129179 -0.3414519 -1.4608458 -0.21067911 -1.0200614 -0.6923979 -1.1392142 -1.0900879 -0.4369524 -0.5865044 0.06963365 -0.12835464 -0.62381417 0.100986294 0.6204726 -0.41012454 -0.2851207 0.663993 1.4357175 0.28797925 0.041146915 -0.5280601 -0.63579315 -0.47514433 -0.0470764 0.47322708 0.59307164 0.14343934 -0.35080504 -1.0303239 0.76469123 0.5449095 -0.7783073 -1.1596338 0.2764082 -1.6455771 -0.4485699 -0.09922206 0.41495755 0.1728997 -1.0789292 -0.04372036 -0.41846672 0.44571412 -0.6259466 -1.0004164 0.19673659 -1.0112357 0.3103601 0.077494785 -0.4993659 0.29349113 0.009048163 0.60833204 0.123905964 1.8218217 -1.7499329 -0.38723606 -0.4820617
TWMET_00004 -0.11680841 0.36581445 -0.019575141 -1.0221399 0.49655247 0.023522789 0.16606174 -0.04230659 0.16601487 -0.04978083 -0.08147045 0.12736654 -0.099684976 0.24069583 1.8563814 -0.027221106 0.005510242 0.23545043 -0.43986222 -0.7311319 0.05975616 1.1750466 -0.25880352 0.12581623 -0.78031844 -0.8269015 0.02693163 -0.19177668 0.34659183 0.5421444 1.8035015 -0.90577406 0.2389422 0.010001013 -0.89871323 0.26762787 0.48910186 -0.5110838 -0.16262804 0.9619688 -0.45814544 0.75995433 -0.58462036 0.35797468 0.43190828 -1.4702667 1.3465524 1.1980458 0.049537137 -0.19814368 -0.61816704 0.24247228 0.3873876 -1.6063987 -1.0078362 0.24173455 -0.9171715 1.8741072 -0.024633931 -0.29930213 0.62729716 0.056274723 -0.48948017 -0.42254692 -0.47316322 0.12465767 0.09913088 -0.72418714 -0.79199064 -0.28854 -1.1307445 0.5058349 1.6848235 -0.3150785 0.20684865 0.42730057 -1.2169858 0.35387704 0.5010578 -0.4143287 0.013803549 0.12218775 0.18195412 0.08406402 -0.24324535 -0.49927276 0.23246497 -0.1348264 0.100543894 0.5718616 -1.2579659 -0.42762688 -0.67237693 -0.6918976 0.6616957 -0.5636005 -0.38594902 0.278382 -0.079248235 -0.42954254
TWMET_00069 -1.1560516 -0.25060487 0.12551677 1.410154 -1.090066 0.40552452 -0.15201545 -0.48489633 0.915768 -0.38048804 -0.73875403 -0.21579564 0.5973584 -0.7921102 0.826495 0.67765516 0.4405198 -1.1115181 0.37201393 0.28542817 0.4034378 -0.35965738 0.5400384 -0.7536424 -0.032341182 0.037368085 -0.47344965 0.6939542 -0.69367987 0.23621994 0.56801194 -0.036761105 -0.7253506 1.2049923 0.905512 1.0092472 -1.0150884 0.82498527 -0.39152595 -0.46766922 -0.37350842 -1.3146068 -0.17985527 -1.6003294 -0.2789398 -1.0173334 -0.8393467 -1.1076666 -1.1782897 -0.30681658 -0.59475404 0.08538561 -0.26702014 -0.6283151 0.022380758 0.7929707 -0.4053056 -0.35574085 0.62457305 1.5350261 0.18149365 0.05853943 -0.548155 -0.6415135 -0.5013967 -0.2749959 0.35550544 0.5499159 0.12821032 -0.4461365 -1.0747802 0.7693071 0.6511051 -0.60422254 -1.2252158 0.24623963 -1.5132757 -0.26530942 -0.02940644 0.3433213 0.10313321 -0.99041635 0.09963433 -0.5843629 0.42725128 -0.6759569 -0.98055726 0.23104559 -0.82712454 0.12494719 0.28832453 -0.424949 0.20498574 -0.13389914 0.53461295 0.1337147 1.7835541 -1.7068521 -0.37767133 -0.49845573
TWMET_00178 0.1833256 0.7542959 -1.1025274 0.006195292 0.3703354 0.14362666 0.60829437 0.5378771 -0.58380663 0.44102997 1.4209914 0.17306909 0.30201417 -1.1202027 0.61704373 0.21029216 1.1755317 0.07338385 0.7946055 -0.28187484 -0.53663844 -0.6915782 0.3117184 0.15810694 -0.13265488 -0.75398743 -0.18982829 0.27181423 -0.6854121 -0.84642684 -0.05587511 -0.23303562 0.50714314 0.15064254 -1.2287884 -1.1287596 0.7581402 0.28426465 0.0047431733 -0.13760157 -0.4773986 -0.51283365 0.21133202 -0.60296065 -0.34036556 -0.71383554 -0.40246034 0.5747186 -0.57036066 0.1997314 -0.12173715 0.3341791 -0.8215375 -0.26620087 0.043276668 0.11116763 -0.37244597 -0.660971 1.2302306 0.41169834 -1.0513108 0.8641433 -0.22200519 0.109351546 -0.20387611 -1.3058959 -1.0183657 -0.07509672 -0.40841213 0.28179967 -0.62430525 0.035988208 0.36519226 0.26915345 0.6000579 0.2752918 0.16010658 1.1984619 1.1259902 -0.341095 -0.72857344 0.91628456 -0.20326146 -0.731004 0.44140166 -0.13333349 -0.77745956 -0.3673176 0.57252157 -0.26882404 0.36013848 1.1336116 0.051087506 -0.59956 -0.19219284 -0.63142115 -0.6109515 -0.20293346 -0.46902114 -0.014876396
TWMET_00019 1.2742684 -0.44403598 -0.06011479 -0.30050734 0.45341852 0.20694374 -0.23126529 0.825453 -1.5786537 0.53647554 1.2506444 1.2901331 -0.3097794 -0.44270852 0.88761556 -0.48948532 -1.1828072 -0.3150194 0.74498105 0.5212759 0.17204839 -0.05574862 -0.061172757 -1.2096709 0.7148544 0.4791435 -0.06690224 -0.117228486 1.1136526 -0.21381819 0.5273798 -1.5205212 -1.4472384 -0.56574684 -0.6846733 -0.6745742 -0.65764064 0.67756015 0.3758338 0.10156842 0.08307353 0.6733041 0.55386704 -0.7121262 -0.086300075 0.22918786 -0.4893381 -0.07762385 0.20034178 1.072836 1.1218885 -0.44376418 0.62697506 0.25456947 -0.45999336 0.53212327 -0.05484497 -0.33315712 -0.789331 0.64210063 -0.21508098 -0.18207614 0.13005151 0.30809566 -0.29826826 -0.8063031 0.13651371 -1.2023367 -0.37279058 -0.89552 -0.38305983 -0.32222366 -0.8272402 0.5845161 -0.5902201 -0.45970726 -0.009782413 0.8210686 -1.0345166 -0.24628401 0.47167218 0.20197108 0.46811938 -0.69846404 -0.87849545 -0.95467496 -0.8698653 -0.29091558 0.7343729 0.28437826 1.139431 -0.28607082 -0.020161498 -0.63406914 0.49425083 0.18405381 0.28710565 -0.66689 -0.879828 -1.0533893
TWMET_00076 0.38031253 0.58152544 -1.2319078 0.071679115 0.29927495 0.31739295 0.8024083 0.59670854 -0.65228873 0.2861294 1.2357012 0.041655473 0.36189836 -1.2109983 0.5315334 0.02508995 1.1783824 0.1672074 0.85356444 -0.19353448 -0.6225531 -0.7699965 0.3034713 -0.054398384 0.08707888 -0.83847725 -0.12086405 0.18354411 -0.7206457 -0.8906464 -0.22707978 -0.036808383 0.5107812 0.20600632 -1.0709343 -1.2672688 0.58039933 0.29884058 0.049734607 -0.2936708 -0.62514275 -0.43114457 0.3549107 -0.6241772 -0.19345854 -0.64793545 -0.35422665 0.54308814 -0.4820936 0.13960974 0.17446633 0.39699018 -0.9175323 0.23702069 0.13016503 -0.118903 -0.14635053 -0.83216274 1.0241522 0.44382128 -1.1209468 0.9624453 -0.16536143 0.13242704 -0.106461495 -1.307256 -1.1726418 -0.041197896 -0.35984194 0.2546362 -0.50031567 -0.08089187 0.27140987 0.32103196 0.54094225 0.18438804 0.30339164 1.2659049 0.94064647 -0.21533729 -0.8740666 0.951081 -0.1682437 -0.71645796 0.39032358 -0.27231538 -0.76702404 -0.47018498 0.59480304 -0.334488 0.43170157 1.2342556 -0.0012778093 -0.63602144 -0.091494076 -0.51440173 -0.61169845 -0.26711386 -0.42073116 -0.0011035323
TWMET_00003 -0.3407317 0.9320424 -0.46427402 -0.9291318 0.39109963 0.3403106 -0.8432647 -0.09332553 0.04524505 0.30326146 -0.2959422 0.80298257 0.31993288 0.38473982 1.1013896 0.38513416 0.6418164 1.031341 -0.41751462 -0.56293714 -0.2090237 1.055335 0.21091191 0.3467576 -0.41454622 -0.7090781 0.3304646 -0.089299925 1.7943072 0.5056678 1.145022 -1.5517285 0.11770684 -0.6186373 -0.82798487 0.67554885 -0.601138 -0.5661078 0.12629548 0.3268113 -0.093267106 0.6206584 -1.1684004 0.62179524 0.43952292 -0.758512 0.046702143 0.07579202 0.078905344 0.8113467 -0.77194655 0.45825917 0.46267208 -1.171071 -0.67740655 0.2697727 -0.7473629 0.9215075 -0.047736503 -0.19541293 0.40451854 -0.80800706 -0.33944353 -0.43211278 -1.5314213 -0.22237405 0.4766225 -0.25884864 -0.14086689 0.1371771 -1.1777046 1.0134393 1.181282 -0.66693133 1.138791 0.015709262 -0.7825936 0.7468449 -0.07154666 -1.4540031 -0.06477848 -0.21623448 -0.22473583 0.25610772 0.012348795 -0.7039791 -0.049965266 -0.1794293 0.15912221 -0.47116306 -0.1807935 0.8163329 0.04627863 -0.38198695 -0.505511 -0.47370535 -0.4170782 -0.004825938 -0.8941584 -0.6458593
TWMET_00254 0.0056261653 0.64425486 -1.3326688 0.22379878 0.3029636 0.15564573 0.71632683 0.5786642 -0.63311255 0.2344306 1.1281836 0.1331496 0.65856576 -1.2806525 0.68475646 0.028999526 1.2644724 -0.09058794 1.0814819 -0.06329672 -0.6556107 -0.7052253 0.23585638 -0.034612358 0.03867486 -0.8125454 -0.32623324 0.19498086 -0.7489302 -1.1402432 -0.35049218 -0.019679295 0.5958994 0.46473336 -0.8983592 -1.1673783 0.7167527 0.3650177 -0.07118149 -0.10601381 -0.5040187 -0.49043015 0.20648302 -0.7621961 -0.39261398 -0.5635999 -0.49523473 0.25755122 -0.6006947 0.11321539 0.1729352 0.30530167 -0.79466325 0.13980106 -0.0062191626 0.06402934 -0.1694982 -0.7739942 1.2534018 0.55661964 -0.8942765 1.0274162 -0.21125585 0.113915235 -0.08747906 -1.257736 -1.1277745 0.071673006 -0.24634093 0.119530134 -0.6010418 0.011813093 0.34922522 0.10460346 0.23844774 0.011359904 0.07015403 1.1235675 1.0101953 -0.49745804 -0.92333186 0.6895021 -0.19133766 -0.708746 0.59473276 -0.14457005 -0.83856934 -0.5786131 0.3463013 -0.47407144 0.32952693 1.1785761 0.079141416 -0.79000413 -0.054781403 -0.6381991 -0.1801401 -0.40468967 -0.48864132 0.23222086
TWMET_00008 1.4486383 -0.27620137 -0.044426333 -0.3130667 0.51712227 0.1826276 -0.24709618 0.9268621 -1.7017823 0.47122094 1.5224665 1.3387533 -0.3231075 -0.5624486 0.98574257 -0.6196788 -1.1033707 -0.4121222 0.80609775 0.5439408 0.19160779 -0.10053142 -0.01669931 -1.3792951 0.884251 0.47870794 -0.026926944 -0.09091268 1.0113446 -0.35660228 0.266625 -1.4894972 -1.2092092 -0.45180786 -0.7740304 -0.8298756 -0.5689362 0.80913854 0.48245892 0.19856393 0.13959327 0.5735496 0.5330669 -0.7625699 -0.12303569 0.2510962 -0.6519429 -0.04871766 0.30647558 1.2415408 1.1028297 -0.44276944 0.6655888 0.22609477 -0.5211046 0.7124065 0.013437068 -0.28578383 -0.74795276 0.57499313 -0.27692845 -0.14115877 -0.0061403494 0.36051208 -0.29368642 -0.92744815 -0.08072291 -1.1532036 -0.46719292 -0.9656099 -0.42222494 -0.3287124 -0.86828834 0.60525846 -0.66686726 -0.6039743 0.01584729 0.81767625 -0.9947848 -0.05485759 0.32055816 0.18880671 0.497639 -0.913757 -0.94742405 -1.1056746 -0.72470653 -0.38690245 0.7646005 0.1886289 1.2608638 -0.26107246 -0.28048196 -0.75511676 0.7605148 0.17722082 0.44752717 -0.78280634 -0.80036724 -1.0289574
TWMET_00002 -0.6823763 0.9058381 -0.462097 -0.86081207 0.24735235 -0.018728375 -0.37300968 0.1266266 -0.20387523 0.14327551 -0.51159424 0.310618 0.39976206 0.36958846 1.128248 0.365802 0.8357098 0.77799565 -0.21960582 -0.6160887 -0.40700567 1.192055 0.44962865 0.12777095 -0.58316743 -0.9174721 -0.049950067 -0.052629225 1.0528635 0.5610895 1.1347666 -1.1072112 0.24465612 -0.25986716 -0.7104651 0.53483206 -0.07484187 -0.5425466 0.06548213 0.46512717 -0.12950958 0.6039066 -0.9711661 0.73198307 0.35114253 -0.776061 -0.124446034 0.077262595 -0.07889308 0.6221857 -0.61314386 0.51509774 0.32380447 -1.1505619 -0.82150596 0.020703992 -0.88088953 1.0227638 0.26429152 -0.19678292 0.52263314 -0.47994232 0.04330513 -0.22076617 -0.90640694 0.035793655 0.29999688 -0.1361027 -0.41545305 0.15911861 -1.0359621 0.91724443 1.297591 -0.5991852 0.7827262 0.19701566 -0.94121027 0.7285276 0.2737251 -1.3350824 -0.0103271585 0.05866684 -0.11237165 0.2712539 0.21556407 -0.337229 -0.05562414 -0.087213725 0.09096564 -0.23439191 -0.51788014 0.20898077 -0.31308687 -0.47958124 -0.2000191 -0.6789239 -0.14650847 0.05820725 -0.38485953 -0.2241913
TWMET_00081 -0.34865928 -0.74674666 -1.1484829 0.74710584 0.18309966 0.02449717 0.2410912 1.093099 0.030065984 -0.294811 -1.2898227 -0.14719562 -0.17973562 -0.29356968 0.27756017 -1.0322275 -0.091710925 -0.15978427 0.747305 -0.75523245 0.6786433 0.83376896 -0.55297965 -1.2385126 0.3238256 -0.39484802 0.48071352 -1.447424 0.7873191 0.2659832 1.0331028 -0.2198768 -0.48622456 0.01670861 0.47300267 -0.9825401 -0.38402176 0.757268 0.48862693 -0.046687026 0.15439408 -0.43690148 -0.23485687 -1.0655879 0.0031397303 -0.2704613 0.75206643 -0.8897228 0.12566182 0.63362813 0.68651575 0.98718387 -0.83194685 -0.6951711 0.4254828 -1.0662365 -0.007488844 -0.8372337 -0.091552414 0.77728105 0.21708119 -0.6121894 0.26984367 -0.45003632 1.0269307 -0.73214394 -1.4333961 -0.04627699 -0.39950976 0.5426764 -0.44744417 -0.11518728 0.5301477 0.5492359 -0.5717646 0.72158146 -0.500206 0.275261 0.40794381 0.69836247 -0.7121598 0.16169475 -0.08717388 -0.67581135 -0.9294494 -0.14641076 0.41790494 -1.0380408 -1.3710816 0.34202167 -0.073016785 0.22238614 0.536691 1.0394188 -0.22508772 0.5252684 0.76724935 -0.46442103 -0.27212536 -0.07683817
TWMET_00485 -0.41205347 -0.7654636 -1.1654804 0.73073745 0.18178317 -0.10845347 0.24759004 1.1219809 0.05209775 -0.3684782 -1.2618337 -0.193131 -0.16822796 -0.2712348 0.29963878 -1.0362029 0.0055437027 -0.13497967 0.76028293 -0.67325324 0.60631937 0.7594849 -0.5732041 -1.1357319 0.33567646 -0.35853618 0.43951452 -1.2949966 0.7144566 0.16639537 0.9083023 -0.11007311 -0.4574358 0.11802573 0.5072789 -1.0032673 -0.3052227 0.7949209 0.39509055 -0.0020749317 0.13500017 -0.56883144 -0.19284339 -1.0680395 -0.1065346 -0.26323527 0.7541766 -0.86618775 0.060303267 0.5421268 0.71825933 0.93347704 -0.90679985 -0.66452307 0.44124717 -1.0529126 -0.012895091 -0.83186245 -0.032515366 0.83319634 0.22410183 -0.5022956 0.3402684 -0.47804046 1.0989088 -0.724543 -1.4327593 -0.036498886 -0.31529927 0.4713457 -0.46148896 -0.2308081 0.690498 0.5504183 -0.64504105 0.6160179 -0.5269022 0.27454862 0.43689695 0.6811065 -0.74444354 0.118560866 -0.095995106 -0.6426625 -0.86275434 -0.07754437 0.4354774 -1.0827698 -1.349445 0.26049894 -0.099881746 0.27502298 0.5192403 0.93872124 -0.30920967 0.44637623 0.75518495 -0.41660646 -0.1968782 -0.04543625
TWMET_00144 0.0657472 0.33266902 -0.011732251 -0.6588591 0.38854566 0.13282974 -0.18117754 -0.15512644 0.38217372 -0.3397576 0.49562275 0.5889671 -0.11895137 0.022062605 2.1169207 -0.043678112 -0.296034 0.070503764 -0.36310118 -0.77390265 0.5049974 0.83821756 -0.57400477 0.3624269 -0.5753923 -0.47185403 0.27987802 0.080687694 0.19183397 0.37135035 1.5818715 -0.8602143 0.13568942 0.036141057 -0.9169241 0.14501199 0.4146625 -0.283972 -0.40398946 1.1706848 -0.5582838 0.60094565 -0.42844594 0.0945708 0.11416468 -1.479417 1.5605402 1.2601604 0.20377982 -0.59442854 -0.70768327 -0.16734633 0.57936364 -1.5574074 -0.79142165 0.91407794 -1.1021705 2.000012 0.21081488 0.001265673 0.24652742 -0.17836145 -0.8758456 -0.44411066 -0.5995431 -0.28581452 0.2318427 -0.77376676 -0.7083634 -0.5478531 -1.1407921 0.49794033 1.6731098 -0.33029506 0.4440584 0.03783589 -1.2505864 0.17943001 0.48443884 -0.09130731 -0.24647653 0.12620279 0.20493688 -0.028315231 -0.49196118 -0.62968785 0.15892532 -0.0940228 -0.2083357 0.46173134 -1.255984 -0.05446831 -0.24023326 -0.767633 0.5350011 -0.53048074 -0.11718782 0.34495354 -0.49438784 -0.7296654
TWMET_00079 0.3017636 0.7080158 -1.0156862 0.088515624 0.41131282 0.28659382 0.70083463 0.4928088 -0.5087556 0.44169235 1.3338257 0.17060862 0.36354375 -1.1807485 0.4701192 0.056985054 1.1355352 0.0019489889 0.81516707 -0.22352767 -0.52565616 -0.7670951 0.26735723 -0.027755558 -0.017726906 -0.70287627 -0.21161838 0.1734047 -0.81615573 -0.977061 -0.21635133 -0.14090464 0.5071421 0.19106984 -1.1455575 -1.240589 0.7764628 0.31567448 -0.02366415 -0.23298481 -0.50352556 -0.37671182 0.24173208 -0.79736257 -0.27133015 -0.5666335 -0.55453587 0.47901323 -0.50995636 0.2723354 0.009450216 0.24525149 -0.7559569 -0.06966285 0.15694483 0.1029226 -0.1070814 -0.8319426 1.1069733 0.41878012 -1.0970756 0.86106765 -0.22392128 0.098685965 -0.15210305 -1.3110005 -1.0750915 -0.0024705294 -0.40363708 0.19471003 -0.5267206 0.10417694 0.12544163 0.26936927 0.40666366 0.15505287 0.32171807 1.0640004 1.047562 -0.2741775 -0.834497 0.9532369 -0.11562368 -0.6743979 0.46852243 -0.1159171 -0.7300821 -0.4076357 0.47401363 -0.31966606 0.46313414 0.9845918 0.08921297 -0.539455 -0.13203737 -0.5188126 -0.48319918 -0.15835163 -0.4237782 0.15890418
TWMET_00026 1.3767378 -0.21075504 -0.1721071 -0.25117955 0.48999923 0.20694667 -0.20033707 0.9048412 -1.5224861 0.5061093 1.3008568 1.1464696 -0.15293065 -0.43655646 0.9065347 -0.5093035 -1.0173738 -0.19437385 0.8268916 0.47836325 0.057846837 -0.17378812 0.020894786 -1.2034509 0.7400214 0.44786283 0.052887905 -0.0110335145 1.2073731 -0.30844146 0.2810399 -1.4893607 -1.1143998 -0.5613123 -0.7798558 -0.8630368 -0.6583434 0.6441494 0.44778004 0.12527092 0.0022567222 0.6148383 0.46645847 -0.67506146 -0.18958996 0.15667886 -0.60377645 0.03800512 0.240761 0.94374126 1.0938985 -0.3256179 0.5510159 0.43343562 -0.5627025 0.5388064 0.03133239 -0.19953905 -0.69675636 0.694983 -0.31660622 -0.07743716 0.044854473 0.36266702 -0.41486254 -0.7649221 0.038547486 -1.2064891 -0.37039694 -0.86089617 -0.27911067 -0.3805126 -0.7022886 0.5173981 -0.43257266 -0.5831303 -0.0014367794 0.8649811 -1.0632735 -0.05630761 0.41683567 0.24997003 0.39000052 -0.6662324 -0.78408253 -1.075026 -0.6938631 -0.46176654 0.836189 0.10273131 1.1439526 -0.065516286 -0.2333763 -0.732524 0.5074775 0.1625316 0.12638888 -0.50521636 -0.8224077 -0.9730813
TWMET_00386 0.26646194 -0.0432587 0.050321877 -0.3936535 -0.23234999 0.48373348 0.051759504 -0.06529713 0.76129305 -0.3005471 0.73729247 0.15131824 -0.538825 -0.36367974 2.003765 -0.4302375 0.19725986 -0.3593701 -0.32937697 -0.48164302 1.1657258 0.42815036 -0.45726898 0.62486386 -0.92284244 -0.05076696 0.33755317 0.5680718 -0.26511207 -0.05094325 1.5142405 -0.43029776 -0.48263463 0.32209522 -0.2254221 0.38101247 0.014097232 0.36934325 -0.3345248 0.81339973 -0.8825175 -0.07590293 -0.10861846 -0.40375906 0.3998196 -1.6303732 1.7052826 0.97522336 -0.17591433 -0.6444821 -0.47629863 -0.27515754 0.51844853 -1.6489304 -0.1616094 0.1689211 -1.1191533 1.5672148 0.478061 0.056626063 0.3573063 0.1303524 -1.2070278 -0.7011034 -0.49821422 -0.2540403 -0.22050048 -0.54654795 -0.40834138 -0.32408115 -1.2750494 0.040545125 1.7696269 -0.5265343 -0.037226766 -0.10145742 -1.5052907 -0.47947782 0.66471773 -0.14368273 -0.40413514 -0.22869314 -0.20514108 -0.10528828 -0.40281594 -0.7109468 0.064909585 -0.3646845 -0.40818444 0.62932646 -0.9900501 -0.040739287 0.48240346 -0.6453442 0.6670347 -0.4615439 -0.27056903 -0.25725445 -0.60750276 -1.0883954
TWMET_00034 0.14185773 0.922214 -0.4430245 0.9507525 0.03450447 0.48519936 -0.020379039 -0.1661898 -0.6016409 1.3131557 -1.2586157 -0.6194522 0.7050412 -0.40781063 0.0013086004 -1.43893 -0.60942096 -0.12501886 0.7509895 -0.5184633 -0.32495007 0.9708458 -1.8505558 0.3676649 -0.49221632 -0.9370078 0.30403206 -0.63038635 1.3062934 -1.3283036 0.44949555 0.24774899 0.4673075 0.66531724 -0.16090468 -0.9556929 0.748378 -1.0453392 0.8332225 -1.2567331 -0.15751334 1.0660337 -1.1046627 0.17637348 -0.42810464 0.6308285 1.1422322 0.394573 1.2911823 -0.3916844 0.4227142 0.21569002 0.58291984 0.4914371 -0.2925115 -1.6078713 0.9241007 0.12903515 -0.13963869 -0.3206645 0.15434343 0.004232958 -0.19631709 -0.22733985 0.08136619 0.84423286 -0.3650632 -0.31010193 -0.31592283 0.2977802 -0.4637443 0.8520399 -1.1048474 -0.5994968 0.59352887 -0.3586669 0.64455575 -0.25649184 0.18112177 0.88695616 -0.7078485 0.14613587 -0.86012655 0.24131463 0.33095422 0.58179224 0.1732107 -1.1487534 -0.6235443 0.7454941 -0.977502 -0.024794199 0.1067923 0.5382323 0.09015788 0.21523553 0.18907154 0.0014758941 -0.12448234 0.91640073
TWMET_00041 0.48369414 -0.28768915 0.85708046 0.65708035 -0.40824777 1.485394 0.88312244 0.07615924 -0.65025324 1.1830834 -0.7865832 -0.67884344 0.3208596 -0.9263513 -0.58413917 0.11148021 -1.0535522 0.61510503 -0.11243843 -1.0819111 1.3393025 0.46731964 -0.8704906 0.22353287 -0.56663346 -0.8713861 0.17322019 0.20957527 -0.60208553 0.24202958 1.1103195 -0.33960783 -0.26020434 0.37213928 -0.46877125 0.7934053 -0.14321978 -0.010356886 1.3090806 -1.1265352 -0.14200214 1.0715395 0.102435015 -0.1862648 -0.3708972 -0.06812953 -0.16199249 0.4054996 0.14102638 0.39669678 -0.69201076 0.7858603 0.5526847 -0.116797425 -0.2199996 -0.734626 0.73909134 -0.59299743 0.20105784 -0.02820526 -0.40844 -0.1370235 0.45874748 -0.15642428 0.7009008 0.17414466 -0.3706982 -0.8488666 -0.12281694 1.1685841 -0.80542403 0.03436439 -0.4040434 -0.60166055 0.89872247 0.90511197 0.63509905 0.6802857 -0.06321167 0.43898794 -0.23504315 0.39753702 -1.4137381 -0.43604234 0.028539438 0.97661704 -1.044741 0.5386482 -0.095671736 1.1385734 -0.6217654 -1.0198114 -0.75920665 0.80822384 -0.062774636 0.5056447 0.17419481 -1.4241083 0.27532002 -0.19433251
TWMET_00090 0.5841765 -0.30776814 1.0424879 0.5151367 -0.27068987 1.3848566 0.96240824 0.081444904 -0.5382935 1.1966437 -0.65510064 -0.5795088 0.10371302 -0.97114396 -0.5982178 0.13926436 -1.0546237 0.6231778 -0.22064899 -1.1472124 1.4635309 0.45843863 -0.8234012 0.2686095 -0.6070937 -0.7279711 0.16507927 0.19737348 -0.90601075 0.3864045 0.9783641 -0.48288682 -0.35821465 0.22349147 -0.58283466 0.70187664 -0.038529042 0.08146169 1.241316 -0.9930943 0.034046397 0.9651675 0.21207957 -0.29687032 -0.3779132 -0.08597964 -0.24320644 0.4755367 0.08265307 0.5155378 -0.7473751 0.74584395 0.5580665 -0.32710034 -0.17456867 -0.6118553 0.71949065 -0.6687878 0.12602139 -0.104776554 -0.43224582 -0.116692334 0.40847865 -0.26586244 0.8249262 0.015614157 -0.4167603 -0.84368443 -0.10055632 1.129626 -0.8720117 -0.26691815 -0.29982448 -0.3076793 0.8335246 0.8852116 0.6798471 0.6401091 0.090357006 0.35741007 -0.22922693 0.38176924 -1.449434 -0.48158297 -0.09009793 1.0528195 -0.911118 0.6159906 -0.011992024 1.0769503 -0.626439 -1.1371163 -0.7720156 0.6918663 -0.11682574 0.4633887 0.063836396 -1.4444482 0.33712322 -0.23032181
TWMET_00804 1.1538895 -0.795454 -0.7453805 0.9876364 -0.8402349 0.8469717 0.49225834 -0.08331089 -0.20643213 -0.5355115 -1.0438703 -0.4298771 0.471179 0.14735128 -0.17145148 -0.46892118 -0.9956255 0.1656949 0.26999277 -0.08428101 0.23515578 -0.5141126 -0.42066467 -0.9537562 0.7406999 -0.62804836 0.07011615 -1.1716242 0.78095156 0.14543363 0.026834989 0.2222225 0.5353186 0.34213647 0.91909724 0.07442718 -0.4654267 -0.27664402 0.42878863 -0.1527054 -0.75201344 1.2776098 -0.007920088 -0.095435254 0.8780989 -0.24441974 1.045316 0.47048607 0.8349937 -0.4286329 1.1816881 0.44672316 0.17588829 1.4049236 -0.11062224 -0.6499367 1.0823269 0.02040142 -1.3248433 -0.049212378 -0.59214807 0.16031827 0.15581101 0.67192006 0.20685133 0.58138233 -0.2441282 -0.21935762 -0.76565003 0.17804854 0.77099407 0.3728643 -0.38121834 -0.3660231 0.19681154 0.4163376 0.09091345 -0.19793035 -1.5046976 1.1225051 -0.056440596 0.30472147 0.24760643 0.8685723 -0.96161354 -0.88555926 0.011608411 -0.4886807 -1.175219 0.42131224 0.3944413 0.3520063 -0.21589711 1.0655417 1.3348504 0.8344684 -0.12915806 0.2538128 0.034503307 0.3135184
TWMET_00550 -0.062979326 0.979296 -0.41852808 -1.0256203 0.48592845 0.256392 -0.83073604 -0.035088163 0.071045466 0.2585307 0.17873201 0.8151875 -0.27450526 0.30955464 1.0564214 0.14967182 0.58206666 0.9205229 -0.50392157 -0.979016 0.11452518 1.2437141 0.253524 0.19346513 -0.383924 -0.54740876 0.6311851 -0.2331555 1.5027639 0.76431924 1.3833066 -1.3391719 0.095971964 -0.7973762 -1.1543198 0.27372602 -0.2918203 -0.29051366 0.14293556 0.47430548 -0.06587872 0.5063822 -0.9938026 0.58079755 0.66444254 -0.89127487 0.5256633 0.41226825 0.27592418 1.001087 -0.8254229 0.6809077 0.32971382 -1.6529856 -0.5571783 0.22468217 -0.96481514 1.08863 0.061096713 -0.45934126 0.24510881 -0.9984105 -0.64034337 -0.4536195 -1.252384 -0.55024856 0.09086482 -0.14882554 -0.44316876 0.30988398 -1.3029103 1.0374776 1.0591893 -0.30083096 1.2804121 0.2143409 -0.59500325 0.6738758 0.3938281 -1.0289707 -0.28491932 0.1443186 -0.11743207 -0.11472504 -0.5412109 -0.7345818 0.18952273 -0.18879406 0.011668656 -0.12879834 -0.1888019 0.76527435 0.09988875 -0.067681685 -0.46144745 -0.30237243 -0.5324712 0.15314247 -0.78519493 -0.82821876
TWMET_00564 0.0076397085 0.4580951 0.020337341 0.60990375 -0.07585446 -0.12263265 0.31324613 0.023827551 0.36985964 1.4284326 -0.9609104 -0.24406607 -0.47938326 -0.35867083 -0.6377338 0.40921164 -1.3013797 0.25574213 -0.29349 -0.10081843 0.67330116 -0.32111847 -1.714544 1.1275506 -0.12447759 -0.39868507 -0.6479305 -0.20513615 0.108823724 0.0604994 -0.08696736 -1.1420681 0.32291245 0.6749687 -0.28322646 0.5738956 0.030235495 -0.85535765 0.7985223 -0.9106021 0.8523183 -0.27954572 -0.7790883 -0.3704194 -1.4300537 0.013680542 0.76559544 0.93147045 0.0699246 0.12121456 -0.9536339 0.61005914 0.38683426 -0.7664331 -0.09727601 -0.29722816 0.7565384 -1.0845275 -0.80906326 0.0074639767 -0.94473463 0.5277977 0.27458525 -0.23058428 0.45004058 0.03753465 0.23771575 -0.91193575 -0.8756487 0.47056124 -0.68352455 -0.69212675 0.70371133 0.8217528 0.85986274 1.1461664 0.29024827 0.40375924 -0.31590953 0.9411069 -0.44009918 -0.6335086 -1.089683 -0.4528263 -0.37359893 0.73755664 -0.3904919 -0.06831168 -0.57022005 0.16080745 0.1986924 0.26876137 -0.7240817 0.5295344 -0.17146213 -0.36188394 -0.8513294 -1.149527 0.17945859 0.23099566
TWMET_01235 0.08406791 0.332181 0.065878816 0.5613871 -0.046834398 -0.17959763 0.44253334 0.012373255 0.36913967 1.3943017 -0.84176856 -0.28040206 -0.4359975 -0.3036907 -0.6028447 0.39241958 -1.3827336 0.2627646 -0.32428733 -0.009810849 0.6953155 -0.49437457 -1.728439 1.1379098 -0.082091294 -0.3697827 -0.6233443 -0.06779794 0.032422096 0.08196997 -0.10616507 -1.0201977 0.28250936 0.6755116 -0.36833936 0.49699253 0.009984288 -0.80799717 0.70074105 -0.82775044 0.8976767 -0.26307753 -0.62483615 -0.4557595 -1.4066241 -0.007573895 0.85842067 1.015758 0.045038376 -0.03268861 -0.88317466 0.66293186 0.31156123 -0.7301723 -0.021289362 -0.2009057 0.8091521 -1.1391839 -0.83559656 0.02340921 -1.0733511 0.69050634 0.20064585 -0.22231469 0.5636469 -0.101134144 0.287949 -1.0763478 -0.85607284 0.37702933 -0.7000155 -0.8264362 0.70628846 0.95526236 0.83125335 1.1137177 0.39303857 0.5622336 -0.43531686 1.1184043 -0.39839333 -0.5896697 -1.0498812 -0.57040143 -0.48834407 0.7667715 -0.40145832 -0.061493635 -0.4773017 0.25498194 0.2326631 0.3195662 -0.72631574 0.48780596 -0.14715429 -0.2787666 -0.9002835 -1.2230924 0.1522815 0.15148255
TWMET_00012 1.0881442 -0.08088261 0.4766565 0.25831595 0.19070725 0.547907 1.0677898 -1.1444436 -0.15139584 -0.24592938 -1.5344313 -0.11943008 0.37998512 -0.45774192 0.1449127 -0.691836 -0.35536027 -0.3505939 0.17123224 -0.017688923 -0.24470203 0.28317207 -0.41176313 -0.8802903 0.5823763 -0.62340003 -0.22532904 -0.65063417 -0.7383386 0.26255465 -1.6517317 0.098874986 0.1951496 0.3085766 -0.20571211 -0.44617802 -0.16425765 -0.03536593 0.001963544 0.047845528 0.46378803 1.714568 0.24028042 -0.7267631 0.6314567 0.4591059 0.015765348 0.36561748 0.36109072 0.16819024 1.2070408 -0.41715616 1.026882 0.7033205 0.6647476 -0.013052049 1.6188846 -0.6881827 -1.4144064 -0.6218737 -0.1567792 0.15796517 -0.9290191 -0.16808607 0.85266525 -0.029394526 -0.22739686 0.019374458 -0.08807832 -0.73241913 -0.35653114 0.1593052 -0.80992305 0.27087715 -0.70105696 -1.2154399 1.3747658 -0.32276422 -0.5960541 0.84102774 -0.52034277 -0.57069385 -0.19171493 0.47819993 -0.27665594 0.15071942 0.794289 0.2617417 -0.7296025 -0.44911417 -0.11726903 -0.9907733 0.033288352 -0.5041202 1.1592737 0.65312666 0.94685185 -0.90167844 -0.16288036 0.97047645
TWMET_00020 1.4969578 -0.099425234 0.36276793 -0.04530131 0.9843232 0.5013863 1.0859064 -0.9924484 0.2657216 -0.22490369 -1.0579418 0.56553245 0.5511117 -0.3468857 0.58613235 -0.51255226 -0.4178089 -0.18566427 -0.010895691 -0.099098034 -0.5701012 0.2196713 -0.86573976 -0.9531 0.8346808 -0.75612044 -0.24731281 -0.42501536 -0.1592312 0.14600039 -1.0211835 -0.45584533 -0.27820247 -0.42768207 -1.3104528 -0.8255625 -0.0877249 -0.18806493 -0.31589097 0.7776125 0.5443602 1.3305852 -0.25399375 -0.67962676 0.574895 0.4036749 0.5206249 0.89312416 0.58375484 -0.09383618 1.0492628 -0.26268673 0.8602067 0.11001496 0.3319614 0.10799846 1.2140006 -0.16430043 -1.5572585 -0.00057465216 -0.19326444 0.05898295 -0.95133775 -0.25633082 0.5149376 -0.1520745 0.07978867 -0.37839314 -0.16015261 -1.3971556 -0.23624319 -0.06896003 -0.2664992 0.3367815 -0.76473445 -0.85387915 1.1350534 0.2511283 -0.947296 0.32789963 -0.55715364 -0.69762594 -0.12939085 0.17067666 -0.5999308 -0.3615487 1.0633522 0.0074447826 -0.1063069 -0.9072733 -0.18894188 -0.52013505 0.106871836 -1.0988963 0.44088313 0.40252593 0.3453866 -0.28276324 -0.35651365 0.7849356
TWMET_00001 0.16386889 0.44277886 -0.16186427 -0.8898718 0.52020174 0.8662708 0.12098318 0.2541693 0.38776857 0.5118279 -0.008594687 0.5419352 -0.19221301 0.07414029 0.35593614 0.03784522 1.0202336 0.15916212 -0.58605444 0.05932296 -0.2427742 0.39229074 0.07993604 0.14775586 -0.0645119 -0.29355264 -0.21453144 -0.27782252 0.17631729 -0.12685919 0.42743045 -1.0785835 0.41648138 -0.54728 -1.0884669 0.051683467 0.21436362 -0.2717021 -0.26604262 0.19376476 -0.50417525 0.28331447 -1.2647934 0.12759548 1.1776147 -0.23606059 0.2167926 0.6042728 0.23922382 1.2163268 -0.38136873 0.41520208 0.3470789 -0.4848265 -0.42433518 -0.6709342 0.34393483 0.37610728 -0.8677597 -0.5731689 0.7800593 0.3241111 -0.43030423 0.00791837 -1.149028 0.0026231604 -0.581214 0.3289626 -0.5719892 -0.26612726 -0.63002414 0.9038326 1.4567928 -0.97193646 0.24793935 0.6496132 -0.8530228 0.43709016 0.32752082 -1.8940749 -0.84470516 -0.08556485 -0.23398013 0.81732297 0.6833208 -0.40754983 0.81004006 -0.48647687 0.29980606 -0.9247749 0.064265355 0.18739156 -0.202627 -0.7582059 -0.6439095 -0.85115665 -1.3171346 0.5236883 -0.35100076 0.20427406
TWMET_00083 0.49396625 0.71247226 -0.3078128 0.9255376 0.11965187 0.66260284 0.12695959 -0.33179125 -0.57999736 1.232064 -1.2835735 -0.6477658 0.79312986 -0.43571597 0.12837541 -1.4216948 -0.64805925 -0.13634828 0.6966471 -0.52652 -0.46352056 0.9921545 -1.7718972 0.1080005 -0.37026653 -0.8796578 0.43715027 -0.6777935 1.2104851 -1.1723872 0.31514576 0.35681844 0.34644556 0.5371215 -0.072559856 -1.0706781 0.60472476 -1.0676614 0.8378425 -1.1652008 -0.27424425 1.1942796 -0.8389189 0.13627216 -0.2378197 0.60701627 1.0598725 0.45755857 1.2980173 -0.51516646 0.73845786 0.24747407 0.5713 0.8565532 -0.34586155 -1.6930127 1.0363237 0.21576548 -0.27978247 -0.45996064 0.22025122 0.03264392 -0.41863364 -0.3876726 -0.0034169727 0.784354 -0.4972879 -0.30831575 -0.17371826 0.1534131 -0.31190887 0.80215675 -1.3683316 -0.39115715 0.4191713 -0.5656967 0.90196157 -0.4565611 0.021153709 0.9730451 -0.69530547 0.017986102 -0.7848009 0.18046896 0.3613958 0.42969075 0.22751753 -1.0345274 -0.5042959 0.7666248 -1.0360276 -0.10465264 0.03297374 0.44306782 0.3344022 0.5146864 0.44212028 -0.10051696 -0.20773703 0.84159046
TWMET_00197 0.12807524 -0.8085756 0.5176911 -0.07277821 0.123784155 1.1505065 0.39308244 0.020536637 1.0337968 0.7526378 -0.44842082 0.5362021 1.8249122 -0.5347825 -0.028192906 -0.19269991 -0.66363376 -0.12002608 -0.6826862 0.22049555 1.019344 -1.3394319 -0.32063234 -0.9518852 0.92124027 0.9585547 0.61542314 -0.6064864 0.32183042 -0.25422323 0.86377704 -0.026306253 0.51292354 -0.33442178 1.5789627 0.1582476 -0.35724977 -0.671164 0.20760344 -0.20062086 0.23249811 -0.7922962 -0.004377824 -1.2939781 -0.10054455 -0.09320344 -1.1591203 -0.81440306 0.39695898 0.49670255 0.1638117 0.4736398 0.22743925 1.0389204 -0.20096432 0.18299064 0.69271594 -0.48168045 0.09175511 -0.33705038 -0.22531204 0.08396352 -1.0308199 -1.0297891 -0.9425028 -0.98147655 -0.08675733 -0.82700783 -0.16042928 -0.07660521 0.9081641 -0.6128492 -1.1693342 1.3558834 0.27691704 0.11948435 -0.10560833 -0.9095299 -0.66932476 -0.12034729 0.0032692992 0.08732785 0.5094617 -1.1255748 -0.22045994 -0.40101823 -0.067229904 -0.38527557 -0.61392194 0.9609897 0.5711039 0.6678468 -0.44798446 1.1916645 0.45678473 0.98389304 1.2788767 -0.7351654 -1.2540256 -0.68589616
TWMET_00231 0.46992916 -0.24184515 0.029986473 -0.24106517 -0.43742183 0.77401626 0.014531469 -0.049839567 0.78009087 -0.25424978 0.8869536 0.18014815 -0.501006 -0.58530515 1.8684654 -0.5635729 0.19289684 -0.3890149 -0.30590484 -0.38529667 1.4145932 0.26423678 -0.6503751 0.7412414 -0.7963973 0.10718142 0.52987105 0.8171528 -0.15490483 -0.28676313 1.2856735 -0.23180199 -0.61887133 0.3695542 0.0041251057 0.39515018 -0.30909604 0.5501695 -0.13829848 0.5316939 -0.9555251 -0.23533939 -0.04262676 -0.5708632 0.37826303 -1.4314044 1.6824131 0.88223267 -0.09238919 -0.54796803 -0.30498165 -0.23848589 0.5601582 -1.3984213 0.15500931 -0.17597868 -0.9687184 1.2155689 0.579201 -0.019833948 0.3078404 0.02745256 -1.4412943 -0.78979445 -0.44889903 -0.3387972 -0.49162203 -0.48129866 -0.22932541 -0.20213518 -1.3772318 -0.023191344 1.6078804 -0.60539305 0.01831379 -0.35740232 -1.3090825 -0.6813747 0.5418242 -0.09046376 -0.7226402 -0.38393587 -0.5188496 -0.21775311 -0.3761616 -0.6883628 0.030872993 -0.52776754 -0.50422966 0.53291476 -0.75169075 0.26419005 0.7852196 -0.5066368 0.43830207 -0.2461893 -0.13221647 -0.62939626 -0.8426677 -1.3182311
TWMET_00028 0.82226133 -1.2197632 0.38232252 -0.34903595 0.15807831 0.25178728 -0.5321604 0.054578032 -1.2881298 0.3326654 1.0113035 1.6617581 -0.79542774 -0.59383935 0.6456543 0.24675457 -1.599513 -0.48014402 0.03968833 0.44543537 0.2954938 0.31535515 -0.5970911 -0.9319068 0.5497322 0.12037099 -0.3559924 -0.54083425 0.96738774 0.26175883 1.5805033 -1.1339142 -2.3274484 -0.2803026 -0.14837614 0.78114814 -0.86915904 0.4349596 0.124510795 -0.11604212 0.22314812 0.20867778 0.59519255 -0.46042937 0.5266828 0.03781921 0.25699505 -0.35927513 -0.17581661 1.0553851 0.47993252 -0.5508752 0.37953296 -0.69811183 -0.36118606 0.5117694 -0.5461958 -0.59098065 -0.7811364 0.27006355 -0.023169322 -0.6070061 0.2934082 0.03560096 -0.29542798 -0.6389456 0.5492523 -0.74145114 -0.2900788 -0.70127714 -0.88793606 0.343699 -0.88823444 0.5058957 -0.9529736 0.6005729 -0.20835963 0.5464689 -0.9974703 -0.5567905 0.5593567 -0.27489343 0.6390216 -1.0317072 -1.1298273 -0.82832944 -1.6858957 0.5408353 0.29118308 1.0721549 0.99619985 -0.49812904 0.5281149 -0.094853185 0.57218325 0.39542446 1.2182732 -1.4470395 -0.8139397 -1.3759608
TWMET_00392 -0.22867942 0.16101271 -0.192059 -1.2295471 0.3530215 -0.6838753 0.27009308 0.20298564 0.2175727 0.45641863 -0.41455507 -0.31962714 0.24401747 0.5630716 1.5028512 -0.12632585 0.50561535 0.33173943 -0.43606526 -0.48820376 -0.5769438 1.3038403 0.41745794 -0.5062472 -0.94225395 -0.8073191 -0.26625988 -0.23945606 0.4922063 0.7061821 1.7184951 -0.43860316 0.011574375 0.24596195 -0.09538537 0.32260612 0.54839045 -0.60629565 -0.071192704 0.9398627 -0.07459713 0.25984266 -0.19164811 0.33959043 0.66579247 -1.4016001 0.49049148 0.58964086 -0.4160222 0.14118558 -0.087337755 0.9873236 -0.3139245 -1.629639 -1.0839882 -0.64410585 -0.9148416 1.161379 0.19240497 -0.76008976 0.58281463 0.35498923 0.11350273 -0.33760267 0.08256412 0.31376886 0.14339082 -0.52620655 -0.57835096 0.17423104 -0.92664224 0.18909556 1.2596232 0.648909 -0.4670304 0.55022246 -1.0898315 0.2980891 0.4246454 -0.4724632 0.58058786 0.16095953 0.28410098 -0.3473972 -0.20702843 -0.4074179 -0.11746842 -0.50094026 0.36422095 1.1587384 -0.72302926 -0.49332353 -0.8095961 -0.1870835 1.2134006 -0.025795337 0.19969963 -0.19456208 0.52013004 -0.10716004
TWMET_00071 0.18052156 -0.83933914 0.5050195 -0.18714887 0.19384165 1.0903888 0.37047884 0.06860303 0.83060545 0.7230143 -0.23370649 0.6514988 1.6332974 -0.5159379 -0.007511193 -0.16520537 -0.7982651 -0.13499336 -0.58224815 0.34753734 0.91851306 -1.3288583 -0.22199476 -0.9647098 0.9205422 1.0298295 0.54018945 -0.54763997 0.32456464 -0.24820495 0.90235555 -0.16776787 0.29170302 -0.4488474 1.4055935 0.074501164 -0.38240987 -0.5797908 0.1795003 -0.15209372 0.24543472 -0.74330914 0.111993015 -1.222091 -0.17094871 -0.074859545 -1.1103971 -0.77639025 0.35179135 0.49216586 0.21665743 0.31478912 0.22305857 1.039565 -0.23748581 0.31555843 0.5631904 -0.43439183 -0.003692821 -0.16329579 -0.19045974 0.08836758 -0.92526376 -0.9228367 -0.913771 -0.9980304 0.03180525 -0.9371211 -0.14242245 -0.20653918 0.9190369 -0.7187518 -1.2057418 1.3071382 0.2333643 0.09833622 -0.10297982 -0.73172104 -0.71206266 -0.2011254 0.17645992 0.13556635 0.6233698 -1.0922376 -0.2556494 -0.4456013 -0.13996702 -0.31085804 -0.39960083 0.90960073 0.624188 0.58909976 -0.40903273 1.00487 0.38805705 0.9126698 1.0683947 -0.64602345 -1.2756822 -0.80620944
TWMET_00077 0.67354596 0.8832419 -0.07989974 0.19034736 -0.6844709 -0.1007498 -0.22804013 -0.11454233 0.35213834 0.23105796 0.51246506 -0.07156808 0.2545614 -0.029139332 0.6080562 0.114377484 0.892313 0.9555528 -0.49709707 -1.2091872 0.38255182 -0.58590245 0.5964909 0.09047716 0.23655352 -0.3923608 0.86073685 1.0017947 0.7040569 0.07390724 0.059566297 -0.041496508 -0.01370945 -0.19888946 -0.07978565 -0.58746964 -0.30628896 -0.040981952 0.3151572 -0.6181434 -0.3685016 -0.25851098 -0.3586623 -0.6126795 0.16410747 -0.4598792 -1.2858884 0.32455367 -0.36271662 0.06747944 -0.5467761 -0.008981566 -0.26389584 -0.23976381 0.5377535 -0.3811659 -0.25285012 -0.43761557 0.81503713 -0.62710166 -1.3327684 -0.33618674 0.1077721 -0.2593425 -0.84479785 -0.33346123 -0.5570293 -0.1036879 -0.5752524 0.49359623 -1.0261792 0.3194807 0.37945202 1.2053514 0.44096065 -0.3726087 0.14222172 -0.18866774 -0.1706126 1.2399132 -0.36725104 1.1232493 -0.502118 -0.43042612 -0.10352771 -0.9915051 -0.5199866 0.059312474 0.58960027 0.62654227 0.5888538 0.9837185 -0.26331383 0.4735207 0.3079339 0.34186068 0.9703145 -0.51563036 0.21626255 -0.77160096
TWMET_00032 1.1984507 -1.1019391 -0.18204613 -0.15005347 1.1149572 0.5282775 0.29842514 -0.6209748 0.31179154 0.6073322 -0.083108015 0.77287835 0.31586623 0.14276218 0.080437705 0.5070762 -0.6903338 0.3609543 0.22148335 0.33833808 -0.2514472 -0.6377129 0.09027238 -0.7254358 0.09197245 0.68658495 0.33575112 -0.5546755 0.98316246 0.46449712 0.5350531 -1.3251406 -1.3062588 -0.96520805 -0.77858347 -0.6971752 -1.0704001 0.48374668 -0.520356 0.35162243 -0.61287266 0.7155615 0.6356989 -1.4508456 0.52042913 -0.55303144 -0.35377586 0.3597381 -0.95633054 -0.1861457 0.8264469 -0.015985386 -0.5046358 0.50156176 -0.036566906 -0.36389878 0.80609256 -0.94502926 -1.148309 0.6305947 0.1856767 0.44850597 -0.3078505 -0.45771593 -0.8900163 -0.52326506 0.10925098 -1.0485588 0.5885898 -0.9115686 -0.27692673 -0.342858 0.1511908 0.39484575 -0.9232583 0.026466917 0.25494036 0.37317467 -1.1689147 -0.23715903 0.659382 0.20353438 0.1753834 0.31710774 0.35331562 -0.43323833 -0.26001683 0.117216885 0.8561062 0.090226494 0.22690742 0.07279487 0.4193397 -0.45164523 -0.5212889 0.91139853 -0.10316585 0.014144496 -0.901851 -0.3932792
TWMET_00063 1.2341552 -1.1225784 -0.06969947 0.2133021 1.0397457 0.6564529 0.4207886 -0.9095232 0.51639354 0.60783845 -0.21209204 0.67815745 0.44513544 0.2033557 0.08485695 0.5327226 -0.6768419 0.12054624 0.42633453 0.2758006 -0.4050493 -0.6847322 -0.036760613 -0.6477276 -0.07163925 0.4145593 0.2622289 -0.47882771 0.8696909 0.49334928 0.40339455 -1.0612938 -1.320829 -0.9865164 -0.99078476 -0.7194883 -1.0075357 0.43770623 -0.6851851 0.32196653 -0.57684666 0.8572212 0.56303394 -1.6252494 0.7124265 -0.47866097 -0.17742127 0.46774676 -0.95044494 -0.5398086 0.88121957 0.17312577 -0.54048175 0.42824128 0.13322712 -0.46548918 1.0530434 -1.100498 -1.1877203 0.75437057 0.05327092 0.6934123 -0.5905241 -0.19432451 -0.80297893 -0.37806153 0.24783295 -0.9336605 0.75327855 -0.8560094 -0.34872976 0.060302734 0.1460137 0.30596623 -1.067316 0.0841715 0.4287712 0.46429518 -1.2758164 -0.06343114 0.6161045 0.11298578 -0.13031727 0.4704984 0.4969114 -0.20935254 -0.21577024 0.10128494 0.92378473 0.120236345 0.19151473 0.019380234 0.7522601 -0.43993098 -0.5285157 1.1615996 -0.065215535 -0.21340156 -0.93440115 -0.006977275
TWMET_00104 -0.025695298 1.1252351 -0.34417737 0.65083176 -0.042906653 0.52237517 -0.073379464 -0.049227018 -0.37030244 1.4932411 -0.8560366 -0.4267986 0.38180938 -0.42378947 0.07188618 -0.8418913 -0.6692227 0.19988766 0.38588044 -0.6120034 0.03807713 0.72795075 -1.7433761 1.0217779 -0.6914935 -0.8820549 0.021324445 -0.31246963 1.200232 -1.3360515 0.56975496 -0.32697704 0.6646566 0.61371905 -0.09387674 -0.2832739 0.82056314 -1.1348608 1.0597979 -1.1812657 -0.20577571 0.7758747 -1.331044 0.41389525 -0.76047385 0.3577587 1.0834886 0.697604 1.0175195 -0.17737441 -0.2578912 0.13761401 0.730604 0.024162538 -0.51148254 -1.2903123 0.6205871 0.2925943 -0.01448526 -0.3891029 0.0699959 0.008032302 0.009520654 -0.23058136 -0.2520279 0.93647194 -0.2951058 -0.5206547 -0.45308653 0.6302889 -0.57155305 0.39598116 -0.3428525 -0.63043016 0.9202625 0.028097373 0.3540718 -0.45946348 0.25193363 0.26744092 -0.6987865 0.00902971 -1.0875577 0.3797064 0.4559246 0.6668592 -0.12636955 -0.8678484 -0.4877807 0.5654782 -0.8949507 0.23403509 -0.27639064 0.52732474 -0.025891496 -0.19327101 -0.39054334 0.02370611 -0.002250406 0.5470368
TWMET_00033 0.73961204 -1.1990184 0.29839486 -0.2558908 0.16525796 0.32659948 -0.49368995 -0.1439895 -1.0075862 0.3610609 0.6366263 1.4875202 -0.6498259 -0.45569193 0.40964204 0.39348695 -1.4239914 -0.30540225 -0.08909476 0.3783794 0.17635235 0.24501114 -0.55160105 -0.7808399 0.42007232 0.08868741 -0.3046554 -0.6654635 0.9929734 0.3778783 1.4880788 -1.0258294 -2.1119044 -0.36129078 0.0069560204 0.8555057 -0.8749132 0.23167625 0.093106076 -0.17205036 0.13843451 0.2003837 0.55019575 -0.3731605 0.6028944 0.021944182 0.1896936 -0.4431745 -0.21163416 0.92679155 0.4633764 -0.45851606 0.23387729 -0.5610896 -0.26359615 0.3155096 -0.41554612 -0.6863128 -0.7693507 0.15322615 0.034523383 -0.596546 0.30523613 -0.053265832 -0.4034331 -0.5033149 0.54007614 -0.60910857 -0.100361235 -0.509747 -0.6676216 0.35270092 -0.89409053 0.46431574 -0.778736 0.6407939 -0.07351161 0.3904722 -0.95602924 -0.6460274 0.56317765 -0.27255645 0.56239134 -0.77049875 -0.95443606 -0.6288019 -1.5307704 0.59602094 0.18714604 0.99536127 0.8786761 -0.38554186 0.610958 0.13369088 0.39831403 0.44712985 1.039361 -1.2302195 -0.8046583 -1.1762892
TWMET_00195 0.45141175 -0.7198882 -0.8333835 0.7377843 0.6047633 0.1042645 -0.42904672 -0.4012214 0.30719978 0.08773325 -0.092434905 -0.49028072 -0.06837909 0.24099785 0.45873263 0.8635011 -0.14011289 -1.3898834 -0.29703873 0.26736146 0.10712514 0.058222983 0.22234634 -0.32596892 0.8639054 -0.024489403 0.49655852 -1.8594317 -0.47044292 0.7416826 0.69661283 -0.7437432 1.2035801 -0.14454953 0.078356124 0.5687725 -0.6457261 -0.06797252 0.6383854 0.013337186 -0.5400385 0.67422956 -0.07249175 -0.31004852 0.15683897 -0.79592144 1.0631131 0.4886754 -0.54023737 -0.2133305 -0.553845 0.864052 -0.47337303 0.22211762 -0.15383084 0.5699148 -0.008647259 -0.03516051 0.06947095 -0.74792045 0.77768946 0.13151738 -1.2705445 -0.028118595 -0.57159925 -0.38654009 -0.6567735 0.49776208 0.05922792 0.39414513 0.92806506 1.0510161 -1.3543767 0.5134575 -0.70812994 1.7054752 -0.2845287 -0.45266518 -0.085510984 1.5338252 -0.27723348 -0.97279096 0.48405847 -1.403756 0.45582572 -1.1372877 -0.7702423 0.5245516 -0.27203262 0.53068405 -0.5131805 0.09770569 -0.6782367 0.13816822 1.7297592 0.3875563 0.7621875 -0.62693775 -0.3003758 0.018513557
TWMET_00126 0.011327898 0.25008544 -0.07074984 -1.1505075 0.57794917 -0.31205955 0.13640195 0.081419885 0.27229324 0.26669264 -0.058719903 -0.049906027 -0.088457614 0.5081479 1.6129818 0.01284442 0.18656436 0.30041465 -0.58477116 -0.5345782 -0.37540868 1.1534263 -0.014273187 -0.18177749 -0.87622315 -0.7914502 -0.09985513 -0.48789722 0.40545923 0.6926811 1.7157617 -0.70881695 0.34765252 0.03992759 -0.45908695 0.25562125 0.56074554 -0.741826 0.032086533 0.89692646 -0.32318416 0.329711 -0.28677374 0.4776275 0.55682755 -1.4186838 0.79848546 0.89367324 -0.09633778 0.040498897 -0.4323183 0.6066439 -0.16305964 -1.6218778 -1.0719312 -0.18994248 -0.84523016 1.398455 0.028191458 -0.77084893 0.64830595 0.24403511 -0.15623264 -0.40968877 -0.33816007 0.23685509 0.022952048 -0.61987936 -0.56512195 0.13081038 -0.76601946 0.36044508 1.2859432 0.3497256 -0.16908261 0.6661042 -1.0574846 0.24422945 0.46885636 -0.3273398 0.35357946 0.08596995 0.21258646 -0.2416773 -0.19125612 -0.4326005 0.13088374 -0.28018913 0.41422373 0.9982332 -0.8883494 -0.41554564 -0.9126242 -0.25621977 1.1100708 -0.27527907 -0.15197958 0.012262904 0.30865103 -0.23832709
TWMET_00078 -0.4331971 0.5934604 -1.3888665 0.19465296 0.17437837 -0.23995213 0.5139796 0.5497059 -0.6886272 0.102632605 0.81353647 0.021139635 0.90707123 -1.0250304 0.7506006 -0.059486385 1.2202218 -0.072103165 1.0506479 0.17030807 -0.83651835 -0.4698443 0.29545438 -0.1294048 0.0063751675 -0.7663919 -0.4612083 0.40463832 -0.51707923 -1.1010891 -0.33812034 0.27020964 0.6969312 0.82305527 -0.48532873 -0.833181 0.7164897 0.27669093 -0.19307165 -0.0014339271 -0.32382527 -0.5385631 0.24433962 -0.56691706 -0.48307312 -0.48281953 -0.5830257 -0.097484164 -0.668399 -0.051728662 0.19630918 0.2812503 -0.7611491 0.25070533 -0.2857244 0.19731212 -0.24788012 -0.5379763 1.3242396 0.52278316 -0.63395727 1.0155034 0.015400833 0.13841976 0.047916654 -0.93882644 -0.7650738 0.056047246 -0.046717383 0.033057485 -0.6689034 0.017750341 0.40897125 0.025669262 0.018453356 -0.2659561 -0.12194725 1.1064142 0.8455356 -0.5858145 -0.6952307 0.5218851 -0.022502864 -0.70339364 0.67196995 -0.022039063 -0.95469826 -0.6079259 0.29134563 -0.40452895 0.22810994 0.9954935 -0.106186256 -0.8185162 0.09885596 -0.5916338 0.27003813 -0.53882176 -0.21827254 0.3349484
TWMET_00167 0.3823667 0.8654051 -0.0587033 0.33437485 -0.79382455 0.14107089 -0.34412315 -0.19293639 0.2595034 0.26311868 0.063506186 -0.23659097 0.40826395 0.07495754 0.6062318 0.24271032 0.8913057 1.1566308 -0.48299107 -1.3539248 0.6199426 -0.5334312 0.5584697 0.40470588 0.06579265 -0.54852897 0.8895137 0.9825529 0.9199923 0.0023308212 0.3355765 -0.16947755 0.034248453 -0.18383004 0.055711377 -0.22531457 -0.4252302 -0.047912467 0.46787494 -0.73479766 -0.46632996 0.08724503 -0.5972796 -0.48993045 0.12506683 -0.41444415 -1.2863234 0.08856631 -0.4289451 0.09463378 -0.7389905 -0.11535412 -0.024504071 -0.2749859 0.57972336 -0.4546243 -0.159139 -0.35763106 0.8952532 -0.50366557 -1.1041455 -0.47599098 0.26395425 -0.26521498 -1.0180976 -0.04070196 -0.40536094 -0.23831545 -0.42956904 0.73097545 -1.0025625 0.5773026 0.4115182 0.6314206 0.57702684 -0.2185963 0.06979286 -0.21476603 -0.3082367 0.99245334 -0.21059671 1.0198799 -0.68964016 -0.22859073 0.13734268 -0.892742 -0.73079395 0.22028638 0.4412118 0.66658866 0.3952114 0.90126395 -0.18177764 0.6556597 0.23258537 0.27034783 0.967663 -0.62926596 0.06905374 -0.7752389
TWMET_00018 -0.005313561 0.24141748 -0.016317183 0.68609214 0.25083277 -0.25914648 -0.15966707 -0.36505333 -0.3546538 -0.10414716 0.3586461 1.35646 0.54594356 -0.42688787 0.1775314 0.61388445 -0.85000765 -0.6608026 0.2592857 -0.85680205 0.53913194 -0.54280275 0.15269452 -0.44759035 1.0144256 0.30281198 -0.018490547 -0.22469005 -0.4459126 0.48520586 0.09466757 -0.4663045 -0.58732694 -0.7958588 -1.4181354 -1.2560602 0.64485997 0.49793935 -1.0567216 1.1788119 0.804874 0.44036773 -0.7804589 -0.5969927 0.19239786 0.36434406 -0.1979734 0.54536396 0.65136844 -0.0336007 -0.5025593 0.13234441 0.71438324 0.030017648 -0.65047365 0.9846413 -0.028852547 0.60501903 -0.46057332 0.58861005 -0.44017512 0.019493679 -0.40901804 0.6767148 -0.1578041 -0.60932857 0.18039897 -0.003572668 -1.2847997 -1.4284115 -0.37120634 0.2995112 0.0052766176 0.62763125 -0.24948128 0.75129676 -0.34248734 0.58774257 -0.24706654 0.27553865 -0.08971568 0.8680065 0.7684274 -0.3879428 -0.7181978 -0.64120495 0.30833802 0.72896284 0.16350971 -0.019188603 -0.36860338 -0.29497847 -0.5191987 -0.83809656 -0.29061738 -0.12391454 1.2169359 -0.10755165 -0.18943615 -0.038258366
TWMET_00128 -0.013779616 -0.5224353 -0.21380565 -0.3640608 -0.43102786 0.9515223 0.090131685 0.21481115 0.2790321 0.13367517 0.47543645 0.569169 -0.24841855 -0.15481266 0.285357 -0.049713813 0.55161583 -0.71561235 -0.6896693 -0.107423626 1.1568087 -0.4616432 -0.21008313 1.1018088 0.0045186155 -0.017171554 0.37559715 -0.081978254 -0.19824928 -0.26403603 0.22851452 -0.0074188444 -0.11531656 -0.37355494 -0.5427635 -0.24409048 -0.10757371 0.6147771 -0.13245232 0.03466619 -0.42949903 -0.4014371 -1.0778767 -0.018475024 1.0935493 0.19143301 0.8347886 0.47585118 0.45509458 0.5694837 -0.36310723 0.5197138 0.29672942 -0.16661379 0.5411548 -1.4826547 0.61242795 -0.13390867 -0.26363847 -0.8637557 1.0642395 0.9057604 -0.92439824 -0.14725585 -0.31584397 -0.09485323 -1.4670944 0.30694693 -0.377814 -0.0046903947 -0.6715454 -0.116489 1.0642569 -0.94713783 -0.05084594 1.0388314 -1.1264188 0.08646869 0.40480566 -0.9001314 -1.1539128 -0.4306327 -1.0481918 -0.22786656 0.29330644 -0.41848624 1.1478914 -0.40523145 0.36200255 -0.04025114 -0.5857812 0.58725446 0.071251385 -0.34308797 -0.8654628 -0.6403003 -0.58845854 -0.9372123 -0.4825972 -0.7304221
TWMET_00039 0.24304642 0.47602654 -0.049662076 -0.13279909 -0.15591165 0.4860202 0.5140882 -0.2955485 0.48563397 0.9385764 0.53353715 0.64018536 -0.3990634 -0.4017441 -0.2846487 0.20795168 0.39286387 -1.1692859 -0.050074935 -0.26456815 0.2733189 -0.34700572 0.722768 -0.49414027 -0.26760593 -0.05853274 -1.0059638 -0.06373151 -1.2596107 0.37648 -0.08386633 -0.6691656 -0.21004443 -0.1595951 -1.0626531 -0.13211614 0.55328155 0.3027818 -0.30235735 0.37672624 0.17278537 0.5586802 -0.33667612 -1.0036905 1.0035746 -0.39681426 -0.2173009 0.6379085 -0.23384187 0.94875574 -0.018376121 0.11923362 0.63188237 -1.3701997 0.72852886 0.032172345 0.09733827 -0.8486672 -0.33054566 -0.378169 -0.66152686 0.070259064 -0.88967663 0.44159612 0.327173 -0.5202865 -0.19194368 0.43201324 -1.633266 -0.24008378 -0.3569804 1.0534923 -0.19612198 0.13117878 -0.007987011 0.74985445 0.24067876 -0.2827954 0.87964475 -0.59749436 -0.4923421 0.81671494 0.26435772 0.09016484 0.005596036 0.2316602 0.19833589 0.25638902 -0.6807254 -0.22417141 0.84462047 -0.5932913 0.85399425 0.51793206 0.12728752 -0.0036956943 -0.45600688 0.28907585 -0.4424847 0.61904675
TWMET_00037 0.31954134 0.40591532 -0.509465 0.66802317 -0.3073414 0.4573777 0.47117501 -0.004210432 -0.5052935 0.5729067 -1.1728714 -0.8112943 0.39044467 -0.20599717 -0.15111823 -1.0727274 -0.48472115 0.109442644 0.49649838 -0.13909492 -0.35181123 0.46816528 -1.2016785 0.059305415 -0.1421145 -0.9560435 -0.035199516 -0.42112896 0.7014574 -0.7767261 0.053732503 0.4016728 0.55759364 0.6842084 0.08994721 -0.51632154 0.3887183 -0.81542814 0.633087 -0.9854307 -0.23787747 0.93329775 -0.5484771 0.22620861 -0.1570166 0.3763437 1.0848722 0.52241015 0.9272374 -0.45134696 0.65868634 0.2669291 0.32270658 0.8249595 -0.104786865 -1.2783141 0.91120094 -0.047989335 -0.50549465 -0.19769 -0.25043237 0.28574678 0.14881194 0.12081681 0.46384373 0.73173934 -0.29031548 -0.27194306 -0.5017106 0.2646691 -0.12672314 0.46877238 -0.5341414 -0.4883393 0.59688693 -0.17468856 0.56365085 0.097074784 -0.2480807 0.89080656 -0.5530166 0.19816609 -0.56047755 0.5241587 0.035066906 0.35364324 0.13678668 -0.85244435 -0.6208714 0.34429875 -0.39212453 0.023294004 -0.047699295 0.48101896 0.30269772 0.18244037 -0.36575738 0.09922333 0.16729164 0.7987632
TWMET_00555 -0.29190055 0.07062474 -0.5637574 -1.3178629 0.15612873 -0.9131419 0.46450517 0.25875774 0.026064854 0.56547385 -0.1716128 -0.32674283 0.7881161 0.3931111 1.4169645 -0.12023076 0.851246 0.40555447 -0.26374742 -0.05242014 -0.9844813 0.7482512 0.7206278 -0.5697366 -0.6655833 -0.75684744 -0.4696223 0.38671842 0.43099782 0.20041595 1.0326666 0.038073424 0.14200324 0.65861624 0.13354616 0.14274725 0.5252897 -0.4606928 -0.28969884 0.774547 0.0021704384 0.059585325 0.06615724 0.012157674 0.59535736 -1.2303705 -0.04597115 0.4693921 -0.75839615 0.09723788 0.26426455 1.0260991 -0.5583031 -0.8706829 -0.99905884 -0.84833944 -0.5783426 0.5333168 0.3946491 -0.8063267 0.26991343 0.95215017 0.25457126 -0.1771908 0.30620447 0.15739839 0.020626971 -0.50998974 -0.41109353 -0.04604732 -1.1446064 -0.13403232 1.2530107 0.8192114 -0.67623895 0.10722139 -0.8927413 0.5641058 0.23780484 -0.66012096 0.48587406 0.29984674 0.25849563 -0.4532237 0.20477551 -0.3843284 -0.49103752 -0.7618533 0.72174674 0.91935366 -0.30780184 -0.037558403 -0.89358133 -0.5016596 1.0739381 0.08507632 0.46527636 -0.5642069 0.64930534 -0.03407066
TWMET_00035 0.35987344 0.46280167 -0.13476582 0.08077636 -0.16197947 0.49206713 0.4477398 -0.33190522 0.55831665 0.9974406 0.60322106 0.84064454 -0.056394186 -0.5822184 -0.18015684 0.35088176 0.43490806 -1.1829698 -0.06270287 -0.5221331 0.547616 -0.46473503 0.68324393 -0.5860558 -0.17542063 -0.14143059 -0.92035264 -0.22518864 -1.2818148 0.38467234 -0.12150593 -0.75287366 -0.08195351 -0.045844465 -1.0430382 -0.13111582 0.59755373 0.43187222 -0.2430747 0.57670337 0.18083513 0.6192733 -0.33359483 -1.306006 0.98031485 -0.56690145 -0.563598 0.5983455 -0.29739952 1.1436234 -0.14209591 0.28525466 0.6680333 -1.6048512 0.81943923 0.14886999 0.1989705 -1.0822579 -0.013270892 -0.5741624 -0.9338233 0.04602285 -1.0434358 0.34384504 0.36258388 -0.79738736 -0.43997866 0.4236098 -1.8058733 -0.12767552 -0.5039157 1.1658255 -0.24768096 0.41664743 -0.07368145 0.7976594 0.24366657 -0.41650125 0.9499529 -0.37951872 -0.7076684 0.9455483 0.23304951 -0.2676247 -0.1058794 0.10777193 0.051200256 0.28775483 -0.9636266 -0.035455704 0.88178533 -0.4656066 0.7707774 0.7481751 0.42641744 0.14426626 0.178561 -0.060865726 -0.5053503 0.63436836
TWMET_00010 -1.32661 1.3494935 -1.0597901 1.1104323 -0.9902981 0.2710479 0.09475826 -0.21742375 -0.66402954 -0.31201774 -1.4575424 -0.78673226 1.0099742 -0.38483647 0.8366376 0.721086 1.4312125 0.22642006 0.69575846 -0.392059 -0.5428732 0.27274925 0.43819356 0.49116138 -0.32863328 -1.4797915 -0.34554976 0.37487575 0.3850105 -0.27262214 0.23788103 -0.25900367 0.5848255 0.70232844 -0.12279696 0.6315246 -0.30247724 -0.35403994 0.29895014 -0.7210298 -0.6425724 0.5799017 -1.1037096 0.43116653 -0.46428174 -0.32450116 -0.7848818 -0.593544 -0.7461465 -0.36466673 -0.61055005 -0.27546862 0.4313607 0.08974261 -0.30728188 -0.067686774 -0.5963676 0.28128523 1.1941527 0.7252123 0.040748365 -0.057325926 0.23007464 0.18193161 -1.1000645 0.42639953 0.09106069 0.43789485 -0.43593276 0.31700495 -0.68444407 1.625215 0.69266933 -1.4694349 0.64035493 0.045770664 -0.68689674 0.45053384 0.11178281 -0.32956022 -0.51726824 -0.03182768 -0.49910414 0.39996973 1.2396476 -0.14569339 -0.970779 0.43720764 -0.6426794 -0.58069277 -0.53498214 0.33088985 -0.040321622 -0.5553688 0.046434164 -1.1985054 0.86079156 -0.7207027 -0.5698284 0.4759461
TWMET_00061 1.3626387 -0.21811059 0.37999305 -0.26415455 1.163992 0.44901574 1.0885868 -1.0511582 0.4717871 -0.23543002 -1.0272421 0.69478726 0.5012756 -0.39932963 0.5439541 -0.23880644 -0.30908564 -0.105099835 -0.13698274 -0.073620416 -0.64369327 0.1172838 -0.68888366 -0.91182154 0.81953967 -0.49057552 -0.23837803 -0.36817217 -0.221233 0.2357173 -1.0589203 -0.5423374 -0.48961133 -0.56759006 -1.2787141 -0.78678817 -0.28581384 -0.015469074 -0.45256403 0.90587807 0.62565935 1.0635817 -0.09937052 -0.76317793 0.5037827 0.32849962 0.27609667 0.7665092 0.21767302 -0.07543837 0.8784149 -0.3901592 0.68028563 0.034010362 0.3820502 0.1888039 1.0965176 -0.26762095 -1.42566 0.11003362 -0.028753864 0.058599863 -1.0009513 -0.48045602 0.38148394 -0.26332092 0.08615749 -0.41121206 0.039883662 -1.5260651 -0.23955938 -0.35775226 -0.088793114 0.44014317 -0.99008626 -0.8416042 1.069612 0.2086202 -0.8465245 0.05778442 -0.41883543 -0.8209552 -0.028612383 -0.033490397 -0.42983612 -0.47420087 1.0464258 0.20113924 0.11630104 -1.067275 -0.2163879 -0.45423844 0.10949483 -1.3057714 0.19247136 0.3444843 0.42366064 -0.38480785 -0.45205405 0.5714616
TWMET_00040 1.1726161 -0.25706464 1.112827 1.258243 0.32817048 0.93133706 -0.18337908 -0.80754006 0.80471605 0.9101126 0.07860021 0.3372405 1.2912209 -1.0731518 0.07153802 0.90986425 -0.0024930285 -0.38149354 0.40770745 -0.5146397 -0.5229802 -0.58386946 -1.1471928 0.14306803 0.1160483 -0.43649614 0.31128785 0.24194996 0.05639503 -0.9224639 -0.6317539 0.06418606 -0.87281376 -0.041798215 -1.3297856 0.23095424 0.12901102 0.22868407 -0.8075405 0.69673586 0.7205319 -0.1313777 -0.17970744 -0.96704787 0.5631167 0.08293585 0.13983321 0.5382744 0.06900863 -0.33256117 -0.17337155 1.0063505 -0.27430093 -0.7203279 0.1551321 -0.08341004 1.1319168 -0.29821903 0.011594009 0.9160412 -1.1535681 1.1902018 -1.2816117 0.8621673 -0.10978678 0.12314566 0.9786018 -0.32738626 0.5144878 -0.17743418 0.48089626 1.0896358 -0.15060341 -0.014739445 -0.9190812 0.75647765 0.6555117 0.73932445 -0.62395084 0.40122908 0.439628 -1.0600713 -0.7371788 -1.1132224 0.04411141 -0.83469677 -0.33547267 -0.29096588 0.6335896 0.17125468 0.22998494 0.55735856 0.65251863 -0.49652946 0.6339045 1.193465 0.72525096 -1.4736024 -0.6702043 0.8639784
TWMET_01200 -0.21549389 0.6312443 -0.7377969 0.9105989 -0.21886712 -0.821712 -0.81196046 -1.1045576 0.12629451 1.2997731 0.2514781 0.6721992 0.75878227 -0.38600555 -0.44414788 0.14366587 0.54082304 -0.5224481 -0.10116359 -0.2857833 0.5739184 -0.78520346 0.8185764 0.3539432 -0.44816193 1.1170423 0.082959525 0.7701332 -0.16775687 0.5073298 -0.641054 0.22525714 0.7962002 0.2991915 -0.6324333 0.069249496 0.892175 0.9410087 -0.92959166 0.94260406 0.45447746 -0.23197243 0.24600756 -0.7691367 1.094185 -0.25623456 -0.49580452 -0.27683166 -0.336562 0.40865117 0.010541562 1.1145426 0.1591774 -0.66604096 -1.0148011 0.7831366 0.5997382 -0.37747243 0.5734564 -0.62984085 -0.07741479 0.68880594 -1.614379 0.031208735 -0.8949875 -0.89051753 0.2893639 0.20498401 0.58391255 0.6459128 -1.0726442 0.19532207 -0.24781956 0.68696886 0.711317 -0.26304066 0.47080064 0.15462637 0.7076569 -1.2596203 -0.06530975 0.47818056 -0.4822961 -0.90565896 -0.5030509 0.6360226 -0.66100496 0.26402673 -0.6130613 0.6342759 -0.003127023 0.6842401 -0.29404157 0.7242117 -0.04879933 0.4485445 1.1174002 -1.4500464 -0.62859184 0.33479297
TWMET_00060 0.78751004 0.63637775 -0.07968662 -0.08733867 -0.59580433 0.19083709 0.7557652 -0.8974456 1.1457231 0.34152737 1.3625201 1.2074177 0.39406702 -1.2433729 0.2052853 0.7549366 -0.77673787 -0.50125986 0.044836108 0.09994669 -0.59463954 -0.01153985 -0.07741299 -1.1858673 0.22855029 0.008777044 0.10418961 -0.35021344 0.64642245 -0.034701213 -0.66812867 -0.13937639 0.24257055 0.09129626 0.38444626 0.6701902 -0.65222776 -0.28178763 0.53418916 -0.17099428 0.34395128 -1.3608034 0.20198742 -0.7058543 -0.028176554 -0.7227572 -0.38317072 0.51563084 -0.94815475 -0.36507165 -0.4082552 0.44515485 -0.7188137 -0.20455925 -1.328975 0.58258146 -0.533119 -0.25899377 0.26107097 -0.78055656 -0.98881274 0.09298864 -0.96243423 0.38379517 -0.3766093 -0.08122779 -0.7202824 0.3712766 -0.54668504 -0.16962652 -0.75453115 -0.80720145 0.26489696 1.0605474 -0.5072245 -0.50842494 0.009969058 -0.9889127 -0.2933203 1.1077374 -0.6007213 -0.21463977 -0.00081296277 -0.3544985 -0.44520554 -0.8427342 0.23692033 -0.43568513 0.39638913 0.19196324 1.2701278 0.95230305 -0.56544846 -0.22926657 0.89131933 1.0603917 1.1431235 -0.4736891 0.5347182 -0.08226089
TWMET_00056 0.7262592 0.66630584 -0.04342076 -0.010327614 -0.7226006 0.19179298 0.6397566 -0.78466547 1.0765738 0.35346428 1.205411 1.0683357 0.40109897 -1.1251804 0.26092917 0.6260149 -0.5754184 -0.3663331 -0.026390081 -0.10573014 -0.39906657 -0.06363337 0.007833465 -1.0598022 0.2588214 -0.055617083 0.16839328 -0.13507298 0.6249343 -0.03209855 -0.549621 -0.13198783 0.13303606 0.07926601 0.3583863 0.5662025 -0.62009525 -0.22515862 0.4803396 -0.25387087 0.2986737 -1.2212582 0.06938813 -0.7201888 0.03474351 -0.6374161 -0.48480082 0.4379761 -0.8700788 -0.28619412 -0.4433783 0.4182656 -0.60587466 -0.23169886 -1.0903777 0.45318383 -0.506747 -0.3028153 0.3333584 -0.7248111 -1.069891 0.008718653 -0.8232615 0.34486353 -0.41713527 -0.09349556 -0.67242104 0.34266433 -0.60553145 -0.0971054 -0.85209805 -0.6338916 0.29851684 1.0632708 -0.4006199 -0.46784866 -0.022821872 -0.88945234 -0.2772366 1.09651 -0.59614104 -0.04569722 -0.08398928 -0.35549682 -0.43753725 -0.8732473 0.11325836 -0.3890563 0.3745117 0.2749457 1.2151237 0.92255646 -0.50563824 -0.12034804 0.81735516 0.9729404 1.1920232 -0.52656174 0.49514163 -0.15428007
TWMET_01208 0.38676363 -0.81000876 -0.78376365 0.70804185 0.5860081 0.16506177 -0.3970054 -0.35626307 0.39423642 0.14929703 -0.13735832 -0.38212785 0.027769182 0.12998998 0.3166128 0.82677114 -0.20344475 -1.4220362 -0.2707436 0.3627697 0.1469562 0.031368013 0.14751212 -0.38680968 0.9680014 0.098625645 0.45815203 -1.8179929 -0.5133473 0.62372136 0.57924426 -0.7266757 1.1267322 -0.073499344 0.16715163 0.62156075 -0.7016743 0.034440827 0.5640542 0.017046567 -0.48146608 0.62068313 -0.030314816 -0.4486483 0.08521171 -0.67794186 1.0642054 0.42626294 -0.5928861 -0.14172742 -0.466354 0.89555 -0.457011 0.30209303 -0.14820136 0.5729266 0.124411575 -0.18527062 -0.00047827262 -0.65894616 0.72669536 0.16104235 -1.2849469 -0.015882757 -0.45371538 -0.44607154 -0.64449173 0.5277749 0.07553052 0.2853423 0.92098826 0.9730679 -1.3228161 0.47041437 -0.74079186 1.6169404 -0.23532203 -0.46726865 -0.113222726 1.408953 -0.34899503 -1.0741587 0.4590786 -1.396213 0.4785307 -1.1068255 -0.77012485 0.42144585 -0.37294292 0.41285172 -0.42682716 0.15405592 -0.5746242 0.1298446 1.6068242 0.4648794 0.8303523 -0.60263395 -0.36310992 0.09329356
TWMET_00005 1.020427 -1.0125728 -0.04740654 -0.32476255 0.54904306 0.6086336 0.094836906 0.35608223 -0.7428886 0.57974523 0.65357274 1.1754231 0.3456238 -0.2646683 0.5399571 -0.07437465 -1.2846987 -0.050406296 0.49179062 0.65829515 0.04041556 -0.6352689 0.011416066 -1.1685644 0.5884721 0.7372398 0.089182146 -0.4111181 1.2404107 0.092596285 0.9498023 -1.2969631 -1.3718957 -0.95571977 0.008126743 -0.35216758 -0.9988219 0.1466578 0.010379584 0.0685598 -0.14081413 0.4514384 0.7305287 -0.9272734 0.113675274 -0.07747811 -0.49813387 -0.3085751 -0.09142141 0.3912367 1.1971809 -0.2674463 0.23142076 0.8435656 -0.46081123 0.3875442 0.088537045 -0.4565218 -0.80348605 0.7591068 -0.13692963 -0.05241693 -0.07176659 -0.08697081 -0.7550307 -0.783513 0.5044113 -1.321011 0.09451193 -0.75189143 0.31876177 -0.5888458 -0.97191715 0.78531677 -0.28415927 -0.16423596 -0.00978057 0.51780415 -1.2865452 -0.60313255 0.9202987 0.27322447 0.63789046 -0.3523911 -0.53239024 -0.75396365 -0.9127262 -0.16202141 0.6288103 0.43825912 0.92049646 0.112272136 0.32527396 -0.13588463 0.059814777 0.59414536 0.038479324 -0.24687177 -1.3345127 -1.0362782
TWMET_00014 1.0581461 -0.16951656 0.3366528 0.28840202 0.60529935 0.4613482 0.821248 -1.0665582 0.37160486 -0.2805537 -1.3092284 0.32875448 0.39419207 -0.10077689 0.17267993 -0.7577675 -0.78214705 -0.2910614 -0.08093818 -0.13129814 -0.3201909 0.31306294 -0.6933481 -0.84537005 0.73851454 -0.38408974 -0.16542943 -0.40663815 -0.29585257 0.2554732 -1.0881234 0.09218059 -0.14381742 -0.15774287 -0.6139073 -0.48843452 -0.055956613 -0.017685188 -0.22071318 0.5179169 0.44444275 1.2441117 -0.015704317 -0.45608053 0.42985922 0.7178166 0.57578224 0.46756154 0.5413853 -0.3008092 0.77196634 -0.08002914 0.7833592 0.3594793 0.4236964 0.15990752 1.2366393 -0.21803479 -1.400263 -0.014752443 -0.040135857 0.029350761 -0.775498 -0.16158535 0.51608515 0.1637257 0.15351182 -0.08207737 0.077132806 -0.989576 -0.02868136 -0.16671069 -0.53290737 0.37088042 -0.8104392 -0.9515576 1.2734969 -0.25288355 -0.7490927 0.5682657 -0.5639856 -0.6698832 0.043220863 0.06960001 -0.6379129 0.061202522 1.0544155 0.26439446 -0.26008123 -0.61338717 -0.42729014 -0.7823006 -0.055099256 -0.534131 0.5472655 0.6865781 0.6316619 -0.41560298 0.052501984 0.8969907
TWMET_00184 0.23235935 0.33174142 -1.0862861 0.94798553 -0.74203897 -0.4232362 -0.73297954 0.27527416 -0.31215903 0.5966192 -0.42434126 0.33366 0.6781538 -0.98598605 0.88249195 0.8407314 0.65455174 -0.7823932 0.7707949 -0.88679844 -0.18411595 -0.22750823 0.45886153 0.31862053 -0.50147176 0.080921695 -0.2572616 -0.75843644 0.3763185 0.591382 -0.9265201 -0.97298217 -0.5571007 -0.18697506 0.97967535 -0.103120655 -0.49690852 -0.2943098 0.0090871835 0.86101276 0.064470984 0.09997448 0.005803779 -0.0019864892 0.6096121 -0.95778674 -0.33234105 -0.25963393 0.19457729 -0.082760215 0.9604538 0.51877576 0.3736716 -0.0373943 -0.4488359 -0.5694755 -0.70783246 0.0052665793 0.6377036 -0.3782483 -0.15747185 -0.089393474 -1.0123086 -0.14718448 -0.5148559 -0.2973153 -0.25329304 0.58440834 -0.30592877 0.42392132 0.54810387 -0.43079707 -0.44637913 1.5441663 0.1482726 0.28949502 -0.6193694 -1.0355163 0.5245245 -0.7722288 0.21140702 -0.41984135 -0.26022288 -0.5666688 -0.37701494 -1.2669557 -0.7364889 -0.06316198 -1.0320516 0.020927606 -0.36900634 1.1529858 0.54723305 -0.032937493 1.2612239 -0.15364742 1.1271992 -1.0778764 -1.314059 -0.07155809
TWMET_00935 0.08970798 -0.62675947 -0.24253553 -0.08104529 -0.6778466 1.0043546 0.116899766 0.05842034 0.23053777 0.1236699 0.63242006 0.61896116 -0.2759071 -0.39787874 0.48368856 -0.14106351 0.24984145 -0.955659 -0.61061853 -0.19825374 1.5706044 -0.6367372 -0.43573824 1.2712513 -0.09382356 0.045881435 0.4032508 0.014584217 -0.26487324 -0.34543762 0.24997658 0.08865982 -0.32757968 -0.14418201 -0.3804702 -0.15439856 -0.18082102 0.8258488 -0.09466601 0.0612156 -0.41153714 -0.3331208 -0.86924917 -0.23908705 0.9022548 0.07235854 1.132786 0.5438174 0.47724056 0.34390888 -0.27470985 0.33045167 0.5552931 -0.30640203 0.72355103 -1.3525176 0.5689193 -0.16106325 -0.0066235615 -0.8036474 0.8375078 0.87801903 -1.196619 -0.23565155 -0.09732067 -0.18973331 -1.5114199 0.123353966 -0.47673154 0.02516815 -0.8584732 -0.33242932 0.88702786 -0.8866464 -0.07455109 0.8486461 -1.1375666 -0.12750472 0.4443285 -0.5540711 -1.2311032 -0.50317365 -1.1609958 -0.5003485 -0.03468171 -0.5087026 0.9673059 -0.36178172 0.026052523 0.15310656 -0.7278959 0.6027345 0.32953534 -0.20195124 -0.7194897 -0.5425782 -0.28011858 -1.2820123 -0.69380426 -0.94701916
TWMET_00272 0.76388115 0.72738004 0.0784051 0.20523085 -0.6516406 -0.09170619 -0.33220685 -0.24966486 0.46126008 0.19265231 0.3601546 -0.07630235 0.23226166 0.13706745 0.6307012 0.101573244 0.7136236 0.91349375 -0.6527802 -1.2494369 0.51080954 -0.5282103 0.5222758 0.10920156 0.22024992 -0.29346824 0.98245436 0.8265272 0.804473 0.21645771 0.13407122 -0.014548775 -0.03937163 -0.27207232 0.07817889 -0.47710183 -0.38876152 -0.09073253 0.35001686 -0.5401835 -0.3665656 -0.13932262 -0.33651367 -0.56005293 0.29942027 -0.44244725 -1.2010872 0.27121204 -0.26689678 0.010780663 -0.5338071 -0.057052635 -0.14184688 -0.27093276 0.5512863 -0.40549868 -0.19450635 -0.31808972 0.7011966 -0.7919211 -1.1568131 -0.45036462 0.00027015634 -0.34928185 -0.92194843 -0.20097801 -0.50195265 -0.13615644 -0.4872452 0.5105589 -0.893095 0.34671208 0.21369463 1.2431214 0.30702952 -0.34893295 0.15328202 -0.45784667 -0.29410824 1.3730314 -0.2555301 0.9792319 -0.46593994 -0.46285325 -0.18558317 -1.0539888 -0.4258674 0.15038432 0.5171496 0.8211789 0.46059224 0.8396346 -0.28367004 0.6057531 0.5234516 0.4938664 1.1621461 -0.5971855 0.20315851 -0.82238257
TWMET_00103 0.079136156 0.1817909 -0.040155288 1.0768939 0.053676654 -0.28434458 -0.22250004 -0.28949896 -0.3274072 -0.17978989 0.25947267 1.2397958 0.6069111 -0.45990005 -0.13786411 0.6548187 -0.90689725 -0.6972619 0.2626357 -0.8191295 0.59826255 -0.7691515 0.029740434 -0.455815 1.2152734 0.36085808 -0.032651037 -0.29236278 -0.5217516 0.47667053 -0.16235061 -0.26108178 -0.4553097 -0.62398374 -1.1052942 -1.2295071 0.6179446 0.44563872 -0.93086743 0.9491933 0.76193607 0.25313392 -0.70945305 -0.5802391 0.01747155 0.55312544 -0.3751181 0.46636218 0.8320222 -0.053800758 -0.4071004 0.20612699 0.6549384 0.34921297 -0.51356936 0.9101084 0.11415246 0.36568683 -0.38995415 0.57065976 -0.679781 -0.040714324 -0.2734304 0.7223914 -0.0395855 -0.61968714 0.10732754 0.182581 -1.2993698 -1.295736 -0.08970216 0.27372816 -0.24056147 0.7548971 -0.19464873 0.76945406 -0.20988202 0.4258988 -0.35788563 0.58687526 -0.22610945 0.833463 0.72237676 -0.44391775 -0.7819273 -0.5877335 0.25342995 0.7227355 -0.098410495 -0.06834739 -0.19607005 -0.14181216 -0.57758814 -0.5408878 -0.26379237 -0.07450539 1.3714842 -0.13293082 -0.093719274 0.086871855
TWMET_00022 1.0450274 -1.2032084 -0.24715777 -0.031421054 1.0473169 0.70125633 0.5284393 -0.5378648 0.26216745 0.62938 -0.00601758 0.8200381 0.56625825 0.089861125 0.09083396 0.38213357 -0.71174073 0.06962002 0.4179204 0.39419907 -0.23664242 -0.9127244 0.20030695 -0.839186 0.14207584 0.62184006 0.22132951 -0.6213392 0.7478608 0.45660627 0.64303434 -1.0802062 -1.1788738 -1.1439643 -0.67400014 -0.8420446 -0.9078485 0.36496347 -0.6061177 0.31696326 -0.50689703 0.744937 0.720564 -1.6087115 0.6022578 -0.43257967 -0.44363028 0.101595215 -0.8487694 -0.26610595 0.9625793 0.092078626 -0.4745208 0.67336744 0.06046263 -0.2652483 0.8237408 -1.1107702 -0.9636159 0.69496614 0.06988544 0.5874698 -0.47842285 -0.30236736 -0.827774 -0.7145006 0.11954209 -1.0152531 0.6182672 -0.76822406 -0.027920982 -0.23758045 -0.2414916 0.6188116 -0.7991033 0.15585043 0.3367867 0.49716923 -1.0399328 -0.41119626 0.6919675 0.4243738 0.23197097 0.21010618 0.37016752 -0.18651597 -0.39873087 0.0886511 0.83148026 0.25068882 0.32038423 0.08553179 0.6605557 -0.2000568 -0.5255437 0.99255675 -0.07089479 -0.13685605 -1.1362855 -0.2524943
TWMET_01153 0.75008464 0.876886 -0.6468819 0.524548 0.55636775 -0.07299339 -0.43728134 -0.72448015 -0.50232404 -0.5459976 1.0150334 0.123495586 -0.38883516 -0.03126462 1.1468761 1.096411 0.5889906 -0.39194295 -0.08626953 -0.14294754 -1.0759928 -0.3322854 0.012297869 0.08259503 -0.45880318 -0.77102953 0.15346593 -0.92897195 0.5941359 0.67656845 0.35116243 -0.09581658 0.9684879 -0.21668404 -0.6189802 -0.29919443 -0.07482583 -0.69519305 0.79030836 0.03188686 -0.84229606 -0.86047965 0.10719925 0.6494455 0.48705152 -1.2767392 -0.9215173 0.123496085 0.069090866 -0.18053576 -0.82558066 -0.12440627 -0.5798306 -0.7017435 -0.6977735 0.23471044 -0.74587923 0.5354764 0.6853272 -0.69110054 0.559329 0.28149936 -0.95369107 -0.30116063 -2.1401756 -0.05890279 -1.0002983 0.28153294 0.2018873 0.46320233 0.0706685 0.97867095 -0.19148149 0.13896382 -0.27332398 0.74283576 -0.21877939 -0.39479187 0.30736235 0.8002858 -0.11275472 -0.16534154 0.3233619 -0.9161586 0.24384025 -0.6432903 0.23615873 0.85641557 0.92320615 0.5259067 -0.045892846 0.24180394 -1.0662392 -0.22000399 1.4006286 -0.62944067 0.55103624 -1.2511345 -0.13862066 -0.6001458
TWMET_00275 -0.10280206 0.4475696 -0.7790166 0.43264598 0.649638 -0.6725994 -0.95895106 0.30784193 -0.21692659 0.6203353 1.1943789 1.2222396 1.2027025 0.11386363 0.05018533 -0.040728923 1.0381321 0.11973898 0.16992626 0.0066729714 0.88657284 -0.8839937 -0.0025980296 1.0540065 -0.71428496 0.096511476 -0.31209612 -0.3878806 0.35145476 -1.0567911 -0.4714489 -0.90085846 0.98757684 0.4437149 -0.29821515 -0.00054255564 1.0694492 0.44342425 -0.3476633 1.1397462 -0.2688296 0.70670336 -0.20461641 -0.6539093 -0.14449258 -0.12552668 -1.8211895 -0.8876566 -0.049979057 1.2003055 -0.28725657 -0.113313 0.3681209 -1.2059393 -0.043931335 0.7510981 0.7140043 -0.76552355 1.4420599 -0.79440933 -0.14885871 0.30522257 0.17590079 -0.14620991 -0.6483918 -0.9149081 -0.5703452 -0.05100541 0.48213166 0.5948352 -0.48979798 0.25149155 0.08803093 -0.09691338 -0.065622754 -0.41252062 -0.49511185 0.07854991 0.47509354 -1.4530396 -0.7686328 0.5846243 -0.5583893 -0.40022343 0.2304216 0.55969447 -0.65188915 -0.48648915 -0.9159216 0.053454798 -0.079628475 0.5275734 0.11041715 0.50162476 0.28744292 -0.6210576 1.436068 -0.51970685 -0.41883954 0.8977453
TWMET_00091 1.2900554 -1.1906565 0.6735593 0.9477596 0.19800912 -0.39527684 -0.8480071 0.03949333 0.34572667 -0.0960342 0.038101625 0.0076425625 0.8739658 1.1115996 0.0445255 0.5545743 -0.5498925 0.060813453 -1.0389134 -0.060564782 -0.174276 -0.00851157 -1.056172 -0.55797017 0.928936 0.30177635 0.47867873 0.43127584 0.28596547 1.1919295 -0.04581486 0.7568363 -0.2222627 0.61066246 -0.34904748 0.3462661 -0.103041016 -0.585714 0.06638835 0.5861116 -1.1861103 -0.17079103 0.43592975 0.20900434 -0.31830606 0.346995 -0.60493 1.1795125 0.7455717 -0.0767836 0.7994274 1.28079 0.16525623 0.1682242 -0.00092947314 -0.5238594 0.51189625 0.2233516 0.013147946 -1.037029 -0.6520198 -0.27144802 -0.80595744 -0.846223 0.12519932 -0.70147234 -0.338043 0.45731845 -0.06680195 -0.7805048 -0.11823146 1.3174105 -0.22410052 1.2578052 -0.5085866 -0.33347887 0.39099818 -0.56180924 -0.9602346 1.0366554 -0.8980208 -1.0614306 -0.28764713 -1.482029 -0.4297639 -0.11253213 -0.19009285 -0.15139069 -0.8155377 0.2256029 -0.15430683 0.40349784 -0.83668524 0.47112185 0.103454895 0.8277203 2.1575246 -0.24639182 -0.19759047 -0.13804407
TWMET_00023 -1.2632867 1.2350179 -0.9887643 1.1634984 -0.9570711 0.45523202 0.013883167 -0.17458494 -0.47658736 -0.26122314 -1.520179 -0.66673225 1.0620217 -0.3720299 0.7414214 0.70711595 1.2873597 0.13722938 0.6662032 -0.3114673 -0.40514618 0.32063568 0.21730538 0.5302766 -0.32471514 -1.3392026 -0.38956097 0.26034358 0.39403978 -0.25471586 0.3110095 -0.4251791 0.6084411 0.66315794 -0.11701817 0.85987186 -0.35690302 -0.42878902 0.19336694 -0.5641614 -0.7256385 0.6324318 -1.1992843 0.4326017 -0.38213977 -0.28742987 -0.57029164 -0.53578293 -0.6357198 -0.38084906 -0.6387038 -0.1734491 0.5682066 0.05088631 -0.43144104 -0.0701299 -0.5546252 0.41108176 1.030214 0.7511794 0.10569672 -0.05870845 0.10042823 0.2260469 -1.2149339 0.49645174 0.18543066 0.48902693 -0.44934678 0.23094214 -0.53094995 1.7363828 0.86157334 -1.6538795 0.6871963 0.15399605 -0.8334914 0.34939644 0.020107614 -0.5738775 -0.6154434 -0.17403625 -0.5251728 0.49148104 1.2487057 -0.13622475 -0.92275834 0.3596153 -0.87879306 -0.6712347 -0.58571357 0.40566042 0.07344075 -0.54277855 -0.027704986 -1.2146332 0.7753487 -0.5962774 -0.71216804 0.6353854
TWMET_00799 -0.0015827395 0.24018888 -0.7091406 0.42157724 0.71162856 -0.62120956 -1.1105397 0.3600314 -0.17350757 0.5214257 1.2410411 1.5069261 1.3185738 0.16103391 0.16907665 -0.07201691 0.90325177 0.1957929 0.07541461 -0.060061842 1.1308445 -0.8083133 -0.10060022 0.93593323 -0.64349097 0.11004896 -0.21570785 -0.45911843 0.58438474 -0.9367005 -0.27742338 -1.1197625 0.68855256 0.3980036 -0.38902092 0.023454132 0.862358 0.5230051 -0.45936626 1.3066313 -0.28202376 0.8716941 -0.20005809 -0.87299836 -0.08392305 -0.16629109 -2.0342014 -1.0053523 -0.005975724 1.3665421 -0.3197374 -0.1478783 0.47755215 -1.4181397 0.06995835 0.8210434 0.7451759 -0.8518547 1.457436 -0.8088425 -0.21919692 0.11945114 0.21050888 -0.2506273 -0.6780286 -1.1102244 -0.5837086 -0.20968585 0.41630006 0.4149063 -0.7115616 0.36338386 0.20244738 0.0020276504 -0.22659293 -0.4860608 -0.6750571 0.15238354 0.28157923 -1.3575386 -0.8509465 0.6298551 -0.5495913 -0.5715288 0.045503534 0.38306862 -0.6978009 -0.5034816 -1.0199721 0.14215603 -0.0974573 0.47867712 0.20577529 0.547136 0.3083894 -0.5423105 1.8796804 -0.6859553 -0.5190311 0.76669186
TWMET_00064 1.1259352 -0.43285757 1.1223819 0.875765 0.45178136 0.69292426 -0.23362142 -0.848343 0.7260906 0.5242946 0.21820574 0.4061394 0.91573524 -0.55608475 -0.14469591 0.7204528 -0.04641605 -0.32253283 0.30113342 -0.2882479 -0.49939725 -0.5945371 -0.6802513 0.024929173 0.12672621 -0.08530011 0.38723338 0.2278396 0.042920362 -0.5668701 -0.60673475 0.1065409 -1.0560051 -0.43971422 -1.3628839 0.022187853 0.024699377 0.41701108 -1.0749084 0.90088946 0.6615796 0.09632666 0.03946082 -0.76351386 0.80475336 0.22805828 0.19444807 0.41005278 0.12776595 -0.44347695 0.060634892 0.6699018 -0.2585688 -0.5063835 0.29391733 0.067191295 1.0164754 -0.12313038 -0.3160804 0.91743296 -0.81419194 0.95601106 -1.0778977 0.88624954 -0.109705895 0.14540777 1.1254276 -0.26384333 0.67278236 -0.4310201 0.679095 0.8810934 -0.2590439 -0.12404464 -0.89459896 0.5304756 0.64995027 0.76222426 -0.71878254 0.25392255 0.70595706 -0.7827431 -0.3769235 -0.64043266 -0.07660389 -0.70155895 0.03754042 -0.11596745 0.7666488 0.06517177 0.2072028 0.2886765 0.8176355 -0.5442245 0.29485792 1.1157981 0.34237823 -0.8463289 -0.58193755 0.77150995
TWMET_00870 -0.16929562 -0.24610619 0.37588465 0.49576703 0.7769571 0.729946 -0.36286092 -0.40727308 0.31156975 0.20712179 -0.17022584 0.4564501 1.5642813 0.18876722 0.93433976 1.096204 -0.1817707 0.6641073 0.2590249 -1.0009868 0.27994645 -0.19801381 -1.0813307 0.5548544 -0.0021905003 -0.6554543 -0.19297984 -0.5209675 0.92600256 -1.136719 0.3181163 -0.53831226 1.4006706 0.5124039 0.7674886 1.0120807 1.0427003 -0.31037095 0.9710587 0.80904174 -0.41544417 0.16492333 -1.139689 -0.5520792 -0.9702803 -0.099007756 -0.6035252 0.21841024 -0.14916278 0.89079964 -0.39297608 0.13499457 0.39742365 -0.9965619 -0.40194955 0.33759302 0.5271182 0.60537374 0.8753596 -0.2911193 0.5297374 -0.3973023 -0.19056374 -0.35030407 -0.35354275 0.48366147 -0.6177654 -0.34451464 0.55545866 0.69642144 -0.089047626 0.9423943 0.7297924 -1.2772471 -0.50558096 -0.11205011 -0.026528683 -1.5009903 -0.20338054 -1.2164518 -0.07999627 -0.96731484 -0.72350293 0.81782424 1.0327451 0.5523154 -0.38691962 -0.36313486 -0.94391644 -0.25503698 0.019341012 0.73846704 -0.2646843 0.7829097 0.0422176 0.5205615 0.98953193 0.5416592 -0.30746642 0.32041702
TWMET_00145 0.0658158 -0.5811368 0.44109422 -0.00066544797 -0.052622285 0.9593903 0.38403937 0.049976163 0.8981096 0.59752494 -0.45460317 0.36889163 1.5570917 -0.5465454 -0.046927944 -0.19709021 -0.5725723 -0.16486888 -0.6543207 0.13967359 0.8773459 -1.1299126 -0.26395625 -0.85927266 0.900682 0.7971899 0.5488136 -0.49456996 0.13029669 -0.13507709 0.69772655 0.14084001 0.5373471 -0.2400791 1.4410728 0.11317027 -0.2778067 -0.68473256 0.23908526 -0.27648947 0.28895482 -0.8163349 -0.035824653 -1.0060443 -0.13716964 -0.05121342 -0.957874 -0.6586742 0.46389544 0.36282617 0.08338995 0.45382994 0.21624489 0.99850446 -0.2102624 0.18058655 0.49344528 -0.3272651 0.11923344 -0.34688395 -0.29822725 0.04017401 -0.9447823 -0.8739533 -0.7524608 -0.8539423 -0.097129814 -0.62020403 -0.30286607 -0.04948799 0.83810544 -0.55039686 -1.0897723 1.32661 0.37588826 0.13728073 -0.07438063 -0.82345444 -0.5014135 0.09484172 -0.07521401 0.09679383 0.49199066 -1.0943823 -0.2908435 -0.40768024 -0.011509333 -0.30228773 -0.5905861 0.8535842 0.48436418 0.6045345 -0.5134917 1.0575987 0.4708466 0.80289847 1.158935 -0.6984947 -1.0168757 -0.6196852
TWMET_00088 -0.026136624 0.31846943 -0.722189 0.66153765 -0.660369 -0.33382344 -0.5142946 0.3953033 -0.5201632 0.49006677 -0.41851297 0.200354 0.3343961 -0.83179474 0.60621727 0.75235355 0.40363628 -0.6156421 0.8248931 -0.63490856 -0.19587277 -0.023558559 0.40785566 0.45634407 -0.5912697 -0.028680347 -0.44417146 -0.5936225 0.1941819 0.39109057 -0.7268354 -1.0138209 -0.76865244 -0.26178086 0.7848695 0.021233398 -0.42829517 -0.29696327 0.08187712 0.5108447 0.1324848 0.24973391 -0.017861653 0.23319043 0.19942075 -0.60897654 -0.2620437 -0.27980492 0.123951375 -0.09510936 0.7731024 0.090561695 0.4765786 0.018240562 -0.2859104 -0.46090406 -0.7490045 0.046444096 0.5085891 0.023676552 -0.029711584 -0.21738665 -0.44054562 0.0075985687 -0.18750337 -0.010793105 0.04975779 0.42439228 -0.22625455 0.32404256 0.60749435 -0.535466 -0.41120994 0.9804039 0.19944812 0.29505423 -0.5465703 -0.72420704 0.4542335 -0.8496337 0.40491432 -0.34494957 -0.26035392 -0.1437564 -0.14976338 -0.83138293 -0.7105669 0.094027445 -0.7479417 -0.16827928 -0.42048386 0.64109886 0.6628272 -0.2261302 0.7602244 -0.43000895 0.49648118 -0.62387407 -1.0330757 -0.02002348
TWMET_00847 0.087144546 0.40554467 -0.86695755 0.919485 -0.78874075 -0.4937356 -0.6272544 0.21928693 -0.473242 0.57119524 -0.54669994 0.13947572 0.455588 -0.9287766 0.5810347 0.8324371 0.48579508 -0.68066835 0.8226508 -0.80332553 -0.22575901 -0.14818257 0.5110278 0.41779643 -0.59186053 0.10854171 -0.32202297 -0.60985565 0.24194054 0.6167239 -0.991589 -0.87124 -0.62591416 -0.22299148 0.94604504 -0.0173837 -0.46157983 -0.25906307 0.056074917 0.61872035 0.21420696 0.14527324 0.12354768 0.17197263 0.38882422 -0.72473913 -0.35170388 -0.33491933 0.10969784 -0.1719604 0.9086164 0.30050054 0.4329528 0.060695622 -0.4175926 -0.45564413 -0.6965759 -0.011943599 0.60410666 -0.16314806 -0.14054586 -0.18416655 -0.7618682 -0.035213023 -0.3128674 -0.08685132 0.0029847198 0.53300214 -0.16191828 0.51170015 0.6384068 -0.5883216 -0.5930656 1.3766346 0.2575797 0.22221142 -0.39368618 -0.9179665 0.4987886 -0.729376 0.44622472 -0.37100753 -0.28326184 -0.36933726 -0.3383098 -0.95063007 -0.7673256 0.15143773 -0.9198362 -0.040819265 -0.3938737 0.8755634 0.56547886 -0.030514227 1.0133103 -0.2326214 0.8261168 -0.959054 -1.124718 -0.009782157
TWMET_00867 1.255083 -0.9259981 -0.028262623 0.18453279 0.9600838 0.61261654 0.5026823 -0.7521874 0.42494166 0.5790686 -0.07379753 0.7243394 0.54437107 0.21033506 0.26511532 0.2352003 -0.53902614 -0.07627289 0.3656161 0.2473218 -0.3038601 -0.8064091 0.12867838 -0.7231815 0.08419335 0.38749772 0.2749851 -0.45479798 0.6357048 0.5214523 0.36995336 -0.89913875 -1.0840433 -1.1534058 -0.92309624 -0.92051035 -0.7927888 0.25116926 -0.67059714 0.36185 -0.31438026 0.8857183 0.47761142 -1.5591693 0.78687936 -0.28766558 -0.3546631 0.28536558 -0.62575626 -0.4884122 0.86167735 0.14993672 -0.270906 0.48664835 0.12853211 -0.19394022 0.88570803 -0.8795214 -1.0443091 0.56985414 0.002752545 0.6460631 -0.6884634 -0.14151466 -0.79646456 -0.52323884 0.30258986 -0.8288038 0.7007811 -0.72925246 -0.112333275 0.02868068 -0.26402417 0.6638704 -0.8582377 0.045708843 0.44080544 0.48880953 -1.1004515 -0.15222947 0.623427 0.22601232 -0.0076346127 0.2581462 0.28729647 -0.17116016 -0.17407727 0.072851434 0.9778819 0.25808933 0.18871097 -0.0500601 0.6687375 -0.34459525 -0.29142392 1.0053122 0.039248653 -0.34811255 -0.9510634 0.0050663585
TWMET_00844 0.31405497 0.22093317 -0.7034849 0.58518416 0.35673487 -0.20072977 -0.5685516 -0.346138 -0.27041373 -0.39814818 0.47286832 -0.41233024 -0.34594324 0.26860398 0.76198643 0.903018 0.48413998 -0.7060502 -0.08868917 -0.021968823 -0.4562289 -0.19768459 0.37624162 0.14777923 0.052569468 -0.3971997 0.3513211 -1.0337648 0.024967277 0.65426594 0.4706077 -0.23509113 0.92613655 -0.22724062 -0.09576811 0.036444593 -0.39546824 -0.33786678 0.65303636 -0.12628455 -0.6987298 -0.11102247 0.097249396 0.35871065 0.15306665 -0.90171 -0.06293558 0.08400918 -0.2778808 -0.34896868 -0.6554757 0.097001605 -0.54222035 -0.17434907 -0.14716518 0.37265968 -0.5838592 0.268922 0.6345049 -0.557586 0.5912766 0.05250645 -0.7765603 -0.1221162 -1.230577 -0.14191385 -0.6680181 0.43891695 0.25575873 0.5451734 0.5834292 0.8968228 -0.827083 0.2906061 -0.27215785 1.0519767 -0.23454423 -0.3644721 0.21168104 1.1683296 -0.01021755 -0.40024844 0.32683676 -0.9952288 0.4310639 -0.796427 -0.38262576 0.7334011 0.38569608 0.5145317 -0.35497874 0.18545364 -0.609249 0.008065236 1.334037 -0.30466053 0.50438416 -0.7254533 -0.20625186 -0.38293454
TWMET_00024 -0.20017655 -0.02240053 0.34044176 0.6411678 0.58325875 0.9614273 -0.20243794 -0.44541723 0.24239823 0.3870777 -0.2807547 0.20462805 1.3659074 -0.10323403 0.7701447 1.1645803 -0.12756762 0.55182624 0.3730341 -1.042513 0.13388714 -0.25578344 -1.1950771 0.716803 0.01650614 -0.7787552 -0.20168312 -0.33727676 0.79136264 -1.302334 0.13402821 -0.38161263 1.3359691 0.509212 0.62173367 0.89201844 1.0072986 -0.34248424 1.1036897 0.35994038 -0.39896756 0.037472676 -1.3079101 -0.472128 -1.0164001 0.03800893 -0.40510997 0.37739778 -0.1839449 0.7474234 -0.46060166 0.14064994 0.39837426 -0.7184666 -0.288412 -0.05608365 0.6020278 0.44417477 0.77050096 -0.18538621 0.46115762 -0.22973725 -0.25170687 -0.20089991 -0.33666062 0.6956131 -0.7399248 -0.21642289 0.4064895 0.733687 -0.11275611 1.0091089 0.6920815 -1.4557562 -0.37515968 0.051851366 0.14766215 -1.4722546 -0.08332192 -1.0788625 -0.25371513 -1.0006585 -0.98259825 0.8659599 1.3212104 0.5633282 -0.38773125 -0.3425933 -0.7717042 -0.40820768 0.055375196 0.848825 -0.21750726 0.61853045 -0.14813688 0.42530847 0.6430666 0.3993457 -0.30600488 0.36332095
TWMET_00113 0.39194953 -1.0938004 -0.7025869 -0.033286724 0.92144465 0.20946388 -0.5350155 -0.52545303 -0.08698865 0.4561336 -0.42782116 0.3734072 0.4325669 -0.9131599 -0.47004187 1.4569379 -0.50517404 0.89780647 -0.091213025 -0.037155617 -0.16665544 -0.33878466 -0.328281 -0.057011206 0.26082653 0.96023977 0.29629382 -0.37363613 0.7639436 -0.09975985 0.0954036 -1.1245176 -1.094882 0.5359783 -0.34441558 0.19363323 -0.90720075 1.1360198 -0.40545297 0.7513743 -0.92943096 -0.10329889 1.153196 -0.697983 -0.44572452 -1.0725435 -0.07849534 0.355642 -1.279468 0.29555437 0.22590618 -0.031852175 -0.9117615 0.16174497 -0.0006765703 -0.5170367 0.60735947 -0.9088946 -0.043984093 0.8089788 -0.040632743 0.20205072 -0.14924943 -1.0748956 -0.40189737 -0.5850651 -0.42432183 -0.9494346 0.03824274 -0.90560466 -0.17680448 -0.5982404 0.6643962 -0.22449292 -0.6050846 0.165363 0.26684874 0.07254601 -0.17389075 0.018024234 0.22811884 -0.08226468 0.5596374 -1.0049026 0.35475254 -1.0599966 -0.7631355 0.6054787 -0.4151543 -0.36163688 -0.32529253 0.7500022 -0.22251625 -0.35454077 -0.4036943 0.51629406 0.63937086 -0.1384743 -0.8589003 -0.81726015
TWMET_00869 1.2184117 -1.2088906 0.58126193 0.9689367 0.13301393 -0.356759 -0.9411922 0.0008243916 0.35612956 -0.04729168 0.1539161 -0.05251883 0.8686414 1.1407473 0.04057461 0.68205374 -0.5457123 0.012401492 -1.015718 0.066456825 -0.13184494 -0.19116895 -0.9130756 -0.43667883 0.7856904 0.37925977 0.47985038 0.30717432 0.35295543 1.0880349 0.017371902 0.7148407 -0.114054546 0.5954439 -0.07059469 0.54911894 -0.1737441 -0.6081321 0.1567049 0.55464995 -1.2846678 -0.18376058 0.49229732 0.26164126 -0.28006798 0.20095815 -0.61428815 0.9973988 0.5797234 -0.12826172 0.7202075 1.1710367 0.12875268 0.17813116 -0.053439774 -0.4558568 0.4829785 0.22647978 0.09215664 -1.0773828 -0.52541786 -0.1761096 -0.8287461 -0.79051256 -0.095396064 -0.6002783 -0.30907682 0.44967842 0.08185579 -0.58806473 0.08493076 1.2774476 -0.35567114 1.1283205 -0.5482 -0.17806354 0.2626019 -0.69775546 -0.9768706 0.8930409 -0.6562639 -1.1313099 -0.2256906 -1.4663627 -0.31701392 -0.20592819 -0.38317642 -0.11097488 -0.75383514 0.37202036 -0.09781072 0.4952815 -0.79924256 0.5775386 0.3412425 0.8337768 2.0626795 -0.29990605 -0.2554944 -0.2156368
TWMET_01175 0.34077877 -1.0911465 -0.7609936 0.0088602565 0.8850061 0.17583632 -0.5693307 -0.4951993 -0.1078878 0.45322365 -0.4769116 0.25998122 0.4515244 -1.0257523 -0.5168652 1.5084436 -0.5341077 0.909402 -0.090004034 -0.055359196 -0.19676575 -0.27480584 -0.42619798 -0.04595922 0.22976653 0.9318103 0.27909294 -0.4737468 0.76456463 -0.15504998 0.00290317 -1.1324466 -0.981479 0.7470776 -0.26994294 0.28573334 -0.9034182 1.1308082 -0.30505943 0.79397994 -0.96143 -0.17300618 1.2027178 -0.5955164 -0.56428367 -1.1720157 0.06294187 0.42040363 -1.2642676 0.29987225 0.20959248 0.041682754 -0.97992796 0.11165942 -0.043850075 -0.5526235 0.58402264 -0.8461503 0.045570955 0.7856998 -0.061216217 0.22304201 -0.13044558 -1.1103568 -0.251606 -0.5393865 -0.49304822 -0.9296373 -0.06579406 -0.853148 -0.10710839 -0.6684547 0.69432503 -0.2924379 -0.5695067 0.19987929 0.29513818 0.0101827085 -0.068375945 0.16639937 0.1709648 -0.18223856 0.59669 -1.0883373 0.31220505 -1.119631 -0.7225482 0.5679045 -0.60103035 -0.39794683 -0.380468 0.7993828 -0.32821447 -0.3228381 -0.283394 0.5243974 0.6212928 -0.101550594 -0.79068106 -0.7768561
TWMET_00015 0.09394621 0.19565603 -0.5051231 -0.65117556 0.20670472 1.0456246 1.0573516 0.5177598 0.01141255 0.459324 -0.59193856 -0.29659793 0.40841305 -0.48272702 0.5911973 -0.36863425 0.609166 0.5245577 -0.31060383 0.061414123 -0.5045954 0.589331 -0.74854434 0.23909263 0.13455361 -0.8750326 -0.29648268 0.39964053 0.2400562 -0.79536223 0.24988778 -0.28444216 0.8821787 0.36214817 -0.5677301 0.0121111395 0.36824176 -0.6158643 0.22079359 -0.4803844 -0.81705976 0.23729895 -0.9973682 0.14244793 0.2651718 -0.24283727 0.7429589 1.2007064 0.28632462 0.58010197 0.16344994 0.5898692 0.16229711 0.42377886 -0.5193002 -1.3700955 0.58437437 0.32581848 -0.47250676 -0.43220153 0.47591826 0.6272583 -0.19708821 -0.16420671 -0.23377544 0.28361422 -1.1636666 -0.06225075 -0.68717086 -0.15235542 -1.0168995 0.31615168 1.8682189 -0.9666386 0.5199772 0.008373761 -0.45681804 0.4439534 0.30587783 -1.1953903 -1.5600878 0.021742389 -0.69221187 0.89729536 1.0399317 0.26654467 0.47092164 -0.9585931 0.023650294 -1.0157323 -0.37089694 0.3991401 -0.70350504 -0.92816293 -0.9462334 -0.7343683 -1.2599051 0.40716934 0.08543271 0.23144242
TWMET_00073 1.2025076 0.8336976 1.0905364 0.33438015 0.2722168 0.7297081 -0.19194613 0.91301966 0.9689588 1.1596817 -0.09004388 0.05603346 -0.55767757 -0.5276814 -0.24525432 -0.21673594 1.2123252 0.19478537 -0.39786723 -0.38074157 0.40918443 -0.06177154 -0.23640876 -0.27763504 0.43834066 0.5473914 0.29270673 -0.51843166 -0.59509736 -0.83229244 0.379248 -1.3865005 -0.8705688 -0.47872692 -0.52901775 -0.6404825 0.3981758 0.0047608046 0.078223825 -0.7220426 -0.78365797 -0.7067838 -1.3610958 -0.5457954 0.37740427 0.06753961 -1.0790501 0.17749052 0.24826834 1.5819204 -0.5751685 0.4964904 -0.096847415 -0.40464634 -0.49188548 -1.0523882 0.2827693 -0.103290744 -0.9165676 0.34794012 -0.050036296 0.12779057 0.41589123 -0.54650605 -1.734271 -0.305278 -0.2884038 0.7711468 -0.45577714 -0.20122032 0.0065972167 0.38195956 0.4654522 0.49091488 -0.77056736 1.1123966 -0.82171077 -0.59792846 0.044233862 -0.74697816 -0.4125823 -0.45187354 -0.22828223 0.15308188 0.10551928 -1.1393453 -0.1867537 -0.60009277 0.06527206 0.19072016 0.457604 -0.14487557 -0.74165136 -0.46360207 0.34891492 -0.6991047 -0.17050302 0.1063717 0.08047924 0.15039358
TWMET_00121 -0.19633618 0.21645407 -0.21827222 0.20057498 0.7394034 -0.15615168 -1.0322205 0.0071788183 0.06723577 0.3549346 0.6630252 1.0390056 1.1740171 0.56370133 0.37429824 0.1017328 0.48390365 0.5247007 -0.017847745 -0.22549357 0.83479434 -0.40546885 -0.5146078 1.0980608 -0.61987597 -0.12862627 -0.08106398 -0.39344907 1.0340583 -1.0802826 0.08299305 -0.88796324 1.0382648 0.31460592 0.04657162 0.52068955 0.877374 0.04830447 0.04793671 0.98101234 -0.3705204 0.7634584 -0.7556416 -0.36815026 -0.36000916 0.011720929 -1.1576195 -0.59989446 0.12401067 1.0472699 -0.4760589 -0.22508296 0.57470655 -1.2369735 -0.08939835 0.59762526 0.64440846 -0.005572765 0.99458116 -0.7009639 0.35128185 -0.16794387 0.20697023 -0.2819004 -0.7670192 -0.19548912 -0.32198247 -0.28235856 0.6503213 0.5532847 -0.45653436 0.6128464 0.4660758 -0.8804581 -0.08096925 -0.499724 -0.53208536 -0.42031854 -0.006351206 -1.4146229 -0.468372 -0.013902555 -0.664246 0.33224627 0.45670447 0.573734 -0.30067948 -0.5414472 -0.86120033 -0.013599538 -0.20731182 0.48810723 0.12656899 0.6236153 0.02194781 -0.27484939 1.071138 0.09168803 -0.38245478 0.59780926
TWMET_00190 0.0022088257 -0.14841941 -0.36184317 -1.2249749 0.20242524 -0.91538763 0.38270175 0.04557847 0.284949 0.72885954 -0.26534766 -0.23915952 0.91120136 0.41276357 1.505499 -0.04989524 0.5786256 0.24144533 -0.45091292 -0.091253996 -0.8852685 0.80447435 0.6382177 -0.8497897 -0.5821363 -0.59207755 -0.3718437 0.09540762 0.49863315 0.43053892 1.1765045 -0.07633132 0.0008387396 0.62253004 0.33009014 0.31162202 0.43892452 -0.49288064 -0.25548714 1.0046681 -0.0012996348 0.055449534 0.16123445 -0.10801068 0.7635256 -1.3531761 -0.065424964 0.5362763 -0.79367816 0.12669674 0.33564526 1.2073338 -0.5629752 -1.0268662 -1.1951127 -0.8166358 -0.53071845 0.60647136 0.24024215 -1.0291731 0.3208856 0.9094254 0.019112987 -0.29068673 0.18993066 0.20665634 0.1395596 -0.57336634 -0.41794783 -0.072032414 -1.0199552 -0.11452058 1.0449768 1.2237471 -1.0238736 0.24033116 -0.89718306 0.201044 0.014417221 -0.44135082 0.67191035 0.08273557 0.3548076 -0.7383117 -0.010394726 -0.645953 -0.55930847 -0.6924842 0.6686248 1.3093837 -0.31005257 -0.13942295 -1.0653617 -0.30851725 1.6202317 0.43002498 0.9624194 -0.79091877 0.6355963 -0.07448628
TWMET_00049 -0.076235294 0.49012727 -0.16026062 0.59606355 -0.06276971 -0.23449564 0.17619255 0.0022337832 0.443993 1.3352041 -0.7169131 -0.14335088 -0.39495343 -0.35822433 -0.49900478 0.24631639 -1.1268407 -0.018373016 -0.22226672 0.07059928 0.56029385 -0.37418726 -1.6238549 0.9866809 -0.04422811 -0.22968574 -0.49415314 -0.2375525 0.22553767 -0.09131776 -0.067109935 -0.93836945 0.27871522 0.66944504 -0.23186363 0.31517377 -0.02241163 -0.77768254 0.6475418 -0.83790976 0.75448316 -0.49752605 -0.77190906 -0.43687528 -1.2888168 -0.028630571 0.80857676 0.7743057 0.08604137 0.002997418 -0.8702607 0.5870229 0.22974735 -0.69578683 -0.06040805 -0.3081087 0.61045307 -1.0323725 -0.6896153 -0.00017071443 -0.82517475 0.57294863 0.018521776 -0.3122948 0.22732674 -0.11764795 0.13989508 -0.7629144 -0.85112023 0.24284332 -0.6531994 -0.63668925 0.53832525 0.89502895 0.6518062 1.024699 0.16993994 0.25677812 -0.22845636 1.0396817 -0.5282392 -0.63048 -0.8454525 -0.67609435 -0.37322092 0.5135668 -0.27953696 -0.22413385 -0.53545654 0.26467243 0.19872443 0.4494349 -0.5986788 0.44471142 -0.074632555 -0.32919902 -0.5885919 -1.1343825 0.021656001 0.12258453
TWMET_00134 -0.10130226 0.53597486 -0.71968615 0.9857665 -0.29426223 -0.8303819 -0.7669976 -1.2554365 0.14219423 1.2520094 0.103230186 0.589641 0.7416791 -0.42528042 -0.44205377 0.12518378 0.35673502 -0.5374407 -0.22566758 -0.28129947 0.5155064 -0.71089834 0.7694533 0.16724601 -0.2915774 1.1880598 0.254655 0.8916669 -0.12287495 0.7788911 -0.5751598 0.4486411 0.70210576 0.3181317 -0.7273913 0.07629181 0.73304063 0.9698846 -0.9908461 0.87218136 0.532411 -0.37975958 0.39850396 -0.75019264 1.2361054 -0.26008403 -0.30717456 -0.16914612 -0.30732432 0.21949404 0.057598203 1.3443778 0.078754455 -0.5019089 -1.1840105 0.7547968 0.6375309 -0.32404444 0.41679057 -0.62748164 -0.09717775 0.7451378 -1.802046 -0.0041268766 -0.90025723 -0.9077238 0.37475312 0.15784816 0.6156056 0.5572897 -1.2099488 0.18680978 -0.24908917 0.89931154 0.7164107 -0.25997528 0.56225616 0.3013808 0.5723328 -0.9639666 -0.043754023 0.4160986 -0.46112067 -1.1484358 -0.68554413 0.53085095 -0.64210755 0.3525757 -0.48344553 0.7795288 -0.060239807 0.68237376 -0.49428138 0.6766498 -0.022767333 0.63798434 1.2750981 -1.756999 -0.58831304 0.17362879
TWMET_00507 1.1225406 0.91311693 0.96472037 0.43326074 0.1939008 0.71366554 -0.040776055 0.808889 0.95204437 1.2827188 0.06683612 0.15383254 -0.5146548 -0.7420303 -0.41364023 -0.16203035 1.2711799 -0.15260245 -0.30426052 -0.32184553 0.41348708 -0.29708663 -0.09814962 -0.3389696 0.4350958 0.5547921 0.019393794 -0.47656128 -1.0102459 -0.8519906 0.059652347 -1.2783793 -0.73248404 -0.36640775 -0.627004 -0.7366381 0.5521215 0.14668773 0.018783117 -0.68567646 -0.6409779 -0.70239097 -1.2415212 -0.78969336 0.3869131 0.076100096 -1.262781 0.1713158 0.124272205 1.6297883 -0.5523442 0.45002878 -0.013501989 -0.4696204 -0.27640495 -0.9251047 0.40131435 -0.49375135 -0.75922674 0.228783 -0.23126374 0.27674052 0.21299075 -0.43317732 -1.4800274 -0.44808313 -0.455451 0.8822538 -0.67434996 -0.22268349 -0.023281157 0.4247777 0.24634847 0.59045726 -0.8030914 1.1299746 -0.6112151 -0.64053035 0.3043396 -0.6916554 -0.5840756 -0.27633247 -0.21100397 -0.02182025 0.21488248 -0.9339258 -0.22822729 -0.4766458 -0.057320505 0.10002236 0.61285657 -0.21153124 -0.61870337 -0.37763107 0.4141836 -0.67573 -0.019029928 -0.068013445 0.055325087 0.35020623
